{"layers":[{"out_depth":1,"out_sx":20,"out_sy":20,"layer_type":"input"},{"sx":5,"sy":5,"stride":1,"in_depth":1,"out_depth":8,"out_sx":16,"out_sy":16,"layer_type":"conv","l1_decay_mul":0,"l2_decay_mul":1,"pad":0,"filters":[{"sx":5,"sy":5,"depth":1,"w":{"0":0.41892032243016153,"1":0.8850520551207219,"2":1.1094152417458971,"3":1.4316241979888893,"4":1.9025595005947888,"5":0.5657580616685465,"6":0.809826412990435,"7":0.3231681080805482,"8":0.17148837686496515,"9":1.1882940521922232,"10":-0.13510248137519917,"11":0.16489227988110558,"12":-0.19974076529436152,"13":-0.1439479550020154,"14":0.7662891035694996,"15":-0.3863550788786778,"16":-0.21632612473135152,"17":-0.7012922516249148,"18":-0.717496377768555,"19":0.5721080663484864,"20":0.3240041123475649,"21":0.3941660645820741,"22":-0.3683660426134627,"23":-0.6495268162199703,"24":1.0571764512067963}},{"sx":5,"sy":5,"depth":1,"w":{"0":-0.8326630206710396,"1":-0.5802073168725665,"2":0.29600358020394874,"3":-0.5255041218423255,"4":1.5771037300767001,"5":-0.38586845781242474,"6":-1.0238793702274258,"7":-0.04641216951773286,"8":0.7282902131772,"9":0.9179977962585788,"10":0.29846953202671866,"11":0.016781381812451042,"12":0.6655021366857878,"13":1.0619318089241423,"14":-0.860187655699133,"15":-0.5580145779804484,"16":-0.9359564542134394,"17":0.3356803649811751,"18":-0.6832116806150441,"19":-2.148115094109726,"20":-1.3854587040842798,"21":-1.112781965478076,"22":-0.47525440584165224,"23":-1.4560917402996902,"24":-0.8003232937264702}},{"sx":5,"sy":5,"depth":1,"w":{"0":-1.668706099883593,"1":0.8510269949865211,"2":0.35958642054590845,"3":-0.8030436309671658,"4":-0.4995239571944099,"5":-2.3392236827916717,"6":0.8767658476902226,"7":0.7174226560845897,"8":-1.2954910065735685,"9":-0.6501609275194835,"10":-2.467402402623676,"11":1.1615250509926778,"12":0.7702194868408558,"13":-1.897185947121849,"14":-1.0023827054354713,"15":-2.1792967208286242,"16":0.9838367882860758,"17":0.4416032391400415,"18":-1.0539797620521965,"19":-0.7429217461805032,"20":-1.6888458396456079,"21":1.273466885345195,"22":0.2827265681187448,"23":-0.14879235248619618,"24":-1.002365573469608}},{"sx":5,"sy":5,"depth":1,"w":{"0":-0.2557322002405207,"1":1.4725263677544584,"2":0.21692143146517506,"3":-0.8615436660223065,"4":-1.760261583508207,"5":0.9345648657148494,"6":0.08895551890296127,"7":-1.0157150998327567,"8":-0.07169372138882048,"9":-0.6261128336867674,"10":0.16299641148871538,"11":-0.9140496773295745,"12":-0.895683867269774,"13":-0.4361834357425131,"14":0.3517278991461531,"15":-0.8191646601736515,"16":-0.7073904667187354,"17":-0.43112224993065756,"18":-0.1720512769274115,"19":0.5487967551245683,"20":-1.1799835451666076,"21":-0.7672901137493735,"22":-0.25709037356376824,"23":0.2574198163888555,"24":-0.37068787135024556}},{"sx":5,"sy":5,"depth":1,"w":{"0":0.23113026204342016,"1":1.0249209331827507,"2":0.39874844852844515,"3":-1.1370480863276646,"4":-1.1363589831288212,"5":0.1678677202354524,"6":1.2062791612209853,"7":1.8628318229652145,"8":1.0978779997054586,"9":-1.4980836888897693,"10":-0.30851726210615454,"11":-0.2463545273081418,"12":1.3761816629583057,"13":1.1641445094668974,"14":-0.6011743792264012,"15":-0.6995138372599241,"16":-1.1990381838506847,"17":-0.796651400016231,"18":1.261958672189057,"19":0.6713193748244903,"20":-0.23455662255246132,"21":-0.8800979168790649,"22":-2.1243670251209146,"23":0.4225086517545845,"24":1.736128268207803}},{"sx":5,"sy":5,"depth":1,"w":{"0":0.30537446878200686,"1":0.143653022818166,"2":-0.22738053516129775,"3":-2.127446259979729,"4":-0.8924960859877709,"5":0.12434402602773441,"6":-0.5212124624924555,"7":-0.8905184744808069,"8":-0.8373262970436234,"9":1.6828367374432291,"10":0.10121286509467954,"11":-0.44651404111746434,"12":-0.1615654226807458,"13":1.3254383986108365,"14":1.1084561710720375,"15":-0.82924200163423,"16":-0.1897552662359975,"17":1.1814975716239993,"18":0.7441924042570199,"19":0.22475726443963762,"20":1.0175251038098119,"21":1.3824620711844193,"22":1.093919689183141,"23":0.35146796181724,"24":0.5243707095074315}},{"sx":5,"sy":5,"depth":1,"w":{"0":1.068010086650632,"1":1.171341989025161,"2":1.319545695076245,"3":1.3108388163371743,"4":0.8221906705973216,"5":0.15361452611707763,"6":-0.37737980475889554,"7":-0.048199270290032646,"8":0.5078993592611487,"9":-0.20426400285352758,"10":0.8525726496296848,"11":0.43293989215588496,"12":0.5814713806369135,"13":0.8626849536034494,"14":1.4197123985812394,"15":0.7411120493254713,"16":-0.28535402459453807,"17":-0.48073476557890726,"18":-1.2467042083590432,"19":0.0303413529585979,"20":1.2688059652879313,"21":-0.3684275172483344,"22":-0.6050637213349969,"23":-1.2918070753145467,"24":-1.427669753263715}},{"sx":5,"sy":5,"depth":1,"w":{"0":-1.5509688538708077,"1":-0.8313093942161198,"2":-0.6429691361834488,"3":0.8890265363412863,"4":0.9963457701386387,"5":-0.7966006155190228,"6":-0.21204122675148188,"7":-0.004009048463019019,"8":0.5961527287230127,"9":0.303496661690903,"10":-0.5866825428322696,"11":0.006373515414332031,"12":0.3607827706565262,"13":0.7689343611424223,"14":0.38477985026900685,"15":0.10194792648010549,"16":0.41791670065104747,"17":0.5898621272337878,"18":0.4262466564906026,"19":0.3333784204006791,"20":0.27465361842470576,"21":0.5433471901147481,"22":0.9034144423841634,"23":1.2170101375740277,"24":0.5940076056955587}}],"biases":{"sx":1,"sy":1,"depth":8,"w":{"0":-0.9770985596561997,"1":1.3119481318662918,"2":0.8063170153300295,"3":1.855460077759903,"4":-0.22333435905143226,"5":-0.362697623528204,"6":-0.6170036329887097,"7":-0.5853046924249058}}},{"out_depth":8,"out_sx":16,"out_sy":16,"layer_type":"relu"},{"sx":2,"sy":2,"stride":2,"in_depth":8,"out_depth":8,"out_sx":8,"out_sy":8,"layer_type":"pool","pad":0},{"sx":5,"sy":5,"stride":1,"in_depth":8,"out_depth":16,"out_sx":4,"out_sy":4,"layer_type":"conv","l1_decay_mul":0,"l2_decay_mul":1,"pad":0,"filters":[{"sx":5,"sy":5,"depth":8,"w":{"0":-0.12025479920688405,"1":-0.1582740429786662,"2":-0.1105326391981702,"3":-0.12712697397849823,"4":-0.1615060214029342,"5":-0.11793763147464759,"6":-0.12633247380961646,"7":-0.09195776276982244,"8":0.09873954871702902,"9":-0.08417283982856039,"10":-0.2924467285946105,"11":-0.10668392083984785,"12":0.1968398774780596,"13":0.044724603324998745,"14":-0.1318322730736743,"15":0.0033371829460888272,"16":-0.354407061134335,"17":-0.06308392906183952,"18":0.38317018383001,"19":-0.1839037897060309,"20":0.00767148319984463,"21":0.1803888404862615,"22":-0.29403130682383716,"23":0.09245906299060906,"24":-0.005824411038808138,"25":-0.05692611734280542,"26":-0.25626896334184485,"27":-0.08676522248241897,"28":-0.6785006221368444,"29":0.04430591460649397,"30":-0.17888335342543535,"31":0.13146138317121372,"32":0.08602738215688693,"33":-0.06634285060953454,"34":-0.13555368516989286,"35":-0.07065475109265355,"36":0.2612821926188642,"37":0.2689314159422612,"38":-0.13897119289272172,"39":0.18987561780881093,"40":-0.14746546086519222,"41":-0.25696532496915236,"42":-0.07912879824973945,"43":-0.13502503713067465,"44":0.015133077239386096,"45":0.03420580929111723,"46":-0.031781798747616066,"47":-0.05239776034693152,"48":0.43347290151810425,"49":0.052931796004382865,"50":-0.13206060780603518,"51":-0.2366350044592811,"52":-0.35170924613861204,"53":0.15298368924044964,"54":-0.4080199137215123,"55":0.19749886278670253,"56":0.09887171209787066,"57":-0.16368735114919997,"58":0.206044636633464,"59":-0.010822940305403459,"60":0.0496686646101859,"61":0.07997344800791713,"62":-0.18358579060227298,"63":0.2935376339529554,"64":0.3914845807222359,"65":-0.35947253453972705,"66":0.3031491031489196,"67":0.1646088050594633,"68":-0.5148659676220777,"69":0.3147047859315187,"70":0.002258868473835411,"71":0.4043655524938687,"72":0.1772157115564561,"73":-0.0960257221329446,"74":-0.19107226443817493,"75":-0.01895193047971669,"76":0.2543684838430387,"77":-0.19055281353090445,"78":-0.2814771082485868,"79":0.32118567355025285,"80":-0.04651144846088721,"81":-0.15908247268298314,"82":-0.22229180704737786,"83":-0.15364635570238744,"84":-0.15142778307047058,"85":-0.045360620031057994,"86":0.2056374587046626,"87":-0.11329925106131913,"88":0.11437221273185873,"89":-0.19485009216128427,"90":-0.08254535127391828,"91":-0.061796076441865265,"92":-0.16001916352511825,"93":-0.043057542324734396,"94":-0.2492826348603616,"95":0.0006151706729460913,"96":0.039178620851480384,"97":-0.3300503126421359,"98":0.08551115265660884,"99":-0.268644421746694,"100":0.2403037624369529,"101":-0.3124004652536287,"102":-0.1685251601044989,"103":0.1517454136730177,"104":0.18960331085265186,"105":-0.16418313852871513,"106":-0.009422719054209874,"107":-0.11838191512664632,"108":-0.19130567894610728,"109":0.44035545675808,"110":0.024160344839999726,"111":0.1731188703945332,"112":0.2319108203255379,"113":-0.5236895276438235,"114":0.1424810305827667,"115":-0.22869746855127082,"116":-0.08332963128483911,"117":0.14565769868891543,"118":0.034916175146931835,"119":0.17985745644660564,"120":0.057352617209773735,"121":-0.07898396090467728,"122":-0.044139303900774064,"123":-0.00039072781963899036,"124":-0.061717144759753755,"125":-0.013172009884819397,"126":0.0932639651635792,"127":-0.020311692370579,"128":0.04347726959207757,"129":-0.0015262633854474044,"130":-0.10765519256073483,"131":-0.17424728576773502,"132":-0.08823056455505772,"133":-0.20030548871923487,"134":0.1535572412704918,"135":-0.04182104677614886,"136":0.1144097571282179,"137":-0.24706045089093073,"138":-0.041072545035342314,"139":-0.3409729786573365,"140":0.24215503140562508,"141":-0.26216215944164917,"142":-0.03555736850467096,"143":0.15261442167193998,"144":0.08739147136058163,"145":0.08033316056112129,"146":-0.15304180134499457,"147":-0.48096650108036243,"148":0.030837424654730963,"149":0.24238180441343832,"150":0.019414939047762095,"151":0.21973184650629657,"152":0.20089270525039588,"153":-0.398868553188646,"154":0.001978816034218831,"155":0.022314832569388966,"156":-0.3165033870475533,"157":-0.20092213015477284,"158":0.23213898237984237,"159":0.11303497441944373,"160":-0.14466367517675596,"161":-0.21029881681677098,"162":-0.1476859403988421,"163":-0.006008466233843292,"164":0.05493719883254678,"165":-0.22290364894198025,"166":-0.060076640429962934,"167":-0.1914273365223212,"168":-0.2712321291954999,"169":0.24145849683984402,"170":-0.16525279889958855,"171":-0.10262353409385372,"172":-0.11127704736894192,"173":-0.18935182757389565,"174":0.007130422748993511,"175":-0.22253531108010519,"176":0.4884218826607246,"177":-0.49765726866520416,"178":-0.6362685840022473,"179":-0.8108480047353586,"180":0.23275807359085796,"181":0.07408056182774767,"182":-0.0651153457381508,"183":0.10529379544330127,"184":-0.14170736848317378,"185":-0.627920179418894,"186":-0.14131722591379672,"187":-0.3064210584902227,"188":0.14003959016691545,"189":0.1856185761884163,"190":-0.3835304643017483,"191":0.22903685358855458,"192":-0.2948810355003284,"193":0.19427190356377275,"194":-0.2091140430534393,"195":0.0023518313387971106,"196":-0.6884321577136183,"197":0.07391430675763316,"198":0.22361681702291872,"199":-0.18322203476047674}},{"sx":5,"sy":5,"depth":8,"w":{"0":-0.07967429632041492,"1":0.01660973561448424,"2":-0.5678138529872746,"3":-0.2701371514732335,"4":-0.34196845224027894,"5":0.2923567161960217,"6":-0.3092999516307312,"7":-0.003756127550202044,"8":0.15213652503415737,"9":-0.5553926074718207,"10":-0.6202019559572043,"11":-0.3624730176105094,"12":-0.35360987596098253,"13":0.15295099555382466,"14":0.23698883841340657,"15":0.40668137738015614,"16":0.03438310054305754,"17":0.06742730381367124,"18":-0.8123338603330762,"19":-0.4882097131094492,"20":-0.05429229760796987,"21":0.25078867384965436,"22":0.20510828215174556,"23":0.2043340888071092,"24":0.22770041514743947,"25":0.05244367398097311,"26":-0.9613266176418015,"27":-0.4364953507854228,"28":0.28057817969851456,"29":0.22436466827997004,"30":0.687906662941948,"31":-0.05250229535956826,"32":0.09497538647645562,"33":0.4844984215804576,"34":-1.4982381705895367,"35":-0.6158351104582958,"36":0.40330791982929803,"37":0.3164159726643766,"38":0.4657911790197797,"39":-0.6406349103462387,"40":0.5175569299951789,"41":-0.45532023626558815,"42":-0.5352879712003707,"43":-0.4258342139503348,"44":-0.33057114495077455,"45":-0.14089339905459686,"46":0.12282957748757296,"47":0.17437004491049599,"48":0.24579889688537598,"49":-0.2546461761653137,"50":-0.7089605807272557,"51":-0.26965450612135256,"52":-0.225788059999941,"53":0.07391078403059695,"54":0.6129074225079969,"55":0.26164928442512725,"56":0.0451903874640849,"57":0.016129542361351272,"58":-0.43894069371689337,"59":-0.13677367534956753,"60":-0.08160136501154057,"61":0.2543733335387405,"62":0.5530016237878125,"63":0.23365572175659474,"64":0.15465061195349583,"65":-0.3523858478293093,"66":-0.7438940320289745,"67":0.2290899175442033,"68":0.3968346656937658,"69":0.29194094298709233,"70":0.33590044551993253,"71":0.06835106596062253,"72":-0.33587766246996686,"73":-0.624255574481407,"74":-1.079476035341632,"75":-0.03156694040245601,"76":0.7288931481335467,"77":0.028142706546929783,"78":0.32933762491254065,"79":-0.6016281273863275,"80":0.4658563169480119,"81":-0.5299866039571758,"82":-0.5731344358769416,"83":-0.3904847849695939,"84":-0.31445393913108205,"85":0.007534491889676007,"86":-0.2834139689959664,"87":0.151979757302747,"88":0.40494778606492626,"89":-0.2000400524273272,"90":-0.19209907070723212,"91":-0.004315663304480882,"92":-0.27410260385982044,"93":0.16951247849617926,"94":0.37314622392728,"95":0.3035568590392412,"96":-0.0053730923275547415,"97":0.23124156736079407,"98":-0.43044365435787246,"99":0.07617393222879816,"100":-0.09712440133636578,"101":0.36937255476365766,"102":0.514303204110733,"103":0.03422677419703715,"104":0.2401318169003859,"105":-0.16645311016539663,"106":-0.5927100175026042,"107":0.010592527483285513,"108":0.47049256755933794,"109":0.16703444060600758,"110":0.5786579115368043,"111":-0.14657326213943736,"112":-0.02985639772347403,"113":-0.45268501288748764,"114":-0.7651276274538922,"115":0.17602261444555256,"116":0.9484270056422308,"117":-0.1410791186193034,"118":0.14307867418457554,"119":-0.6386071426218266,"120":0.47014418872964353,"121":-0.384444614502053,"122":-0.10703618158510275,"123":-0.38850377066965047,"124":-0.01132852707318875,"125":-0.1786884555677421,"126":-0.1797278976840949,"127":0.33389059761049483,"128":0.46621920704834985,"129":-0.33139029563179473,"130":0.18784334609846884,"131":-0.20105451854798198,"132":0.05988575060067872,"133":0.08000500727584504,"134":0.28669065140907396,"135":0.41131204437058033,"136":0.17569466709187426,"137":-0.145636774795143,"138":-0.02844859704847806,"139":-0.32595692742190785,"140":0.3142916153255459,"141":0.03444976265794647,"142":0.33780104981964526,"143":0.23592985812022865,"144":0.5885863200933505,"145":-0.28398248402166393,"146":0.09656992919931975,"147":-0.2925635297987228,"148":0.3533788599875555,"149":0.20626464664714853,"150":0.42804371719989254,"151":0.07961851947784386,"152":-0.0652811330368452,"153":-0.15241008112827714,"154":-0.5342409373178618,"155":0.1325623367642426,"156":0.715846908380978,"157":-0.009824668726548066,"158":0.38409025082789794,"159":-0.4753800585874157,"160":0.2692201928710416,"161":-0.10972144971027219,"162":-0.2207098172715748,"163":-0.1434020458915336,"164":-0.2398642225257634,"165":0.05319523888589955,"166":-0.1802788903695246,"167":0.26036423960341176,"168":0.38494914139364633,"169":-0.34658928023739816,"170":0.27964383974058366,"171":0.0177595700527492,"172":0.1736191577138666,"173":0.29349910400341134,"174":-0.062011550989412155,"175":0.3797409055672359,"176":0.28619264056701804,"177":0.08975676259424765,"178":-0.09640132611108135,"179":-0.46737953870318544,"180":0.6146466480896967,"181":0.2110464869963607,"182":0.22493952371477077,"183":0.10170504705222604,"184":0.3558099430697095,"185":0.24334674377817309,"186":-0.14741565560580566,"187":-0.72252429512657,"188":0.6667563354646876,"189":0.10793385523134731,"190":0.3846520396774276,"191":-0.08111577355362223,"192":0.09719930357684024,"193":0.3111445622452181,"194":-0.5639954437270349,"195":0.01661145109700783,"196":0.32417430216715815,"197":0.017174653448417527,"198":0.25319849772902153,"199":-0.7050462991406826}},{"sx":5,"sy":5,"depth":8,"w":{"0":-0.5823001182776317,"1":-0.2571546277736727,"2":0.20511570030469295,"3":0.04383187830299504,"4":-0.3340732079994394,"5":0.0781412181458105,"6":-0.505266138415244,"7":-0.31096775929833764,"8":0.2718050006550848,"9":-0.11590150992649045,"10":0.026931911018240974,"11":-0.1928927389396322,"12":-0.48136049445385387,"13":0.26480378508118124,"14":0.21590391632011288,"15":0.3423972225774983,"16":0.024733579823363983,"17":-0.0960017163826791,"18":0.06893742733260054,"19":0.061599202420148776,"20":0.6541303093395932,"21":-0.07901406689448379,"22":0.1724917818484702,"23":0.013142215922510005,"24":-0.3215706762480356,"25":-0.17597833415137198,"26":-0.1034332911313791,"27":-0.015830155442011468,"28":0.12761977974452804,"29":0.11308316255846151,"30":-0.3575940955064243,"31":-0.284528380108659,"32":0.39796543740547086,"33":0.14944001512407615,"34":-0.24878670603865183,"35":-0.3685162780435143,"36":-0.45542640676506313,"37":0.21396363001645047,"38":-0.24019071155242733,"39":0.23820111147217918,"40":-0.43591363106522696,"41":-0.4899857739129052,"42":0.2945934336010605,"43":-0.1968188945279854,"44":0.5635706137342437,"45":-0.12113719569261117,"46":-0.6396002736251413,"47":-0.22103389131349147,"48":-0.3525268300700053,"49":-0.021740710106166083,"50":-0.06400050025749306,"51":-0.5280273991484837,"52":-1.0039476031735932,"53":0.2557074594580062,"54":-0.29520456594701444,"55":0.13524800802683137,"56":0.5017502691246131,"57":0.11703265406676647,"58":0.2933957991042258,"59":-0.02418232192543598,"60":0.2506444317828527,"61":-0.13750024821179807,"62":0.673911570872392,"63":0.12228704769962359,"64":0.12423941950900323,"65":-0.43160125937672916,"66":-0.08714953472262225,"67":0.3012485018001949,"68":0.8208846955957244,"69":0.21187393912714003,"70":-0.18509827916251467,"71":-0.25023836742502387,"72":-0.271862838159979,"73":-0.37778486439546716,"74":0.10202674033448596,"75":-0.3551617089911185,"76":-0.20175180019336783,"77":0.12378326233244741,"78":-0.47396064728838605,"79":0.09680086187107106,"80":0.03604459117483199,"81":-0.07727839939552957,"82":-0.08833087731256417,"83":-0.413308264481079,"84":0.6959937922028173,"85":-0.11363033696412272,"86":0.02862813217086579,"87":-0.18576997827992459,"88":-0.31883318039025843,"89":-0.2810793808210082,"90":-0.1194773651301503,"91":-0.17666494718830875,"92":-0.4521283970370695,"93":0.08011439959606477,"94":-0.44116405435023204,"95":0.05160931317370703,"96":-0.15615594903562066,"97":0.15541274111782288,"98":0.13018765472111907,"99":0.18459621124306846,"100":-0.18431996105708406,"101":-0.06928506332979092,"102":0.05806418166500175,"103":0.16733383056443143,"104":0.2742129407811642,"105":-0.03139921770603852,"106":0.16968197451010655,"107":-0.4057058362397721,"108":0.3707887844770681,"109":0.013776687313708735,"110":-0.09999325984840815,"111":-0.173064751829265,"112":-0.29539245917124657,"113":-0.6437202328116864,"114":-0.0743241115153457,"115":-0.08693047782632449,"116":0.23944494927687993,"117":0.14549183802199028,"118":0.025760856495587698,"119":-0.09509501916430599,"120":0.39589728109058714,"121":-0.22387721021890128,"122":-0.10506303551224762,"123":-0.5177746917124134,"124":0.37404095233682205,"125":-0.10362574398495157,"126":0.3593469557378798,"127":0.09411015602603058,"128":-0.12990450474899473,"129":-0.07317843441761798,"130":0.20316288012423697,"131":-0.12534254222167285,"132":0.2653118869140667,"133":0.19924479309775386,"134":-0.18023830322002515,"135":-0.06543358513484619,"136":0.03029657883225125,"137":-0.3387744688362057,"138":0.31618333575184626,"139":-0.061166227705486645,"140":-0.18096551809419723,"141":-0.18540887890858296,"142":-0.5198398778405724,"143":0.25096959325254986,"144":0.1975426144659013,"145":0.3868998468150301,"146":0.5348922451178865,"147":-0.1811400609768085,"148":0.5082015404759701,"149":-0.41803200232795296,"150":0.2344650780528915,"151":-0.049394177902120126,"152":0.015364395334112494,"153":0.18025416874777073,"154":0.38279781403782187,"155":-0.5186322570823436,"156":0.7076141690539753,"157":0.30949392599137876,"158":-0.43071403306221073,"159":0.11319061274320674,"160":0.43485654479127117,"161":0.2988382368352592,"162":0.0637866548352932,"163":-0.15061073104392333,"164":-0.11650340679937614,"165":-0.42745793336798793,"166":0.750681202534235,"167":0.06837645594694976,"168":0.3636903497172222,"169":-0.006797640753363322,"170":0.09983675272970781,"171":-0.1347118914250879,"172":0.8281013627760032,"173":0.18882604700389888,"174":-0.08125961235515217,"175":0.3236970961128166,"176":-0.5755080323623356,"177":-0.2956813503943253,"178":0.26136444663884256,"179":0.08486529732263264,"180":0.01430245885927831,"181":0.193362629044653,"182":-0.7327321134703035,"183":0.12824391831248744,"184":-0.3152797562873796,"185":-0.19509335069603842,"186":0.7378413948096905,"187":-0.03574479584635832,"188":-0.09879944073742217,"189":-0.5539351596604272,"190":0.2790956517871897,"191":-0.12159858327445558,"192":0.3143531079307193,"193":0.4855077506583431,"194":0.006091915741652376,"195":-0.5127472675231538,"196":0.7587488680318073,"197":-0.2059544644368631,"198":0.17513517345638208,"199":0.1790345896838691}},{"sx":5,"sy":5,"depth":8,"w":{"0":0.13498981280427003,"1":-0.7235018163588989,"2":0.44701614035899634,"3":0.02462152685832601,"4":0.7715904570163759,"5":0.2335356795337809,"6":0.21692597350611773,"7":-0.22307626432753763,"8":-0.5604243001934008,"9":-0.35471261571711094,"10":-0.3568557601604017,"11":0.02147073604360429,"12":0.07140727816989301,"13":-0.2596306326402808,"14":-0.0725589470449191,"15":-0.3718151647790948,"16":-0.026119973293532425,"17":-0.020171569779086965,"18":-0.36389417913758765,"19":-0.28691520608992305,"20":-0.31721866144062383,"21":-0.4553638218663051,"22":0.12508385187476723,"23":0.249449142055616,"24":-0.07667274751414783,"25":-0.45235311854692384,"26":-0.014231649060663152,"27":-0.03677947481405164,"28":0.3606103469201359,"29":0.28321901979773506,"30":0.20303254634376003,"31":0.21865633148326905,"32":-0.36015341902995807,"33":-0.47489157800141263,"34":-0.27545901131211475,"35":-0.08482802490404065,"36":0.6176445190283042,"37":0.6129639523584507,"38":-0.20272673462260862,"39":0.2858166648590953,"40":-0.10326898958452528,"41":0.1279447733954404,"42":0.13771041948509857,"43":-0.15402299185805537,"44":0.7236915342412045,"45":-0.1974812788741056,"46":0.296903883279146,"47":-0.24121776873618225,"48":-0.6035553113591388,"49":-0.6444596486668768,"50":-0.5539257959850497,"51":-0.21882496910204915,"52":-0.22341063496695998,"53":0.2535070470173468,"54":0.008849683926968463,"55":0.05931211644036074,"56":0.2378721071375243,"57":-0.029526772503860134,"58":-0.04242733116607129,"59":0.1442337968426497,"60":-0.22814661286312224,"61":0.41729853581601895,"62":0.07636078945224486,"63":0.022598673499014146,"64":0.3125766691805177,"65":-0.28908794237072405,"66":-0.5102844374740237,"67":0.28235546644396187,"68":0.24939802706554334,"69":0.030606033170072135,"70":0.3331745789454967,"71":0.09674311624007283,"72":0.2902149254580416,"73":-0.33609567078820446,"74":-0.21566546639063444,"75":-0.43355146100606445,"76":0.4155344705241036,"77":0.020984970655681126,"78":0.36051754709294564,"79":0.10242838060114576,"80":-0.2924070990276225,"81":0.296745018942193,"82":-0.2644039369896289,"83":-0.06799426485656372,"84":0.37677235766489603,"85":-0.01897504000830366,"86":-0.0616022526404889,"87":-0.1393970655294293,"88":-0.5273675923604564,"89":-0.017795640683534647,"90":0.20569460875445747,"91":-0.13444309668663623,"92":-0.351475555700895,"93":0.41639062862631276,"94":-0.0865523019393871,"95":-0.28587737205776087,"96":-0.10141385547037712,"97":-0.08336813213182413,"98":0.03505945464414384,"99":-0.12087060106379419,"100":-0.2759618077239557,"101":0.05769618243620877,"102":-0.1261875687332893,"103":0.17679333102674002,"104":0.0256803727188842,"105":0.3615813158576827,"106":-0.26969554249644356,"107":0.01665223849924568,"108":-0.48315646888257163,"109":0.10396690604861422,"110":0.4489067182769038,"111":0.13360242511825884,"112":0.28910852764259615,"113":-0.06981195251816188,"114":0.07329595454544316,"115":-0.0032501455935443615,"116":0.3616022911873015,"117":-0.22251450834979056,"118":0.46877386656710135,"119":0.1624078542484802,"120":0.17247924531208486,"121":0.13935906489421812,"122":-0.23382747282058305,"123":-0.07374510692304584,"124":0.0796020017730063,"125":-0.11809053769084024,"126":-0.42920843648206797,"127":0.2545225547683932,"128":0.388750527225179,"129":-0.1577310060935574,"130":0.6438609977966793,"131":-0.2222253486842287,"132":-0.17388635249071202,"133":0.13185858527881406,"134":-0.13699466675090807,"135":-0.1685010475651835,"136":-0.054134199297039796,"137":-0.30896180352315034,"138":0.08656046175837813,"139":-0.15990641024048327,"140":-0.5100248666415849,"141":0.0551566425393369,"142":0.0016488971304613063,"143":-0.2585329640325016,"144":-0.07394615368329749,"145":0.09012075386122322,"146":0.25958650575064746,"147":0.06128864004397466,"148":-0.1109543020107895,"149":-0.5383604332979365,"150":-0.14952202491647307,"151":-0.20742748687213916,"152":0.135649047157785,"153":0.20097433914075052,"154":0.17198129185569855,"155":-0.13780971242866963,"156":0.1362834043446736,"157":-0.11083118749890626,"158":0.07870559963076855,"159":0.04601849540213435,"160":0.2157966139845817,"161":0.22611791075773066,"162":-0.4717756415995342,"163":-0.09090461719524924,"164":0.1130233303843025,"165":-0.5641141475360428,"166":0.38518677176904614,"167":0.19137540075358994,"168":0.19312411633441406,"169":-0.17536671082544233,"170":0.6401162302477559,"171":-0.18120323055917728,"172":0.8230123984152731,"173":-0.32065637828816845,"174":0.20390419874954355,"175":-0.2530214226527766,"176":-0.1632429999440405,"177":-0.048138032310044675,"178":0.20751043252973458,"179":-0.22029940537837114,"180":0.13133244534760252,"181":-0.2209988141606582,"182":-0.016464001815942854,"183":-0.2865318445821183,"184":-0.28498005230378903,"185":-0.10092774277922995,"186":0.300960831481347,"187":-0.026876308847025306,"188":-0.322242288343819,"189":-0.07392829141606914,"190":-0.02772631397440712,"191":-0.45248134884833513,"192":0.1307442751673147,"193":0.6600757613417936,"194":-0.024111555676213446,"195":0.018422907414326523,"196":-0.3669266867334145,"197":0.19433040710501065,"198":0.182760489625848,"199":-0.15272023187061032}},{"sx":5,"sy":5,"depth":8,"w":{"0":0.3546970374781635,"1":0.09336943548826149,"2":-0.032813280818264214,"3":-0.37130198170225814,"4":0.22411764809855733,"5":-0.1577686387005993,"6":-0.032818957282925026,"7":0.2525196504048616,"8":0.2972361453382435,"9":-0.030157733516585426,"10":-0.13806098791768365,"11":-0.4794280027207766,"12":-0.026958964120857323,"13":0.1970198549919112,"14":0.05971332557017976,"15":0.1829197142594624,"16":0.4722293173125295,"17":0.36848015312216653,"18":-0.006095319979480658,"19":-0.3141182408942193,"20":-0.007902474441271366,"21":0.47340412628911127,"22":0.4683830475387818,"23":0.2427126883827526,"24":0.15784709772697506,"25":-0.4284379372840352,"26":-0.1133069024479117,"27":-0.2788434849679892,"28":0.3980046791183219,"29":0.3732788584272624,"30":0.2618763691824422,"31":0.2565708475479086,"32":0.1963102332158803,"33":-0.3584440620506385,"34":0.3655344762619801,"35":-0.383567058965372,"36":0.05980674732054501,"37":0.2633916441230304,"38":-0.39175047192615364,"39":0.34518667713396384,"40":0.4018445558477885,"41":-0.0582648066486731,"42":-0.1793223493417112,"43":-0.44401968772350975,"44":0.12397418673701179,"45":-0.08399340421410133,"46":-0.36699811885261235,"47":-0.04850005249263276,"48":0.1402817877984191,"49":-0.05575461223338842,"50":-0.2872424960088751,"51":-0.4048659007394792,"52":-0.22514764884086594,"53":0.24569317145626912,"54":-0.036579532865555424,"55":0.1306132816106014,"56":0.19704102114350378,"57":0.1652578432265361,"58":-0.16430902406986508,"59":-0.35016645171689614,"60":0.19481940304442466,"61":0.28341344247193184,"62":0.37599688915671114,"63":0.3283979474913528,"64":0.21601291051791777,"65":-0.38052266859485445,"66":-0.2170442143269792,"67":-0.4123298840313441,"68":0.25559446916269746,"69":-0.1436041771724789,"70":0.08439746725480171,"71":0.42556271949901103,"72":0.4410600840426225,"73":-0.49024205775080965,"74":0.011183716169975114,"75":-0.2977842167550044,"76":0.12399375511184178,"77":0.24715527714097776,"78":-0.16453886853073335,"79":0.19983580290363562,"80":0.03504007048535407,"81":0.1167445446701201,"82":-0.3550179174925492,"83":-0.23022303007984973,"84":0.06737226205496487,"85":0.04877511171994449,"86":-0.4086027559516198,"87":-0.12898256273361966,"88":-0.09925854945908029,"89":0.0463214324756675,"90":-0.6153594981378062,"91":-0.16855179604479498,"92":-0.3357830877733517,"93":0.5502507934437937,"94":0.23893964822704913,"95":0.2708452432977784,"96":-0.0010723711360418992,"97":-0.081205231556673,"98":-0.29693029665222065,"99":-0.005655631461704391,"100":-0.02172626794278271,"101":0.7350983890662978,"102":0.11291962695890954,"103":0.09809128600415894,"104":-0.09867216463260332,"105":-0.5663813457791504,"106":-0.4003081019085628,"107":0.07502784291189742,"108":0.424426008068276,"109":0.5122380238101921,"110":0.17550567027184902,"111":0.2231409295464993,"112":0.3147761692533779,"113":-0.5547528976915774,"114":0.007852606401308712,"115":-0.11771880941740705,"116":-0.03306765381158017,"117":0.35296084633583336,"118":-0.07237918059249057,"119":0.20761259125455908,"120":-0.006602009106708427,"121":0.154639930109098,"122":-0.5988516827093467,"123":-0.0016993941980444607,"124":-0.36395212514501124,"125":0.5736569348480544,"126":-0.3024370545896311,"127":0.22303195681679328,"128":0.04172654185652138,"129":0.2261656963428943,"130":-0.46042254781840075,"131":-0.3707853926395138,"132":-0.40129801068261484,"133":0.6093689871733183,"134":0.3705793545031837,"135":0.11621122795701434,"136":0.10844167790204533,"137":-0.3106112110911961,"138":-0.4734248956702229,"139":-0.06192924707903709,"140":-0.11778428444456794,"141":0.19497963883787792,"142":0.03215726975083323,"143":0.19809011913991748,"144":-0.18905095635003857,"145":-0.7056366343233765,"146":-0.1811024183413862,"147":-0.08741638412953978,"148":-0.04849970252350639,"149":0.3576438184494306,"150":-0.06889952714770621,"151":0.1821079649235366,"152":0.46749791082551423,"153":-0.2925959167099229,"154":-0.13985727487502725,"155":-0.3178310955132474,"156":-0.41918366131753715,"157":-0.10432846787738215,"158":-0.05797225271697073,"159":0.20164575112394287,"160":0.10303843731219187,"161":0.14586667150097196,"162":-0.38018043965431675,"163":-0.24128116813299494,"164":-0.33824091663218514,"165":0.384106824983494,"166":0.0284144542429586,"167":0.31487349838234097,"168":-0.08917686654583967,"169":-0.02596021914982857,"170":-0.4076684561730783,"171":-0.08801315831008441,"172":-0.2189972640599601,"173":-0.2861390332640892,"174":-0.047134276029154015,"175":-0.05288855987927607,"176":0.21383386158937298,"177":-0.20495578117726307,"178":-0.40260186077123167,"179":0.0825445970774553,"180":-0.012176908111934266,"181":0.6817240069514461,"182":-0.09969753906109692,"183":0.21429383121789658,"184":0.04111476898391618,"185":-0.5503225939895219,"186":-0.20457735309855243,"187":-0.1909637611844463,"188":-0.23932212892456484,"189":0.4375826703312727,"190":0.01319503654237029,"191":0.7499375326627186,"192":0.44367164755757005,"193":-0.20858063492296247,"194":-0.03364283389901338,"195":-0.43688570098877394,"196":-0.17894764688764048,"197":0.3099232874905865,"198":-0.22143240638134398,"199":0.5382419333906565}},{"sx":5,"sy":5,"depth":8,"w":{"0":-0.10988199372786614,"1":-0.23448768240348972,"2":0.3608535699401045,"3":-0.2954018438301761,"4":0.1325204654667503,"5":0.19727495397908085,"6":-0.14943180734371428,"7":-0.2841463190356833,"8":0.08937380662905128,"9":0.2516175504410946,"10":0.004801500987615057,"11":-0.5874519442190166,"12":-0.00232252465446322,"13":0.04328649182507833,"14":0.0030639752772927604,"15":0.10070847356856959,"16":0.3177314298114211,"17":-0.4066708376404487,"18":0.26407629102539937,"19":-0.06583100072650679,"20":0.198026622159241,"21":0.22966498737879176,"22":-0.1744015441541406,"23":0.3032635707529164,"24":0.0347016415455359,"25":-0.42506389827636604,"26":0.21057542737137086,"27":-0.2787562710274724,"28":0.26059293932738997,"29":0.48043303518992453,"30":-0.0495868501138915,"31":-0.023939882617211715,"32":-0.19968260915751554,"33":-0.3246600884169567,"34":0.30336999147091265,"35":-0.10409703765838609,"36":-0.11783278775993787,"37":0.5541313797319548,"38":0.12188551584546203,"39":0.2022765874135697,"40":-0.1010891748606825,"41":-0.14677099288573342,"42":0.36157141273488813,"43":-0.24564179269943,"44":0.20815852655588832,"45":0.15853555951644205,"46":-0.19230749008292228,"47":0.11143325098636381,"48":0.1312117460312749,"49":0.027732477003532777,"50":0.16657764873392997,"51":-0.1767839581566025,"52":0.15146777603608214,"53":0.06536786770542595,"54":0.12486514642861865,"55":0.04584006645359714,"56":0.1449423616648049,"57":-0.08791873529681422,"58":0.22464890109902877,"59":-0.31424008244162904,"60":0.475297326426625,"61":0.16926528589593884,"62":0.2269578991142837,"63":0.2358420808390017,"64":0.2969804726760907,"65":-0.05643769341902422,"66":0.012745018186401433,"67":-0.15737701148616048,"68":-0.013287237563938575,"69":0.2191766065900995,"70":-0.1169503332397497,"71":0.16122321597710398,"72":0.1837447906431408,"73":-0.17360989168165503,"74":0.11118554783213137,"75":-0.2819886480273125,"76":-0.17008648221716688,"77":0.47078545672567573,"78":-0.0004042644556514827,"79":0.7684786392474634,"80":-0.06782510920995391,"81":-0.09093264287798758,"82":0.10048583705940281,"83":-0.25000880739299286,"84":0.284894312085082,"85":-0.16924361669214183,"86":0.2015908008365913,"87":-0.06633110613808275,"88":-0.0653651133798063,"89":-0.04471946789973002,"90":-0.04558800499968967,"91":-0.12806048526142313,"92":0.26890290934986255,"93":0.0387194241356133,"94":0.25197624615154973,"95":-0.09433886532979682,"96":-0.15377868602461708,"97":-0.5214164683989343,"98":-0.2397484086552745,"99":-0.14803886559297685,"100":0.26295889733010436,"101":0.03952173799681394,"102":-0.0191711370204428,"103":-0.10112036124722151,"104":0.23239099362359267,"105":-0.669077114554819,"106":-0.354578350207687,"107":-0.12330935709165361,"108":0.13027715369381515,"109":-0.028684325495142538,"110":-0.033458042679422595,"111":-0.2604409020797335,"112":0.47086422009556167,"113":-0.22180337268111674,"114":-0.16848237447302578,"115":-0.8185482548215774,"116":0.21477325957251656,"117":0.09308476821297218,"118":-0.10587494138818161,"119":0.09894098003625802,"120":0.15532399989700937,"121":-0.10271732231549781,"122":0.27934731464518275,"123":-0.22071352761740562,"124":0.3086217722728843,"125":-0.1689379489133117,"126":0.23877369524580347,"127":0.1679278956635774,"128":0.05480627985545365,"129":-0.03382592919527406,"130":-0.21524247433978635,"131":-0.2306315699858973,"132":0.35672688830979216,"133":-0.01690831038022181,"134":0.23435610535826557,"135":-0.002448015854655157,"136":0.05819963063560511,"137":-0.39678637279390283,"138":-0.3476334570448198,"139":-0.024618472127334288,"140":0.4565343319941526,"141":0.01935948341180604,"142":0.37675881916817233,"143":0.11234212301557686,"144":0.3652881648227814,"145":-1.1347279492422084,"146":-0.13069008979465116,"147":-0.14487161525120962,"148":0.2940505189787376,"149":-0.04071401075086678,"150":0.03479662826525165,"151":-0.21248594110130611,"152":0.5939902371195949,"153":-0.6064349493454941,"154":-0.0487771620582905,"155":-0.8082679878362433,"156":0.13671809527625137,"157":-0.43752266305954984,"158":0.09874980725448208,"159":0.12183161841223841,"160":-0.04101087346067327,"161":-0.1157425206184671,"162":0.09935919599001361,"163":-0.06017062901679052,"164":0.3903443143893815,"165":0.20474430640673233,"166":0.10937210359517426,"167":0.18149636593032242,"168":0.03211355754149428,"169":-0.01742632609739758,"170":-0.062111176098886035,"171":-0.01802323427016024,"172":0.2926744723365745,"173":-0.1056505310358934,"174":-0.055799271633433865,"175":0.333381927660513,"176":0.05496774573866945,"177":-0.16511633634024955,"178":0.05291771139615241,"179":0.005308131887925997,"180":0.5864625295898603,"181":-0.17066190220253244,"182":0.2665884481599447,"183":0.1480375770091427,"184":0.08107533713816008,"185":-0.8044567001203898,"186":0.11998220309481535,"187":-0.6457854160113797,"188":0.8055435633368779,"189":-0.06454152142394148,"190":0.14353631922620239,"191":-0.2246095527109244,"192":0.2981824717384219,"193":-0.45963506434136225,"194":0.014978201083553083,"195":-0.6831183910423707,"196":0.6444102917824728,"197":-0.32772759000332174,"198":-0.09318635354470736,"199":-0.12722178721173477}},{"sx":5,"sy":5,"depth":8,"w":{"0":-0.5362385097901775,"1":0.10355695562769612,"2":-0.2530979342122497,"3":0.020935120908742118,"4":-0.2754976790268896,"5":0.5782687989723483,"6":-0.2598663622289255,"7":-0.055473953701730756,"8":-0.5076394968407592,"9":0.10616662488105562,"10":-0.49598082935338994,"11":0.42486606305063646,"12":0.48264681896673445,"13":0.15746708464589612,"14":-0.25803604144969106,"15":-0.39387539371526914,"16":-0.4360116292149523,"17":0.2234583707368637,"18":-0.05329005502757848,"19":0.22185749283557796,"20":0.08303584402991772,"21":0.8122835499072089,"22":-0.3628166101011031,"23":-0.18202368717691353,"24":-0.49642293884734345,"25":-0.4951353271032219,"26":-0.09563726066832412,"27":-0.5801049781329964,"28":-0.022683933870182364,"29":0.2608417795390603,"30":-0.11878223039811102,"31":-0.09246475043689452,"32":-0.5518633320509149,"33":-0.30242362471840156,"34":0.4966656889730411,"35":-0.08233873746344829,"36":0.18290568106573357,"37":0.17431187452665287,"38":-0.0895796331642132,"39":-0.16367295999651227,"40":0.2526511606746059,"41":0.4870147493117174,"42":0.08270917754958947,"43":0.006801665418672406,"44":0.03687836921507255,"45":-0.4937088496845866,"46":-0.14146250082615755,"47":-0.2962246642609454,"48":0.16955212786957238,"49":-0.10793779918116278,"50":-0.11053106461554299,"51":0.10907339162116451,"52":-0.22132350697522749,"53":0.014123851600870712,"54":0.12238912391411397,"55":-0.07318058705076938,"56":0.20642692791206474,"57":0.13236209087366818,"58":0.24873611424588216,"59":0.01567296342860004,"60":-0.09697622260417293,"61":0.265660854591152,"62":0.10221145451670477,"63":0.006025243004381733,"64":0.019405176101673437,"65":-0.26787340210078714,"66":0.1322862551637012,"67":0.10351297055843754,"68":-0.40188053694137116,"69":-0.17064211557402356,"70":-0.238653589211777,"71":-0.513294982256468,"72":0.03684564445389463,"73":0.14974251784859574,"74":0.3219001045581898,"75":-0.12927020669971995,"76":-0.045221965258457425,"77":-0.32587730993539904,"78":-0.14696713617340687,"79":-0.21877795781226816,"80":-0.3400834024034075,"81":-0.045391097149614215,"82":0.2977398971871016,"83":0.24838102928392447,"84":-0.34488165501252016,"85":-0.361999253498384,"86":-0.3012071976668288,"87":-0.5269995725944658,"88":-0.20905531596835794,"89":0.3005191844370024,"90":0.09562334585506518,"91":-0.28700040425423484,"92":-0.16500616350509018,"93":0.12135185123604182,"94":0.14808324840264814,"95":0.05017991058062775,"96":-0.24346959091237633,"97":-0.08337427348847086,"98":0.23948467834717815,"99":-0.260465532469469,"100":-0.43861890680080146,"101":-0.21278554007914527,"102":0.06757152628299226,"103":-0.019805609836181237,"104":-0.21273245281327188,"105":0.06182363037548625,"106":0.15074546440458686,"107":-0.21272306793253692,"108":-0.48995571612253147,"109":0.0632334194378567,"110":-0.13192467402273012,"111":0.08794365418316352,"112":0.06804067437030044,"113":-0.2859576090981338,"114":0.20178100423468648,"115":-0.5224234019221219,"116":-0.5183841524776776,"117":0.00227969309900854,"118":-0.3172752418680114,"119":0.24796242293325846,"120":-0.34336132943231745,"121":0.06883531067795445,"122":0.05528510809335957,"123":-0.06194093374118025,"124":0.4052350479302018,"125":0.04467213611666283,"126":-0.1639800331235936,"127":-0.18285846096813155,"128":-0.397656653439946,"129":0.21764348532707747,"130":0.49035544857988234,"131":-0.19548472814778753,"132":0.18497823952055092,"133":0.2835973506046741,"134":-0.15131785544717505,"135":0.07239053161300119,"136":-0.4357459095860882,"137":0.1887600728905793,"138":0.07914764978262638,"139":0.22343787174692104,"140":0.22275102697616223,"141":0.38424574729864625,"142":0.09061912157938218,"143":-0.027714806721089197,"144":-0.46884888520140244,"145":-0.5916546633930584,"146":0.07907530058245707,"147":-0.1379668844871795,"148":-0.29471662106778646,"149":0.1399437479369585,"150":-0.17141488777615266,"151":-0.08765470083037358,"152":-0.6085479605514531,"153":-0.5729164997109563,"154":0.20665043153555906,"155":0.1286908680133594,"156":-0.41207110967179533,"157":0.190676512306084,"158":0.06373615736397512,"159":-0.036153241227185,"160":0.06705170194324205,"161":0.4440155032591281,"162":-0.3191417406191514,"163":-0.32354437558216537,"164":0.5032424759510377,"165":-0.32187069560276704,"166":0.25519071305749674,"167":-0.24778878205808777,"168":0.22961067566906423,"169":0.4495765041930989,"170":-0.04190895704181005,"171":-0.06367255106554556,"172":0.790207501581819,"173":-0.14524572573222777,"174":0.2364823372656752,"175":0.0011599678625217138,"176":0.3589699427161275,"177":0.4136316221653296,"178":-0.9826484292341403,"179":0.21611490161539407,"180":0.25675318134441605,"181":0.22953480365985116,"182":0.5942160790033766,"183":0.13909999624735445,"184":0.182964723454525,"185":0.649244927359146,"186":0.05947131004881748,"187":0.32790711538954204,"188":0.7148017359840529,"189":0.3476002523110594,"190":0.5113435001309613,"191":0.2309112505011283,"192":0.3301847108590869,"193":0.9370074100965957,"194":-0.1303126313843249,"195":0.6068896078640551,"196":0.04594563524581781,"197":0.0671914504672084,"198":0.17086782732335987,"199":0.22490910467750663}},{"sx":5,"sy":5,"depth":8,"w":{"0":0.061437211723068055,"1":0.07171570035854584,"2":-0.18692897965670255,"3":0.3049701508285326,"4":-0.13420981468326573,"5":0.12135595884883663,"6":-0.33449902605983256,"7":0.3953327894757066,"8":0.10926999982555387,"9":0.07901584775456975,"10":-0.12238551704186783,"11":0.029701515001137414,"12":0.15317951322499468,"13":0.5091959379904324,"14":-0.042066426604545466,"15":0.37976925576108306,"16":0.1053844552902029,"17":-0.06876910205426792,"18":-0.1602318119242612,"19":0.17292067060366606,"20":0.029584140865740297,"21":0.28592597969824846,"22":0.23462647235535994,"23":0.1192809894383148,"24":0.036322103678590574,"25":0.020848817995428363,"26":0.006708508183209249,"27":-0.16236499768152513,"28":-0.11091918365686505,"29":-0.02703947691613937,"30":0.1778767542768792,"31":-0.35388603121033235,"32":-0.4193647619203701,"33":0.140757448837428,"34":-0.03265827055486361,"35":0.5915073983489268,"36":-0.2722897299857555,"37":-0.018583302826839163,"38":0.02083183736708777,"39":-0.04844212727666096,"40":-0.06103621535306586,"41":0.07832159402587949,"42":0.10916164851143653,"43":0.40615649229649975,"44":0.1495239585781334,"45":0.1865390918494203,"46":-0.46411000482509207,"47":0.3251810460521578,"48":0.20345243218180953,"49":0.02809227196933018,"50":0.29376046575494796,"51":-0.2835349722930408,"52":0.08521943217785209,"53":0.031435906037177844,"54":-0.037959532627053504,"55":0.26945971910552124,"56":0.2958136803435799,"57":0.05181180763343759,"58":0.17310595118044128,"59":-0.17430487140338263,"60":-0.13093388440764442,"61":0.0397751735450729,"62":0.02881132990388067,"63":0.06209861137985821,"64":0.2060293751535147,"65":-0.07579476180887099,"66":0.06011485315722552,"67":-0.1302344342885761,"68":-0.3353016632578307,"69":0.213625631058388,"70":0.1589730487786389,"71":-0.4369093331339851,"72":-0.07617009577888031,"73":0.015404959215985368,"74":-0.22654535046764443,"75":0.5459486620495896,"76":-0.2711139925592743,"77":-0.1152242965997143,"78":-0.03515554978993222,"79":-0.16733687234695627,"80":-0.14956839986170845,"81":0.16973684317474239,"82":0.03703240977796235,"83":0.12281394562790593,"84":0.03184544589802733,"85":-0.22060857118422353,"86":-0.5469766323568253,"87":0.3208101483370338,"88":-0.03447794427610238,"89":-0.1272975038741513,"90":0.5925149821187327,"91":-0.3022304721944572,"92":0.016932917575396944,"93":-0.3413276410599713,"94":-0.24344534549588479,"95":0.11080936419262165,"96":-0.07699158705900981,"97":0.0007258664427185503,"98":0.1635519053282177,"99":0.05813752238039232,"100":-0.12737377263819183,"101":-0.07212316011085415,"102":0.02458537121530963,"103":-0.08092374685440022,"104":-0.030048691457424614,"105":-0.0819881825884021,"106":0.06155926838364864,"107":-0.3971826256118113,"108":-0.22029456847867895,"109":0.30654913166447345,"110":0.07397252091737067,"111":-0.5241499163151762,"112":-0.4624194710558318,"113":-0.2961296500792185,"114":-0.26792686940579885,"115":0.2847862839918789,"116":-0.5452780770083377,"117":-0.2378959706318651,"118":-0.1009470978914026,"119":-0.527759292610122,"120":0.04646751467803626,"121":0.1850970878304292,"122":-0.2327297401162418,"123":0.15649063085662818,"124":-0.14765082241073696,"125":-0.44000573812405314,"126":-0.56607009978858,"127":0.15722812402076966,"128":-0.26532415630328576,"129":-0.15961224968276339,"130":0.24068813088596383,"131":-0.3012755643539184,"132":0.12500358705276104,"133":-0.029055888902025345,"134":-0.3035398274206518,"135":0.1344656811286989,"136":0.03623390979575107,"137":0.018268753089903167,"138":0.07051396992715897,"139":-0.31185918768063586,"140":-0.041615750546035224,"141":-0.011867554974555822,"142":0.15500863428735745,"143":0.1512885639655256,"144":0.2547182640275151,"145":-0.33305154544107096,"146":0.055774898422852354,"147":-0.2955789800721708,"148":-0.1311384121691838,"149":-0.21681422860843297,"150":0.46192260490236686,"151":-0.3810867614259578,"152":-0.36926369684181387,"153":-0.13123774450042888,"154":-0.3066506259530696,"155":0.2627328139154889,"156":-0.04614983252613218,"157":0.009709128792967715,"158":0.166344495819218,"159":-0.49137933538369294,"160":-0.006847224033528571,"161":-0.015665304776554582,"162":-0.11536722892732382,"163":0.4128287658258756,"164":-0.18554488030585423,"165":-0.03201582502236955,"166":-0.8541201546144267,"167":0.35599921636677156,"168":-0.03379749057287684,"169":-0.1073757155573853,"170":-0.012816246590377549,"171":-0.34181714016572406,"172":0.1264406522414042,"173":0.21248374918403115,"174":-0.3073453708763308,"175":0.2848642896094531,"176":-0.18632009743291938,"177":0.3160531111190365,"178":0.08350408865099697,"179":-0.2821405313959522,"180":0.04900820285425988,"181":0.07186304754635173,"182":0.31143478263755364,"183":0.13143379220168888,"184":0.15041354977215982,"185":-0.002197095206560779,"186":0.3881849671183506,"187":-0.23253632606384744,"188":-0.059956442071375037,"189":0.02396248820703011,"190":0.2678575101168337,"191":-0.5180949273237779,"192":-0.32381453615214517,"193":0.3993197519660984,"194":0.0401657232719642,"195":0.4151324932656922,"196":0.006006734624346995,"197":-0.15077045304453393,"198":-0.37973614234388464,"199":-0.6370086599830318}},{"sx":5,"sy":5,"depth":8,"w":{"0":-0.2744032116752313,"1":-0.23596704963499157,"2":-0.46412597267309574,"3":-0.44227258865846936,"4":-0.19656756283064167,"5":0.06392923731119901,"6":-0.17877036235541868,"7":-0.13001208357428415,"8":-0.5114612840345129,"9":-0.23901598921319045,"10":-0.5778408142211854,"11":-0.09667727578098216,"12":-0.46116722968914886,"13":-0.031653837896022094,"14":-0.2849532440278497,"15":-0.2709937611078078,"16":-0.022341261707179007,"17":-0.5341614057620019,"18":-0.4861051772586163,"19":-0.7007736463271879,"20":-0.4342344402439694,"21":0.45984274645594925,"22":-0.14446429819646914,"23":0.09495626513685111,"24":0.6367099198238972,"25":-0.08355832412479947,"26":-0.5827745897025517,"27":0.3500669905061095,"28":0.6229115264041701,"29":0.47282637984901926,"30":0.17360176441868702,"31":0.8069977045861537,"32":1.134455095457517,"33":-0.11216664587616572,"34":0.06923408852678985,"35":-0.9358243753918859,"36":-0.020945017872198275,"37":-0.1558255053859929,"38":0.7256286479592395,"39":0.850775669555983,"40":-0.06499613628450956,"41":-0.31071365664545786,"42":-0.3111500174390447,"43":-0.230388230139039,"44":-0.18867812048743765,"45":0.04481224639368703,"46":-0.38721780224009666,"47":0.04966666589743769,"48":0.007896916658090848,"49":-0.3252415376365869,"50":-0.033894813182688166,"51":-0.5424741668421107,"52":-0.30675221852671347,"53":-0.02506879142773142,"54":0.20972886557500872,"55":0.19359236700661422,"56":0.054711996427930634,"57":-0.4362494287010645,"58":-0.0144345196964625,"59":-0.6242458410639586,"60":-0.044379156362255465,"61":0.08160834108485059,"62":0.24744350055514142,"63":0.33023657854288874,"64":0.14194262159061505,"65":-0.1987973637396474,"66":0.026431236989874877,"67":-1.154282113557807,"68":-0.21059431761073785,"69":-0.04123186973495489,"70":0.19480539553948306,"71":0.5832108799740875,"72":0.28869042596022554,"73":0.29614045789125415,"74":-0.13563788828575382,"75":-0.9405766721178982,"76":-0.4291495760274729,"77":-0.13754805031341627,"78":0.2955286995831899,"79":0.18087607517280574,"80":0.12393072775883154,"81":-0.3861307673033729,"82":-0.019563875007632493,"83":-0.32227774754238797,"84":-0.4245452342632296,"85":0.05349111451628809,"86":-0.5473393879954452,"87":0.32256952816648454,"88":0.2983371048803409,"89":-0.30699535189497706,"90":0.30648655094223487,"91":-0.6188854412804395,"92":-0.22510100114857112,"93":-0.03750116086118428,"94":-0.23948852648593713,"95":0.2220195232473909,"96":-0.06309807623112122,"97":-0.2731842487377173,"98":0.3163119539507318,"99":-1.0298701489195574,"100":-0.01113334552555328,"101":0.08972387258655916,"102":-0.12919795846048995,"103":0.10667840816666777,"104":0.08920954049777627,"105":-0.047413424844236024,"106":-0.0875617888104713,"107":-1.3489093335267905,"108":-0.17062605322555116,"109":0.0469572075248516,"110":0.4524612134936436,"111":0.12911409169800828,"112":0.2802740584240642,"113":0.47423592049165825,"114":-0.11642162955028114,"115":-1.0921570435110841,"116":-0.09453317287535352,"117":0.304297411237699,"118":0.15167075664691704,"119":0.2865659259314429,"120":-0.08508728083378052,"121":-0.16842720874121464,"122":0.0033650141406208357,"123":-0.5119699817641864,"124":0.13458499721513395,"125":0.4572482644391076,"126":0.09998670406439332,"127":0.5222537359045102,"128":0.16101393671714045,"129":-0.25330247127692657,"130":0.5052222620172735,"131":-0.4324914394748824,"132":0.3697932718925975,"133":0.3163814153491947,"134":0.16022464692519836,"135":0.6527370361073549,"136":0.10357684847862127,"137":-0.037144957804707446,"138":0.4545739621714055,"139":-0.6003215360618945,"140":-0.037156032749225944,"141":0.1702536180951247,"142":-0.2673206743420569,"143":0.17564464637866153,"144":0.5635575184200395,"145":-0.34656513066098443,"146":0.15688224842327067,"147":-0.8730677719814446,"148":-0.2142655425155416,"149":-0.03817002177751116,"150":0.14886298020385103,"151":0.34941969200148515,"152":0.48876773110618543,"153":-0.04147220168183478,"154":-0.12500634335353888,"155":-0.72535215109379,"156":-0.17228264271972052,"157":0.32312841544319265,"158":0.21841605820261722,"159":0.1515704136899108,"160":-0.003902098847069442,"161":-0.0018266738355112448,"162":0.08703431103525465,"163":-0.44168870791118253,"164":0.5000791146673329,"165":0.704030326277328,"166":0.23723214175244356,"167":0.6012632016929,"168":0.40997064339776806,"169":-0.385413809698862,"170":0.2302377632003291,"171":-0.3146378684671079,"172":0.21180093729535912,"173":0.6255328964778615,"174":0.26318226948026885,"175":0.5407405316251165,"176":0.1766643913109578,"177":-0.19823753559710633,"178":0.31362882238646866,"179":-0.24200252902439598,"180":-0.10686136539024278,"181":0.18006561703563764,"182":-0.0644163069023576,"183":0.2687286012464688,"184":0.28851068401095953,"185":-0.27780358652185994,"186":0.23094044234464758,"187":-0.04541529529476081,"188":0.0133363039512769,"189":0.015882463940592798,"190":0.42768629859336077,"191":-0.08535451423975567,"192":0.09839355599002289,"193":-0.12195434568720699,"194":0.31433352890306143,"195":-0.016018039548878326,"196":0.23275569872076404,"197":0.0876566318342762,"198":-0.09648432162078777,"199":0.21307963795327534}},{"sx":5,"sy":5,"depth":8,"w":{"0":-0.08323808323573983,"1":-0.7190922577021747,"2":-0.4168858147836025,"3":-0.21886721783399077,"4":-0.1669270380539817,"5":0.07354580758265723,"6":1.0810818370675814,"7":-0.26967744309088687,"8":0.13289797971729492,"9":0.16152347209859533,"10":-0.1509422504301633,"11":-0.08989618937881375,"12":-0.13858809117884652,"13":0.11694323975385547,"14":-0.17165184539938014,"15":0.47315787646010876,"16":-0.45422367774650146,"17":-0.41153542477672184,"18":0.2698112513365073,"19":0.019800557264645902,"20":0.022893499379498215,"21":-0.024727228760778784,"22":-0.041065789056199675,"23":-0.3497087545256191,"24":-0.1680699728945322,"25":-0.550176162012827,"26":-0.33927507554665576,"27":0.17095116904914626,"28":-0.11203699051759716,"29":0.013438809175990047,"30":0.12133211175045186,"31":-0.5010870421811807,"32":0.3548526717164723,"33":-0.08394912046483463,"34":-0.5264355864414763,"35":0.0783698612387187,"36":0.20301738062642025,"37":0.22247654526740224,"38":-0.024205866292628695,"39":0.35710249055911697,"40":-0.07559576509237964,"41":-0.5918782062455202,"42":-0.241538801414043,"43":-0.2642154308831238,"44":-0.1811988232156933,"45":0.0337006204792954,"46":1.0585936467992836,"47":-0.060686125224090066,"48":0.25415337439928254,"49":0.2859358813677095,"50":-0.2831583628721718,"51":-0.1653386559901005,"52":-0.03647666367721695,"53":0.07952778469241287,"54":-0.06301081253141667,"55":0.43079228412568044,"56":-0.1060567436331217,"57":-0.05546263837323024,"58":0.485797926096181,"59":-0.05804335540759815,"60":0.14222084236431953,"61":0.06176317071089331,"62":-0.17463266948390005,"63":0.020899469903798703,"64":0.15520121904165907,"65":-0.12755261339199173,"66":-0.15688517450448025,"67":0.16786763023279988,"68":-0.0032657954227790858,"69":0.23392704822583574,"70":0.08605630969390639,"71":-0.1037348847487735,"72":0.5176999706303138,"73":0.12503769724945607,"74":-0.3295971293801183,"75":-0.18920301173565957,"76":0.530841090111935,"77":0.0032847439598949917,"78":-0.08848699936006808,"79":0.463629397325142,"80":0.05858514787933325,"81":-0.6037565858526502,"82":-0.18659820846542477,"83":-0.5135759341189188,"84":-0.24845112008948306,"85":0.016140025026960714,"86":1.0479618900632965,"87":0.06828341416655591,"88":0.14866311988391162,"89":0.08469546903760859,"90":-0.1284129285274631,"91":-0.06622541807820057,"92":-0.07121400057186421,"93":0.3166765354920463,"94":-0.18166613005450136,"95":0.389695970093002,"96":-0.14013424606576647,"97":-0.1007277815319423,"98":0.6334646982124081,"99":-0.39330224366609634,"100":0.1575030650243456,"101":0.08569313049234324,"102":0.13909037675293356,"103":0.025425517815157832,"104":0.3549345586621154,"105":0.1305198416574709,"106":-0.06851703515122173,"107":0.010392631071877215,"108":-0.30087064621044896,"109":0.12842543698094325,"110":0.1485307171411884,"111":-0.024369881823175295,"112":0.2415382158625739,"113":0.07780209178373068,"114":-0.2748168886654342,"115":-0.15963753744813877,"116":0.23070567974980732,"117":0.11564445336757087,"118":-0.48034284141504274,"119":0.4739963898268549,"120":0.22714912432879447,"121":-0.5502060865048135,"122":-0.2862101463203635,"123":-0.2883043927870245,"124":-0.15529665041374274,"125":0.1558923204425511,"126":1.0401514909332323,"127":-0.11699984298290794,"128":0.15143590673397764,"129":-0.052602035679667196,"130":-0.1483312081815567,"131":-0.27455394737353284,"132":0.16587704507845422,"133":-0.17835224413763343,"134":-0.14111056440522765,"135":0.28121878563085795,"136":-0.2391433486566529,"137":0.06038617103334535,"138":0.7772118107536509,"139":0.021395062706073935,"140":-0.1479031833078915,"141":-0.19608258826758573,"142":-0.059319397330487016,"143":-0.15683234211106648,"144":0.2881618349882853,"145":-0.035907497000013645,"146":-0.03247335469268148,"147":-0.10475720165663839,"148":-0.05660407978695044,"149":0.0190188341960733,"150":0.03007584981449922,"151":-0.1637951997821879,"152":0.31149823572113033,"153":0.18546085141670543,"154":-0.33556875404240233,"155":-0.4379781654113462,"156":0.2467233412993515,"157":-0.05874923405037829,"158":-0.46996676573206136,"159":0.3830140486328181,"160":0.13175522317459284,"161":-0.11673277663612384,"162":-0.35194132363238423,"163":-0.17575406604680707,"164":-0.1421906043755936,"165":0.11382260041072657,"166":0.6258186564188457,"167":0.0010711792279616168,"168":0.20548210568177258,"169":-0.26963577777465497,"170":-0.2062893316534559,"171":-0.23081069632658477,"172":0.05350590492206669,"173":-0.22527549045630035,"174":-0.10566109350245335,"175":0.3163876560716307,"176":-0.2550865294927529,"177":0.37977691259993135,"178":0.4354273544612551,"179":-0.31929798291311823,"180":-0.1324414082110549,"181":-0.6892119074703564,"182":-0.013541924859715206,"183":-0.19973479922525073,"184":0.3973157445859712,"185":-0.1342337435982959,"186":-0.2967841871187284,"187":0.010800024549878093,"188":-0.07711856253656128,"189":-0.2469200335610697,"190":-0.10624003421407414,"191":-0.1444896959917103,"192":0.30972463784377213,"193":0.05846381740599988,"194":-0.7523697108477573,"195":-0.359673261778999,"196":0.5652904478467814,"197":-0.17179909630143578,"198":-0.18016786177697464,"199":0.768646847490215}},{"sx":5,"sy":5,"depth":8,"w":{"0":0.48151600625792024,"1":-0.3834581654434193,"2":0.3078752635253391,"3":-0.31895895882468883,"4":0.3304031724210946,"5":-0.4888042661373748,"6":0.1629006767021796,"7":0.24956469588732136,"8":0.3531671957602531,"9":-0.4108910682120552,"10":0.9265254391537943,"11":-0.766129276272026,"12":0.24144997014535366,"13":-0.2501065694608955,"14":0.4660501246582682,"15":0.5406836153393124,"16":0.33624852876794425,"17":-0.020903845390341427,"18":0.5508255762401063,"19":-0.7020700256904335,"20":0.04053231648892214,"21":-0.08809830125730637,"22":0.7950314599410446,"23":0.295982648836143,"24":0.34595964423624603,"25":-0.37028971861843174,"26":0.2139847716654725,"27":-0.7810056204300087,"28":0.19794862773607477,"29":0.016866455696522516,"30":0.5070972532282472,"31":0.258769881163395,"32":0.5911502708391564,"33":0.4132467199123929,"34":-0.06027024451615508,"35":-0.6153880712197597,"36":-0.13868845162494983,"37":-0.0494598021566152,"38":0.5027684895554814,"39":0.28800704756266204,"40":0.3383026642253522,"41":-0.05305249929757371,"42":0.2841432714892123,"43":-0.2557852402884604,"44":0.18169344370146753,"45":-0.09430131147106179,"46":-0.07000977323737664,"47":0.14395520470635806,"48":0.39468878496288906,"49":-0.20411833638787485,"50":0.20599392615265735,"51":-0.5401765980268004,"52":0.060779517950326004,"53":-0.2938371539728508,"54":0.19599595749428345,"55":0.04124456890908821,"56":0.22522699663651385,"57":0.35527631032858553,"58":0.08565706665429439,"59":-0.7931130712507695,"60":0.24655334299414752,"61":-0.39983347617018106,"62":0.0755707749965165,"63":-0.017238764681090587,"64":0.3926918997301366,"65":0.11506912005078475,"66":0.04757657395020829,"67":-0.2281670045211766,"68":0.02411757960716225,"69":-0.01734690644318608,"70":0.3536754386523136,"71":0.047842389170243624,"72":0.4632236478003695,"73":0.5935556169446037,"74":0.07749829735061585,"75":-0.19406341098015234,"76":-0.08604864835287566,"77":0.04165435988346405,"78":0.2135143681089393,"79":-0.2317375473438739,"80":0.11770684024006016,"81":-0.011271454541663707,"82":0.21237864130808629,"83":-0.22259888775358413,"84":0.02076633502904667,"85":-0.25539034020441037,"86":0.16951455657029496,"87":0.012307090717378618,"88":0.0437224411610547,"89":0.06274357791717176,"90":0.20144440201624816,"91":-0.4161216953182816,"92":-0.11915460906526319,"93":-0.24435115765692758,"94":0.02769383262092924,"95":0.08048191350790246,"96":-0.2283836111763169,"97":0.14413586744533455,"98":0.06847521837020101,"99":-0.3922620424385854,"100":-0.03799421615756173,"101":-0.28149492604613696,"102":0.1749024427621414,"103":0.006298908001860351,"104":0.015136421485405272,"105":0.12370328505155391,"106":0.19352015489546126,"107":-0.4214972173778007,"108":0.016612841226406883,"109":-0.028232884949213343,"110":0.3922807375743343,"111":0.1802004832576449,"112":-0.1851398158336923,"113":0.7083161937967221,"114":0.17936842868522165,"115":-0.0012645273328800537,"116":-0.029276475245216295,"117":-0.032980385945297924,"118":0.19313874531010355,"119":-0.08630062506004708,"120":0.07992069724201067,"121":0.04002760244601693,"122":0.04317507765658953,"123":-0.08074075607125314,"124":0.14578627348671266,"125":-0.05899281194164188,"126":-0.011224745175657276,"127":0.1295758371022846,"128":-0.04139107256134436,"129":-0.10498485467567703,"130":0.3657269505586392,"131":-0.9447369812568663,"132":0.02876966727659938,"133":-0.07687198567513842,"134":0.28606515772891483,"135":0.1835891799123171,"136":-0.0543016535836197,"137":-0.10868739380341556,"138":-0.019576396775018545,"139":-0.9220122373179896,"140":0.12852233528606222,"141":-0.19969584540176374,"142":0.3960218163983034,"143":-0.02476564330226837,"144":-0.11733818518619035,"145":-0.49950306362253505,"146":0.04300091015026104,"147":-0.6907340187860133,"148":0.024577834163095152,"149":0.010243895766279138,"150":0.26568600436188217,"151":0.07902865502458736,"152":-0.0171189139651719,"153":-0.023223330492295722,"154":-0.10101211304325938,"155":-0.4858480215826185,"156":-0.06855433481196599,"157":0.20366628862902256,"158":0.26693280266533187,"159":0.04046052420537232,"160":0.2393960016489005,"161":0.019728548654426147,"162":-0.2656576953932339,"163":-0.48699237903572284,"164":0.27567328299536537,"165":-0.15807141768555957,"166":-0.03579267512219847,"167":0.29545516154705176,"168":0.333887524922982,"169":-0.434331563681235,"170":-0.24679735189498825,"171":-1.1397858077733727,"172":0.24218495621249284,"173":0.4982677777768831,"174":0.11808042866151393,"175":0.4199037462273562,"176":0.2874578014474572,"177":-0.36579571154072016,"178":-0.07267174709167375,"179":-1.5389894234843857,"180":0.294676538012577,"181":0.5394080241729845,"182":0.19082019599522854,"183":0.5444591132180029,"184":0.26052113402066707,"185":-0.23014042678477623,"186":-0.1786943841317482,"187":-1.364585451161229,"188":0.0952822235434948,"189":0.9774109238962385,"190":0.36124027767173555,"191":0.6156408408437456,"192":0.3247077442025336,"193":-0.4035021952963511,"194":-0.30365529924504636,"195":-0.7349418228412148,"196":0.08379693651551941,"197":1.4876452916000864,"198":0.12026249619206175,"199":1.2019082040949467}},{"sx":5,"sy":5,"depth":8,"w":{"0":0.02857949848219031,"1":-0.2060373831650321,"2":0.7569801977645748,"3":-0.05710059697356549,"4":-0.15166664204752978,"5":-0.6207094058908835,"6":-0.20539328035760573,"7":-0.3690166629968566,"8":0.1153251463200954,"9":-0.10282325586742873,"10":-0.14556092756178882,"11":-0.15649471710072388,"12":-0.10480864335098176,"13":-0.03064119488256127,"14":0.057719474927703886,"15":-0.06916283356149865,"16":0.14131994452435834,"17":0.04861493266337838,"18":0.24452236902447957,"19":-0.1949820401376121,"20":0.04768577448709721,"21":0.24438381975849463,"22":0.3038886203702292,"23":-0.2533549971069654,"24":0.0948131879537614,"25":0.06009133323209052,"26":-0.5167918347302295,"27":-0.2236335541303082,"28":-0.10674072387332248,"29":0.4921798157291498,"30":-0.0040014511403462,"31":0.06683142421503076,"32":0.3475397706979073,"33":-0.28475786311945467,"34":-0.2767063140139041,"35":0.07443423549800308,"36":-0.060436990269859145,"37":-0.045554831714317776,"38":0.3670314656974214,"39":-0.08379436900314287,"40":-0.09061373786302061,"41":-0.23956989077025706,"42":0.6394402924695402,"43":-0.3288638570339348,"44":-0.02608539826773197,"45":0.0325117588487085,"46":-0.4787537351096094,"47":-0.27021570631800584,"48":-0.1572852477848464,"49":0.3087317792465859,"50":0.06970499057997784,"51":-0.19762174222108428,"52":-0.11697693411464323,"53":-0.09213676083184337,"54":-0.0861506748201499,"55":-0.07322732279834204,"56":0.047869727090978385,"57":0.07271444328194941,"58":0.3334701774968551,"59":0.008962880772508394,"60":0.10275362113201206,"61":0.4459842914296278,"62":0.32082169860270554,"63":-0.06419587366939217,"64":0.25365076940020875,"65":0.04436941739036292,"66":-0.3118077175608743,"67":0.12581454335742184,"68":0.10185349274551694,"69":0.24888404892252955,"70":0.07562096056512245,"71":0.0743779743778508,"72":-0.14207301930313887,"73":-0.4117552871784672,"74":-0.24474796459648113,"75":0.3377398375359752,"76":0.021962299784217713,"77":-0.22843901201324532,"78":-0.020864341172325905,"79":-0.3629317770381604,"80":-0.11392029637046426,"81":-0.3441210370799804,"82":0.4636741642811534,"83":-0.3201889847036841,"84":0.09333469621951367,"85":0.0583428678297328,"86":-0.3562234714323538,"87":-0.04193561758838744,"88":-0.17462254440153552,"89":0.05454506309515715,"90":0.08673181325893127,"91":0.05367693314653919,"92":-0.15188824755205413,"93":-0.10012186074507295,"94":-0.02680998354882225,"95":0.03131795191200996,"96":0.11963888399843839,"97":0.235208483538171,"98":0.2823428761568457,"99":0.42186184547847877,"100":0.04187205937404647,"101":0.3286664849778309,"102":0.21205578940361983,"103":0.13577779516166483,"104":0.08812237737502933,"105":-0.05990618757731533,"106":0.056676823106232566,"107":0.0725893250928166,"108":0.08184310044005498,"109":-0.09110032463765641,"110":0.17059683720403515,"111":0.07011262892379777,"112":-0.40562225390496703,"113":-0.3679551621965908,"114":-0.4439135303709239,"115":0.25117676465814054,"116":0.0979696514667541,"117":-0.0572751732086319,"118":-0.001265473780504001,"119":-0.2486334156768767,"120":-0.09284905271194445,"121":-0.18348093727960657,"122":0.6279981281771094,"123":-0.10934441363999325,"124":0.06682115365477544,"125":0.11709226426188751,"126":0.02760796914486993,"127":-0.026175913523149887,"128":-0.2091477545281888,"129":0.06783949282375829,"130":0.023056663254380133,"131":-0.029716925420264436,"132":-0.02286305326472401,"133":0.11671002995384877,"134":-0.08506919819193853,"135":0.14954445110202236,"136":-0.03568833519433513,"137":0.24101675626665758,"138":0.5308840763189833,"139":-0.1506485281135145,"140":0.016442135818074056,"141":0.012601366649638828,"142":0.004365299221134114,"143":0.09138758832630778,"144":0.06829911546240423,"145":-0.3164556174921938,"146":0.2619037578292199,"147":-0.08589512182828121,"148":0.08039409484089802,"149":0.04713310132901739,"150":-0.13773652443404447,"151":-0.46605397584942365,"152":-0.148444613520196,"153":-0.30604851589968296,"154":-0.6961750017131338,"155":-0.2902933213067647,"156":0.2167672517450896,"157":0.07354952223358294,"158":0.017452624064827567,"159":-0.3038304728295896,"160":0.09841876063220628,"161":-0.13584718753039496,"162":0.551776779105431,"163":0.16258098456258083,"164":0.36929010996613243,"165":-0.0583685235780348,"166":-0.12227005938799683,"167":-0.09381605765081653,"168":-0.005477710617548076,"169":-0.12233822194454912,"170":-0.1319671658005757,"171":0.1179981660646782,"172":0.05935277535245258,"173":-0.026753231489082277,"174":-0.2586066626263249,"175":0.21532292193260935,"176":-0.08056949053854597,"177":-0.30187054956038817,"178":0.2034786204613973,"179":0.09655868757844714,"180":0.10484205840568847,"181":-0.1897633320135585,"182":-0.03454510860442897,"183":0.07469008541216442,"184":-0.2723341151870838,"185":-0.36382044649110745,"186":-0.3619896420963399,"187":-0.40316565516496716,"188":0.021404178592739593,"189":-0.09609274232366842,"190":-0.03905207134271565,"191":-0.43120572512527056,"192":0.23016624602080785,"193":-0.19288128653805237,"194":-0.6470778632297585,"195":-0.8457066336770709,"196":0.2528666620212317,"197":-0.7406826149583986,"198":-0.027279171591189824,"199":-0.42529390391341804}},{"sx":5,"sy":5,"depth":8,"w":{"0":-0.2112160887783635,"1":0.15337009012109462,"2":-0.38523318887897834,"3":0.17953238033909538,"4":0.018180102686027353,"5":0.2164867971319164,"6":-0.4362146938323514,"7":-0.052163522686235586,"8":-0.38337575647450245,"9":0.6650727250746518,"10":-0.6674108581157953,"11":0.17680585559165535,"12":-0.34122643858346624,"13":0.79615926409976,"14":0.2106583194173327,"15":0.1817861386209078,"16":0.26978094479896747,"17":0.44528873377700934,"18":-0.8177466963520447,"19":0.1247195504056463,"20":0.10526742316384058,"21":0.6507088254583814,"22":0.5071322051971968,"23":0.5524211681989016,"24":0.650860665869887,"25":0.043211124059044474,"26":-1.0694653191955097,"27":-0.09795940506552084,"28":0.14308125986296674,"29":0.5181373334059666,"30":0.24311307332822027,"31":0.2307964270143941,"32":0.233944625055929,"33":-0.03011556647372579,"34":-0.8462113226704965,"35":-0.37559327052215685,"36":0.0795287405770217,"37":-0.022580656094832337,"38":0.14900544110302238,"39":0.0073374667490183785,"40":-0.09038773025415163,"41":0.5678035305087838,"42":-0.586197902619652,"43":0.3568216293769087,"44":-0.30837285135712916,"45":0.342412359062748,"46":-0.293030826425911,"47":0.014435902408614434,"48":0.014270044465226912,"49":0.7387004646590182,"50":-0.7964280220089176,"51":0.19660306634526264,"52":-0.12208954652560308,"53":0.5189872204787901,"54":0.2406971261287338,"55":-0.0015867277908002948,"56":0.06813569924412338,"57":0.10307370389225137,"58":-0.8272452271565478,"59":0.22614997348706578,"60":0.3895065406269074,"61":0.6134723919934526,"62":0.14474356588856246,"63":0.2137402940547494,"64":0.3180077967714505,"65":0.02823305658309406,"66":-0.5725262443989964,"67":-0.23153047719827174,"68":0.3011405866673716,"69":0.24024693817017506,"70":-0.25752460483038536,"71":-0.03743003821322685,"72":-0.024723822839282705,"73":-0.32217455962649794,"74":-0.2071737869376131,"75":-0.16807724243682565,"76":0.09559389181608027,"77":-0.09724360414991766,"78":-0.1322687432906049,"79":-0.27125437023731513,"80":-0.14534461645169539,"81":0.47709969873132063,"82":-0.4871861636621577,"83":0.15162828374686327,"84":-0.15076504889619116,"85":0.29848241308875717,"86":-0.25506562298522173,"87":0.10279879795005506,"88":-0.3246042247423252,"89":0.3287000217578396,"90":-0.5556281199432963,"91":-0.1075060078230625,"92":0.0838469314531906,"93":0.3711201603860837,"94":0.11894777833324863,"95":0.1376371853491007,"96":0.01223919363865921,"97":-0.09253424931076393,"98":-0.4093817065500119,"99":-0.09942329921144219,"100":0.33232200655741156,"101":0.21374542146925224,"102":0.02603859872533716,"103":0.22953047502440227,"104":-0.05224296880265231,"105":-0.31254064987081437,"106":-0.4674938900018746,"107":-0.13301088883941373,"108":0.19994066461521307,"109":0.44856075984946453,"110":-0.056350681813384804,"111":0.21932538535642848,"112":-0.214864528795415,"113":-0.5350184309257894,"114":-0.26570589949185475,"115":0.26261144610472265,"116":-0.04314077476217977,"117":0.0938734936474149,"118":-0.01058769660899265,"119":0.10156381775135692,"120":-0.19169541398256112,"121":0.2472601631708838,"122":-0.47107001331902154,"123":0.22961581585483945,"124":0.09522986443278017,"125":0.26185294239823365,"126":-0.09958183738295134,"127":-0.17516269556206018,"128":0.05529854837195231,"129":0.2451346921609231,"130":-0.4775471759400618,"131":0.28052842732920436,"132":0.11936885907901248,"133":0.43892354772025505,"134":0.26523754675875816,"135":-0.02401677388041119,"136":0.04921375843544147,"137":-0.3344054473130587,"138":-0.4512452772720495,"139":-0.1909157567696569,"140":0.20538486717709087,"141":0.42608307246874894,"142":0.1945795657309906,"143":0.08659959572287848,"144":-0.011122163511701852,"145":-0.3480036453984001,"146":-0.686470027986273,"147":-0.1415053020846048,"148":0.07676268459458388,"149":0.4044334430298017,"150":0.23563449516015678,"151":0.22322619630111748,"152":-0.29254487752340597,"153":-0.5633438613634424,"154":-0.161013174302327,"155":0.02276032132502798,"156":-0.18382634603662906,"157":0.05894563643148432,"158":0.04472678078447287,"159":0.2099893050620381,"160":-0.1184755959178411,"161":-0.039749030394068706,"162":-0.4876097322516585,"163":0.08768337658294667,"164":0.12248245453650444,"165":-0.04586954947793598,"166":0.03275035659795881,"167":-0.09168358120890359,"168":-0.1645693620166231,"169":0.011374763614812147,"170":-0.5757621732734611,"171":0.22638571803837945,"172":0.28375410838059534,"173":0.33435322309453613,"174":0.27435165516432974,"175":0.22796951369404134,"176":-0.07810499205773329,"177":-0.3640995412171838,"178":-0.6984271121365053,"179":-0.38070865158085054,"180":0.5581698779771674,"181":0.3885601279824771,"182":0.15210920157697297,"183":0.34483246882312885,"184":-0.12122991003244464,"185":-0.16744157139237673,"186":-0.6967045676837897,"187":0.07161828381210116,"188":-0.14485684778324034,"189":0.5646313468897874,"190":-0.02153100959155644,"191":0.2397553670767585,"192":-0.0835842151333614,"193":-0.024297838249941372,"194":-0.18309907892543167,"195":-0.21731008164033308,"196":-0.13948945701776586,"197":0.6649710506288373,"198":-0.2773124130149495,"199":0.544212407116454}},{"sx":5,"sy":5,"depth":8,"w":{"0":-0.02328639277511128,"1":0.004150991232603951,"2":-0.022705256699805422,"3":-0.006011536520441692,"4":-0.04237696984711223,"5":0.05062978773441851,"6":-0.03485296908981045,"7":-0.012697858259632096,"8":-0.006463182580574506,"9":0.019069974882703403,"10":0.005854639285077439,"11":-0.055253709874157154,"12":0.024890233954529453,"13":-0.004528438364073346,"14":-0.024288919656539128,"15":0.013646536112632755,"16":0.025690418813499975,"17":-0.06653735236257438,"18":0.058696024743473116,"19":-0.017717809282425123,"20":-0.02259991214302127,"21":-0.006940433853559773,"22":0.015756137518814228,"23":0.007470431431030137,"24":-0.06136705345676199,"25":-0.012380531081835636,"26":-0.03351037994912665,"27":-0.004214186418327978,"28":0.03833812449588073,"29":-0.09595392178825693,"30":-0.03436673146962119,"31":-0.0231730277215036,"32":0.02404902169643345,"33":0.02380677544547189,"34":-0.012302675615155894,"35":-0.026108066279209734,"36":0.008987289258446792,"37":-0.02904684563355016,"38":-0.0019095830291920566,"39":0.015661610435578472,"40":0.017564774333659723,"41":0.0016456020982344663,"42":-0.010493138107750342,"43":-0.020394631793594468,"44":0.01651830901112403,"45":-0.020791477256993235,"46":0.009538298285469414,"47":0.0023580409762962366,"48":0.022280665366798524,"49":-0.0028263749045725666,"50":0.010205897138516898,"51":-0.016300282912029566,"52":-0.003266941115812806,"53":0.035266527142225945,"54":0.03107811932857813,"55":-0.04910350097771643,"56":-0.022796262894543787,"57":-0.07018418364897452,"58":-0.002171794861849852,"59":0.012350701262718032,"60":-0.012120313752947325,"61":-0.047481511687748584,"62":-0.0035140597458214505,"63":-0.008405862483125762,"64":-0.021899177562891902,"65":-0.017886763785068115,"66":0.033118473125297275,"67":-0.03270213366365656,"68":0.028464020430414273,"69":0.0012855982390233601,"70":-0.05197077902592152,"71":-0.05503554283552027,"72":-0.019661499198386077,"73":0.00007226061690397397,"74":-0.013397894887223477,"75":-0.031993492188746454,"76":0.0064974716063973936,"77":-0.037199598673749466,"78":0.033011808405813255,"79":0.013463461501081426,"80":-0.025705035752376072,"81":0.01109499020008872,"82":-0.004341295583564698,"83":0.026791601644437973,"84":0.006976097799533392,"85":-0.07989481242167243,"86":0.03097414926931318,"87":-0.0058290437481931185,"88":-0.036806990112912184,"89":0.014644250923935469,"90":-0.015531860201652137,"91":-0.05040182199553004,"92":0.0010466675846258276,"93":0.0037167351381894318,"94":0.05132555301284595,"95":0.041926409000777785,"96":-0.010315332067702656,"97":-0.033865137480286335,"98":-0.019687362993576752,"99":0.03026542637330452,"100":-0.022995520771237284,"101":-0.025781318406928107,"102":-0.017329360657868068,"103":0.03154558041813376,"104":-0.011426896420058664,"105":0.008323708811673157,"106":-0.0182834821186001,"107":0.013098104170992993,"108":0.020767692191905305,"109":0.027360959196949284,"110":0.005333632383260595,"111":0.02610821319083503,"112":-0.05030789879154219,"113":-0.030533942885317307,"114":-0.01885444780956621,"115":-0.07290580350440505,"116":0.020520273088783524,"117":-0.0013991247280767346,"118":0.007441739112250114,"119":-0.057579990225600536,"120":-0.04784129294688428,"121":0.011416601114396099,"122":0.00877203973826841,"123":-0.0036815755795997925,"124":-0.0276930737464209,"125":-0.00721021860406012,"126":-0.04555646048410677,"127":-0.01146412813342826,"128":-0.00487115542471119,"129":-0.04589664342882132,"130":-0.015925048410189657,"131":0.005950108513192218,"132":0.022144124154243428,"133":-0.016370037782054453,"134":-0.008247375054413506,"135":0.03406004452304783,"136":-0.02402366525727437,"137":-0.010934605028093264,"138":-0.012537574919954234,"139":0.01659540073233069,"140":-0.02230045658824582,"141":-0.042203046234036604,"142":0.05485178298878847,"143":0.044884759794755806,"144":0.014487072719526982,"145":-0.012724859249429364,"146":-0.010651130242617133,"147":-0.026633752719087193,"148":0.021714945738809735,"149":-0.023120056702307896,"150":-0.06930010558806972,"151":0.009974168385544751,"152":-0.051909254576893674,"153":-0.04762677878643606,"154":0.002565291863135921,"155":0.03209360163290653,"156":-0.025227446998515955,"157":0.05696951980629493,"158":0.04026865047030002,"159":-0.018542923693515373,"160":0.05223517926418647,"161":-0.07858186352317433,"162":0.06699012667837118,"163":-0.002780207859609997,"164":-0.062061470952217715,"165":-0.06057850414329954,"166":-0.04032592125112424,"167":-0.008073421899762083,"168":0.024542429379840434,"169":-0.0269248706851303,"170":0.020446344273901126,"171":-0.08080978677238022,"172":-0.08053133513235103,"173":0.024634850553333355,"174":-0.005267771636741945,"175":-0.0241606726029728,"176":-0.03972665877045374,"177":0.022106728004963994,"178":0.016546144155503543,"179":-0.03963277670769236,"180":-0.03195478155236915,"181":-0.012610030872470028,"182":-0.023643359420372254,"183":-0.007261861465545479,"184":-0.05707578017850822,"185":0.0028725739310310945,"186":0.003002561579728278,"187":0.0004047430138520333,"188":-0.03991736267908437,"189":-0.004669726487323948,"190":-0.008649625601931384,"191":0.034989315449406234,"192":0.0008354462758476662,"193":-0.003504647896248811,"194":-0.05399082620075482,"195":0.010681928499482534,"196":-0.02411010532797911,"197":-0.05047834720387199,"198":-0.02181679051923905,"199":-0.013332936216738133}},{"sx":5,"sy":5,"depth":8,"w":{"0":-0.28915762318179683,"1":-0.1360965661692421,"2":-0.6500863258551239,"3":0.18154098683816092,"4":-0.2500498783826331,"5":0.3590849690154728,"6":-0.19496010882350812,"7":0.007813631721824804,"8":-0.04448350832552389,"9":-0.0525075360599405,"10":-0.6022265294629103,"11":-0.12944507289005897,"12":-0.4688467768392887,"13":0.3496652450827519,"14":0.0374971597854699,"15":0.5173881103293224,"16":0.14626351172426538,"17":-0.09773498766692479,"18":-0.3192218569131082,"19":-0.11161202367829523,"20":-0.07701419303266267,"21":0.05006679023307992,"22":0.3450183938020405,"23":0.5916375255204978,"24":0.09396936453722013,"25":-0.03916760649822202,"26":-0.23158142352478545,"27":0.48204760954857545,"28":0.053565226097869664,"29":-0.39872077307816406,"30":0.54044459892816,"31":0.04258208365452971,"32":-0.09427540932957383,"33":-0.21510432638340968,"34":-0.5272179734380997,"35":0.3190524010540466,"36":-0.03576808076170426,"37":-0.12458820159330204,"38":0.1865816071595682,"39":-0.19588949304981254,"40":-0.31185358649648937,"41":0.1125282432486868,"42":-0.536559204829849,"43":-0.11068693736722951,"44":-0.48048085979466476,"45":0.32534512814641287,"46":-0.1919751572399866,"47":0.3016125543812462,"48":0.2788088896651531,"49":-0.1326580459809947,"50":-0.16555635709792324,"51":-0.28014849115656876,"52":-0.6744843342774964,"53":0.1209819371673958,"54":0.20665768301287774,"55":0.32225761311125833,"56":0.24020670728287336,"57":-0.20348045041435306,"58":-0.2996265726796852,"59":-0.1042958332338236,"60":-0.06007512751086799,"61":-0.3625581250632539,"62":0.3771793416227771,"63":-0.08643532557735341,"64":0.045154440115414377,"65":-0.5919457745987374,"66":-0.19964478305617925,"67":0.23113062147902128,"68":0.06898152143560055,"69":-0.23259168870256253,"70":0.2753845179801693,"71":-0.13542357303383754,"72":0.04093993822978342,"73":-0.08613209650476372,"74":-0.385737918946627,"75":0.1501352350605787,"76":-0.2961729493684146,"77":0.5346307041911231,"78":-0.3237602365175066,"79":0.04924611914200914,"80":0.009498870419035016,"81":-0.2712617248122932,"82":0.05933721977960764,"83":-0.40402376578856863,"84":-0.6918906119015441,"85":0.1029445000823845,"86":0.33418152779738064,"87":0.32743942823567057,"88":-0.08012208703331858,"89":-0.1297315335236818,"90":0.020182252954406166,"91":0.2602855936842232,"92":-0.03715393929383778,"93":-0.037838645980292185,"94":0.3505258831985577,"95":0.2049634177702956,"96":0.0649355961503804,"97":-0.3377486922622392,"98":0.17410713967930566,"99":0.0077256043712934305,"100":0.37248474924796576,"101":-0.5265774983823868,"102":-0.058348353689642495,"103":-0.17231930412566995,"104":-0.11039452663041505,"105":-0.2749270806452676,"106":-0.1971242134688828,"107":-0.22202345771747203,"108":-0.1371013958476576,"109":0.027950390210514296,"110":-0.28158812168069286,"111":0.08603242758582398,"112":0.1255955635688673,"113":0.15143287239313163,"114":0.3245139525127794,"115":-0.2548838613400586,"116":-0.5420330861159576,"117":0.5367894682874657,"118":-0.1307483475970346,"119":0.4933754290713007,"120":0.10220600364964355,"121":-0.21035300335934415,"122":0.6777253191477799,"123":-0.07157991861982989,"124":-0.3674575811204353,"125":-0.10163195799058143,"126":0.498543917091012,"127":-0.13537067746260806,"128":-0.200181905449005,"129":-0.02232303419914794,"130":0.30849542127812934,"131":0.017322248458865153,"132":0.40091447991411894,"133":-0.5739119122218156,"134":0.10662289630518194,"135":-0.1935330478624088,"136":0.10591318888456866,"137":-0.4689004139485339,"138":0.016994259071820977,"139":0.07634055739470665,"140":0.20593121049540203,"141":0.25070019862421405,"142":-0.16832859128560976,"143":-0.04312770360242262,"144":-0.2912767052116732,"145":0.26915417527269686,"146":-0.3705270334900682,"147":-0.3329147009512609,"148":-0.3120395421630156,"149":0.1509264338238628,"150":-0.277535568264399,"151":0.2663185608980128,"152":-0.18932861202534834,"153":0.1327312292371359,"154":0.2788146964522135,"155":-0.2614703940282324,"156":-0.2199433721710751,"157":0.26547756600931866,"158":0.4785150942256004,"159":0.49390929278354695,"160":-0.32315237734969793,"161":-0.3143947901859811,"162":0.3859064236906839,"163":-0.35292148546334645,"164":-0.36916984401321984,"165":-0.23076570626436183,"166":0.40866254184388806,"167":-0.5405345865102366,"168":-0.2925892061790087,"169":-0.012521104153889117,"170":0.19758523373189668,"171":0.2400305352341699,"172":0.2959356122953831,"173":-0.0024467422824939727,"174":-0.17792444425920248,"175":0.05387130298140478,"176":-0.2765700215418387,"177":-0.013266248889454563,"178":-0.306225443746716,"179":0.3497771413245463,"180":0.010223686142825974,"181":0.4735400268842971,"182":0.006977364256896352,"183":0.3091612187566286,"184":-0.2287889081791311,"185":0.41213933229631927,"186":0.235449052235633,"187":-0.3414033818863331,"188":-0.10737444040445474,"189":0.0819924617370794,"190":0.1855690905126082,"191":0.24847981711084985,"192":-0.07749016233843506,"193":-0.30265681165473357,"194":0.28088519922682414,"195":0.29663245262202553,"196":-0.042111035533317194,"197":-0.31924426209266293,"198":0.23326046421598498,"199":-0.22378085739247192}},{"sx":5,"sy":5,"depth":8,"w":{"0":-0.3245051923896251,"1":-0.09944809703327229,"2":-0.02747744017601259,"3":-0.007425100915371191,"4":0.007485094734152786,"5":0.1154819593290111,"6":-0.11253513459574449,"7":-0.28199206865826093,"8":0.019461544536972908,"9":0.37806573102347873,"10":0.014619790327561772,"11":-0.19807853985693366,"12":-0.10640474327625715,"13":-0.0892642821249799,"14":-0.24518633428319372,"15":-0.1369095976866945,"16":0.07083879201434194,"17":-0.029636037867054047,"18":0.024361243918164036,"19":-0.08464255293653652,"20":0.40000992820494974,"21":0.19945918701733306,"22":0.029022788899854924,"23":0.2219719934388849,"24":0.006280679688925015,"25":-0.5379959852822633,"26":-0.12083964815750013,"27":0.018881041705818277,"28":0.4017518087080633,"29":0.29337469829980517,"30":-0.06401851755740484,"31":-0.061418451337678766,"32":-0.28316119128107714,"33":-0.5601866865123155,"34":-0.23512163823059518,"35":-0.05051728606190787,"36":0.16468455638002558,"37":-0.48826990003635806,"38":-0.2441607891610404,"39":-0.3110977408959278,"40":0.38992276231889894,"41":0.07948253174071028,"42":0.03716753224454444,"43":0.08804238378922594,"44":0.5066214946465573,"45":-0.030426960377252604,"46":-0.24104032161767616,"47":-0.029076843141374736,"48":0.4206626711103381,"49":0.20924415860398485,"50":0.5246134701518923,"51":-0.16024622654736187,"52":0.17489305462292645,"53":0.1865015311562656,"54":-0.14982021807110704,"55":0.033681368248918854,"56":0.47407750404112,"57":0.03575858713878186,"58":0.3917578815299306,"59":-0.21396318161675096,"60":0.4761825199994075,"61":0.17888793640924627,"62":0.2643876636438626,"63":0.29264792251563937,"64":0.4655712867475355,"65":-0.2687075154817151,"66":0.06548107744146943,"67":-0.24733156503988954,"68":0.14973505830172473,"69":-0.09832535890356386,"70":0.05016054096754366,"71":0.0038446816076504182,"72":0.07544137321187235,"73":-0.7684189913326656,"74":0.3378503007579406,"75":0.04315284313428219,"76":-0.1128177629312922,"77":-0.1287788542278443,"78":-0.1463615595651539,"79":0.007043538829974157,"80":-0.04577774608099728,"81":-0.27868531936262253,"82":-0.08804238847685902,"83":0.16588963960852646,"84":-0.04441153370738196,"85":-0.08618608150195321,"86":-0.43652917870532837,"87":-0.11775957612671124,"88":-0.09498252391488744,"89":0.0774530088003083,"90":0.42139990073783784,"91":-0.23216990798560713,"92":-0.23237647302959305,"93":0.0671920191975937,"94":-0.5828758078620367,"95":-0.12742226090071468,"96":0.13906260908865886,"97":0.1375718014212554,"98":0.45427098727453563,"99":-0.15232359790304656,"100":0.1525788735237035,"101":-0.04102043421365486,"102":0.21726254841494633,"103":0.18380665878880156,"104":0.09942695443250411,"105":0.016065523083609985,"106":0.5603086154143028,"107":-0.09090869239437122,"108":0.009990248942249695,"109":0.2461536183172419,"110":-0.15127833270983002,"111":0.05285019106963439,"112":-0.3621151138825404,"113":-0.10997287846838211,"114":0.5561723096118449,"115":0.03710423534285532,"116":-0.08592932827218414,"117":-0.20440599637050774,"118":-0.08613585939762437,"119":-0.02152746519611152,"120":0.0655776341231697,"121":-0.04597884108150505,"122":-0.13831639721368877,"123":-0.04717517817191369,"124":-0.16049737351548865,"125":0.05175661802931478,"126":-0.4967001250558329,"127":-0.04818049650969102,"128":-0.09219098666647563,"129":0.161604830308179,"130":0.2982007724180872,"131":-0.017138449370242368,"132":-0.28845047249522504,"133":-0.23431804759107402,"134":-0.40701413827925703,"135":0.011376192414943009,"136":-0.005087285875150189,"137":-0.4432021492923519,"138":0.6051535229269133,"139":-0.0401370309672956,"140":-0.1714785444410327,"141":-0.18309744914217208,"142":0.18614548863620412,"143":0.2536162839854327,"144":0.00517386462465175,"145":-0.13944665123640007,"146":0.5850625973939306,"147":-0.31916969431593095,"148":-0.1426981464746983,"149":-0.08002831575477821,"150":-0.28123038033434655,"151":0.2143333029665856,"152":-0.6453574929333956,"153":-0.34480624332568804,"154":0.4574491451436675,"155":-0.056025260678270544,"156":0.260629349441838,"157":-0.47142761592752225,"158":-0.09043636987344426,"159":0.29606041092383023,"160":0.041537300745753666,"161":-0.054211715444237495,"162":-0.05065709057169213,"163":0.08967550923811914,"164":-0.02847953080658649,"165":0.1811640958422114,"166":-0.37983727570570813,"167":-0.09797604661631891,"168":-0.13302013179959915,"169":0.40080677726811714,"170":0.7393467823800912,"171":0.08551584896513444,"172":-0.2077764991708504,"173":-0.26941955175524007,"174":-0.33926233894924296,"175":-0.3045035064516939,"176":0.005640929809105959,"177":-0.16362667303718148,"178":0.7452825977132637,"179":-0.09425033900385944,"180":-0.05154851632263674,"181":-0.28473648421246484,"182":0.199277830346119,"183":0.12229764145620244,"184":0.09501078924821107,"185":-0.07166378899650329,"186":0.05330393814332179,"187":-0.209020106228757,"188":0.1218953707975777,"189":-0.1195362972222675,"190":-0.1299876289342744,"191":0.08566975672101511,"192":-0.4409715690110726,"193":-0.1889853487647921,"194":0.4811661383427853,"195":0.2683707812757675,"196":0.04662547590885913,"197":-0.3357195099443559,"198":0.1654880677241767,"199":-0.037203818502904135}}],"biases":{"sx":1,"sy":1,"depth":16,"w":{"0":-0.07204871096124563,"1":-0.34100410315731744,"2":0.10585129121041255,"3":-0.05083347911536783,"4":-0.17609878080369784,"5":-0.14489473822328994,"6":-0.03202808853353518,"7":0.11788452552280429,"8":-0.24405524397436937,"9":0.05635620797735038,"10":0.06306015030191627,"11":-0.2838762999726299,"12":-0.0902506024016594,"13":0.07126353667803242,"14":-0.3544001749437377,"15":-0.02211819077508026}}},{"out_depth":16,"out_sx":4,"out_sy":4,"layer_type":"relu"},{"sx":3,"sy":3,"stride":3,"in_depth":16,"out_depth":16,"out_sx":1,"out_sy":1,"layer_type":"pool","pad":0},{"out_depth":62,"out_sx":1,"out_sy":1,"layer_type":"fc","num_inputs":16,"l1_decay_mul":0,"l2_decay_mul":1,"filters":[{"sx":1,"sy":1,"depth":16,"w":{"0":-0.13035687386144426,"1":-0.0497123669573057,"2":-0.16582507059797896,"3":-0.6781912932570937,"4":0.3387900996147537,"5":-0.5615860789304357,"6":-0.05151127152532765,"7":-0.5534016715092324,"8":0.1622891182548299,"9":-0.6634428311734526,"10":-0.9313988051345279,"11":-0.3844543205450692,"12":0.16009525956011408,"13":0.25169725268144644,"14":-1.1369489595017959,"15":-0.6544066586755984}},{"sx":1,"sy":1,"depth":16,"w":{"0":-0.018208684383633128,"1":-0.12036978764542235,"2":-0.15087919717643453,"3":-0.8568930860228838,"4":0.08134960527981545,"5":-0.4236592883282778,"6":-0.0820866050409093,"7":-0.7867456878948915,"8":-0.691056249037661,"9":0.0719756245392268,"10":0.38140292377019785,"11":-0.08212926446490595,"12":-0.9640225249033885,"13":0.08152265114849477,"14":-0.33627788045574286,"15":-0.24221625496257254}},{"sx":1,"sy":1,"depth":16,"w":{"0":-0.31547122481579876,"1":0.27451997246558024,"2":-0.12227120651179334,"3":0.1958707235701159,"4":-0.6774462538936966,"5":-1.091250095569067,"6":0.34053254233723884,"7":-0.04214535860279142,"8":-0.5646554905982102,"9":-0.5076910649391592,"10":-0.7786817153285948,"11":-0.4493055241624795,"12":0.011070491768174625,"13":-0.05650260586146106,"14":0.01954854795905087,"15":-0.5135574066497307}},{"sx":1,"sy":1,"depth":16,"w":{"0":-0.06818763433338375,"1":-1.092036349505293,"2":-0.4934748652404061,"3":0.3444933720859201,"4":-0.17105011123738997,"5":-0.1911224823534235,"6":-0.21929617603609142,"7":-0.24143325932925838,"8":0.6148362614110333,"9":0.07152492168135871,"10":-0.6443330312185529,"11":-0.5582477184733398,"12":-0.5347502602647733,"13":0.07522189801770984,"14":0.2027346079460977,"15":-0.15588625158337754}},{"sx":1,"sy":1,"depth":16,"w":{"0":0.23882831319604764,"1":0.5183273276950463,"2":-0.2514073600611959,"3":-0.25041542730398086,"4":-0.2179944149767188,"5":-0.376278704219099,"6":-0.1904919380795746,"7":-0.26041999483454026,"8":0.21976878813931944,"9":-0.6102937681535748,"10":-0.8340442251453299,"11":-0.3571965868722617,"12":-0.5002078826916422,"13":0.029000482306780522,"14":-0.10772120746104931,"15":-1.3992292915797853}},{"sx":1,"sy":1,"depth":16,"w":{"0":0.19159973088207863,"1":0.05962257393643114,"2":-0.687851306531019,"3":-0.4011299470257451,"4":-0.5482577012863722,"5":-0.9675535484538217,"6":-0.6672101318323487,"7":0.552333634795476,"8":0.057265990121700354,"9":-0.32365269726733037,"10":-0.9390865682210142,"11":-0.2538730915807029,"12":-0.1772358832729819,"13":-0.14151967862043585,"14":0.5502092354440776,"15":-0.20308192144265663}},{"sx":1,"sy":1,"depth":16,"w":{"0":0.039082502617254856,"1":-0.5623091598321662,"2":-0.07149270721218279,"3":-0.4893221751977886,"4":0.13055515715900165,"5":-0.47927198526731074,"6":-0.21083537716606077,"7":-0.3342336436767764,"8":0.0843591732629512,"9":-0.4891437872360363,"10":-0.20783468541209393,"11":-0.7471216810484432,"12":0.09389362533890415,"13":-0.07899214459775701,"14":-0.009398681011234691,"15":-0.8855017575752838}},{"sx":1,"sy":1,"depth":16,"w":{"0":0.10239888863594736,"1":-0.1300968949383206,"2":0.04319942997879517,"3":-0.6457786392778754,"4":-0.22159112530862823,"5":0.02431990200755095,"6":-0.5522307261061399,"7":-0.43775144989311593,"8":-0.4191272679533924,"9":0.35975719601796297,"10":-0.43253204899945913,"11":0.033335437892961506,"12":-1.557717999054788,"13":0.11636302014224399,"14":-0.5557550275974923,"15":0.34836173811683124}},{"sx":1,"sy":1,"depth":16,"w":{"0":-0.03343564879136695,"1":-1.0966322102629174,"2":-0.43701828518116786,"3":0.024830302103776337,"4":-0.3199313016590724,"5":-0.6411410789634763,"6":0.26205009649538574,"7":0.2518027819107802,"8":-0.3647913180195225,"9":0.3663710420737382,"10":-2.629431609826421,"11":0.6218905966618232,"12":-0.5568151604855992,"13":0.010649979238820504,"14":-0.49286245871543205,"15":0.38199758419657953}},{"sx":1,"sy":1,"depth":16,"w":{"0":-0.10559079598299433,"1":-0.38972808490966265,"2":-0.29878916413033696,"3":-0.980105633818291,"4":-0.03994107081402648,"5":-0.9509912532224536,"6":-0.15460932429193847,"7":1.365184481049616,"8":-0.7625283169870707,"9":-0.530391425977499,"10":-0.7934998000806612,"11":-1.2457979769789493,"12":-0.1461511868336207,"13":-0.08977025993788548,"14":-1.3030678733773702,"15":-0.2881401217718257}},{"sx":1,"sy":1,"depth":16,"w":{"0":-0.15824647969733574,"1":0.19164944798336933,"2":0.029277750222462536,"3":-0.2827185492781516,"4":-0.11446491840423734,"5":0.1586635192971628,"6":-0.3843965781669209,"7":0.13707974479248647,"8":-0.6670208777273018,"9":-0.5231634129214321,"10":-0.5674368756586905,"11":0.19951500393055394,"12":-0.7986396573333348,"13":0.029992657091311627,"14":-0.5570331954926687,"15":-0.1419365548173483}},{"sx":1,"sy":1,"depth":16,"w":{"0":-0.6248550005824004,"1":-1.3235383744862421,"2":-0.5450734312383249,"3":-0.425727185097911,"4":0.33342438147198894,"5":-0.15053497409845462,"6":-0.3580321501998304,"7":0.3088079920571282,"8":-1.5549944544089478,"9":0.341061056304913,"10":-0.39990882815170037,"11":0.47825443180250315,"12":-0.4978154125483287,"13":-0.31082616450326134,"14":-1.164833167756877,"15":0.18766214095395203}},{"sx":1,"sy":1,"depth":16,"w":{"0":-0.2797992787091119,"1":-0.5231412887088329,"2":-0.0987663092641385,"3":0.12966351824434402,"4":-1.1103155101824866,"5":0.23473306197321048,"6":-0.19622875060627812,"7":-1.0028565782888745,"8":0.5675685134265909,"9":0.19825781291845815,"10":-0.5844215919725554,"11":-0.9107097616476382,"12":-1.1756414006258942,"13":0.25615955063248064,"14":-0.05340402544399552,"15":0.22327716959713378}},{"sx":1,"sy":1,"depth":16,"w":{"0":0.13349387076983824,"1":-0.12479394038602934,"2":0.10203414360340833,"3":0.008141091725388424,"4":-0.6044021084083775,"5":-0.43846951611592777,"6":-0.04668232481093723,"7":-0.690883285692618,"8":-0.16245430428788118,"9":0.22399192475299415,"10":-1.2488337585683746,"11":0.15173323074116501,"12":-0.8346738600398957,"13":0.2146869259789908,"14":0.05045600695327207,"15":0.5516865560089889}},{"sx":1,"sy":1,"depth":16,"w":{"0":0.032814514168313595,"1":0.029628607095755176,"2":0.3232547891609101,"3":0.3009662445408027,"4":-0.3388222005178755,"5":-0.8271542481158202,"6":-0.01872080652925914,"7":-0.6572230891489831,"8":-0.1804226721020878,"9":-0.00879156916667369,"10":-0.9664687561363604,"11":-0.5488631490237926,"12":-0.41012863930444365,"13":0.11238328427229628,"14":0.0859592708632164,"15":-0.3083445282240334}},{"sx":1,"sy":1,"depth":16,"w":{"0":0.25542888976966566,"1":-0.12906603079366435,"2":-0.3437234999649763,"3":-0.6904532252967069,"4":-0.7280720162491409,"5":-0.8823537405355899,"6":0.16855802448109905,"7":-0.4868694364827203,"8":0.2879129415626519,"9":-0.15902194998526925,"10":-0.1331826780328314,"11":0.03874660139823425,"12":-0.5301471242154663,"13":0.1126542943925672,"14":-0.2253458785176307,"15":0.1966741874791184}},{"sx":1,"sy":1,"depth":16,"w":{"0":-0.9993835495872533,"1":-1.2405358108909037,"2":0.4059429265108781,"3":-0.39146582487787157,"4":0.017398218709780238,"5":-0.3721897409488583,"6":0.18100239837368365,"7":-0.7452788527910577,"8":-0.24491095551860398,"9":0.38350146730681534,"10":-0.3270218214784617,"11":0.1534559149224004,"12":-0.1359505258000713,"13":-0.11104433404300981,"14":-0.4915736853266399,"15":-0.009008454379100847}},{"sx":1,"sy":1,"depth":16,"w":{"0":0.10621351295448701,"1":0.030380072154191105,"2":-0.23154949683132187,"3":0.27840784764319293,"4":-0.6012608830111504,"5":-0.8278753776954637,"6":0.47039320566386544,"7":-0.1678308094999403,"8":-0.5256215556297943,"9":-0.16255862848442676,"10":-1.6757235806477042,"11":-0.04909190392227875,"12":-0.9706415318473199,"13":0.06127923429646207,"14":0.41959082437411016,"15":0.4038201781463156}},{"sx":1,"sy":1,"depth":16,"w":{"0":-0.08910399090134212,"1":0.48894857899921135,"2":-0.7915309041819438,"3":-0.3487727284341265,"4":-0.6624970824535206,"5":0.07286651733155904,"6":-0.3329259126980715,"7":-0.006259615460627589,"8":-0.3681698442877009,"9":-0.9217341670108241,"10":-0.6700264864862591,"11":-0.3217091065906166,"12":0.2061955357190927,"13":0.04931692151937545,"14":-0.5740620376267244,"15":-0.8610347827394025}},{"sx":1,"sy":1,"depth":16,"w":{"0":-0.08384066149159174,"1":-0.08027286712294983,"2":-1.0373743001791504,"3":0.327523626499141,"4":-0.37362167690304576,"5":-0.5530125862997523,"6":0.7519405013658845,"7":0.2916506918888631,"8":-0.8322331196839693,"9":-0.20938680861058434,"10":-0.3409960800997083,"11":-0.34276448668920306,"12":-0.6038311538892213,"13":0.08830719355707449,"14":-0.36961899298161827,"15":-0.39318753774098814}},{"sx":1,"sy":1,"depth":16,"w":{"0":0.3376758723722093,"1":-1.1915285616283133,"2":0.09141586705911929,"3":-0.39631174210075926,"4":-0.7600865305457777,"5":-0.17864019735577036,"6":0.3642874990388391,"7":-0.688586683047168,"8":0.21172807979725497,"9":0.3282288849996185,"10":-0.3131655367519514,"11":0.34310905094626876,"12":-0.7770803914666493,"13":-0.14767429231022763,"14":-0.5782685343479702,"15":0.18088207096603168}},{"sx":1,"sy":1,"depth":16,"w":{"0":-0.49936218675104865,"1":-1.3066683485886028,"2":0.44802952908657867,"3":0.05741868196429117,"4":-0.5123991966891774,"5":0.16268580466396523,"6":0.20112057113094722,"7":0.1230788344204524,"8":-0.9536558532142617,"9":-0.8625077351103239,"10":-1.66641367585994,"11":0.22288498701002402,"12":0.14244788714414905,"13":-0.04545974204432721,"14":0.17952122165510243,"15":-0.09666730008933147}},{"sx":1,"sy":1,"depth":16,"w":{"0":0.3797872078519541,"1":-0.28693792097809995,"2":0.3604393072733402,"3":-0.15065976487390303,"4":0.030182744091409076,"5":0.4538117029964344,"6":-0.3308497121740915,"7":-0.7303806749007588,"8":-0.32623401026262605,"9":-0.6624157338380489,"10":-0.5406385820443618,"11":-0.20287526046063661,"12":-0.630937411326014,"13":0.09473546550829647,"14":-0.9089832693571618,"15":-0.40112218260437665}},{"sx":1,"sy":1,"depth":16,"w":{"0":-0.11028198238006458,"1":0.0926089512023379,"2":-0.017772806098063056,"3":-0.1470644680066568,"4":-0.056229185405359115,"5":0.16283960736976522,"6":0.08361984681120167,"7":0.03789762529224937,"8":-0.8695486917192827,"9":-0.9129061366736613,"10":-1.5174106389637403,"11":0.10433306855784462,"12":0.0470122560286774,"13":-0.09846289200231,"14":-0.379940342773591,"15":-0.44362604695562957}},{"sx":1,"sy":1,"depth":16,"w":{"0":0.39931541639092616,"1":-0.7545120550900036,"2":0.4499660649821991,"3":-0.14052648287235514,"4":0.15692534803350602,"5":-0.15127422917171626,"6":-0.1429892269569882,"7":0.23898969104771706,"8":-0.7907659295500333,"9":-0.46115142271876386,"10":-0.25556283774928706,"11":-0.0009793900144705271,"12":-0.2684170024954415,"13":0.012700004303343958,"14":-0.11403391104356472,"15":-0.531964621427144}},{"sx":1,"sy":1,