{"layers":[{"out_depth":1,"out_sx":20,"out_sy":20,"layer_type":"input"},{"sx":5,"sy":5,"stride":1,"in_depth":1,"out_depth":8,"out_sx":16,"out_sy":16,"layer_type":"conv","l1_decay_mul":0,"l2_decay_mul":1,"pad":0,"filters":[{"sx":5,"sy":5,"depth":1,"w":{"0":0.3762818730444157,"1":0.7689851245167815,"2":1.1001472997781456,"3":1.6715594536758887,"4":1.9397918159901888,"5":0.3114205193739923,"6":0.6380811991555194,"7":0.12383512798779839,"8":0.3618248554400863,"9":1.212991422641411,"10":-0.2284899318694775,"11":-0.020022792112920747,"12":-0.37480065748080327,"13":0.044369619605392215,"14":0.8441241517134513,"15":-0.6685842732792756,"16":-0.2642375328499132,"17":-0.8343446881157024,"18":-0.5343821794078758,"19":0.7077032540613688,"20":0.05849377001000941,"21":0.45348077530843095,"22":-0.4568915065012136,"23":-0.5231316704839226,"24":1.069579068527772}},{"sx":5,"sy":5,"depth":1,"w":{"0":-1.0931824115768247,"1":-0.1920667840036977,"2":0.3145799246323151,"3":-0.5298618844476634,"4":1.7493350233085685,"5":-0.6148508716633799,"6":-1.0630621657428008,"7":0.015408829024975961,"8":0.769736669829453,"9":1.126092806797911,"10":0.16239560880853895,"11":0.012396298298052716,"12":0.3637193269235833,"13":1.1091432090581714,"14":-0.7761768022566492,"15":-0.6808389233763995,"16":-0.8806095724986556,"17":0.3750990079535104,"18":-0.7087787135522766,"19":-1.9952915502348165,"20":-1.5447080491414034,"21":-1.0993036814092496,"22":-0.2242552021785898,"23":-1.302727682279859,"24":-0.35911540963719024}},{"sx":5,"sy":5,"depth":1,"w":{"0":-1.8951028630733517,"1":0.9377040120108678,"2":0.4083438662218449,"3":-0.5994283482998316,"4":-0.4806350881135203,"5":-2.677109032811195,"6":1.1289868177299665,"7":0.6237858741967333,"8":-1.3279578691219638,"9":-0.6804944784582623,"10":-2.868047960289694,"11":1.16114089539793,"12":0.7400081696871164,"13":-1.899107010733825,"14":-1.0820870143224466,"15":-2.4853831048766066,"16":1.2200292289365158,"17":0.6167702474143888,"18":-1.1078285794780278,"19":-0.9076940910986646,"20":-2.116540046518363,"21":1.3031484578206878,"22":0.07292507808913173,"23":-0.24560570016996314,"24":-1.0689735272321979}},{"sx":5,"sy":5,"depth":1,"w":{"0":-0.21907581485893576,"1":1.5764575147360969,"2":0.29886827452385434,"3":-1.0883345225218424,"4":-1.918113322419126,"5":1.1655133705985448,"6":-0.0026278245226601113,"7":-1.0503091217266414,"8":-0.017031509487685916,"9":-0.5396033793372719,"10":0.3153503497297569,"11":-1.0398647109146102,"12":-0.9364151782792446,"13":-0.31981198069962957,"14":0.2638155614856339,"15":-0.8753424575720428,"16":-0.9398863992602148,"17":-0.6402789499325081,"18":-0.23591198889778686,"19":0.38346627370206327,"20":-1.1326707517790648,"21":-0.8337291183316522,"22":-0.5137290473797778,"23":0.47333063320951924,"24":-0.4408692641215843}},{"sx":5,"sy":5,"depth":1,"w":{"0":0.2659247080248956,"1":1.1473053063104055,"2":0.3790871089718957,"3":-0.946422947131058,"4":-1.1342868748630486,"5":0.3296005262126676,"6":1.4485189358149873,"7":1.8839387608622893,"8":1.1664173641174291,"9":-1.4099500327460994,"10":-0.1483437325736652,"11":-0.30421879695324927,"12":1.2479685590919694,"13":1.099431472961649,"14":-0.6894836158904162,"15":-0.8319610979966235,"16":-1.3360733568252678,"17":-0.9598869809333498,"18":1.193991528860499,"19":0.3816743518005444,"20":-0.32177844009067985,"21":-0.6805614622415416,"22":-2.238196469840781,"23":0.35260385567611036,"24":1.6649087377780354}},{"sx":5,"sy":5,"depth":1,"w":{"0":0.16482537298860583,"1":0.09751068780654167,"2":-0.5643626112300021,"3":-2.2453001677122737,"4":-0.7440296970890866,"5":0.006789403133016572,"6":-0.442739520974597,"7":-0.7946677071169262,"8":-0.879406112700538,"9":1.6327156631677011,"10":-0.013088992705675838,"11":-0.3401805044041416,"12":0.010980521590414535,"13":1.3210332362111992,"14":1.1561827898709482,"15":-0.8935110906849186,"16":-0.30342650528817705,"17":1.143075809028229,"18":0.7462472291116087,"19":0.09522691808429123,"20":0.8922543554793927,"21":1.173231752395024,"22":1.0521264147313516,"23":0.6055929700768021,"24":0.3811166734888811}},{"sx":5,"sy":5,"depth":1,"w":{"0":1.117112845688396,"1":1.2583476541807108,"2":1.46321961298479,"3":1.4005636673082518,"4":0.7365593255460823,"5":0.1187614947611959,"6":-0.5069005451741219,"7":0.17994273568984487,"8":0.8284156943826949,"9":-0.3786802445128996,"10":0.9050399406632587,"11":0.4108587611435467,"12":0.5124874002384702,"13":0.9678615405613964,"14":1.5123077298898275,"15":0.8270915600297718,"16":-0.2079115185100571,"17":-0.6074802055485287,"18":-1.4223701095874308,"19":0.12999039761869405,"20":1.4143841924772136,"21":-0.3028753677988713,"22":-0.5701305540835615,"23":-1.2770751431791985,"24":-1.311141385737179}},{"sx":5,"sy":5,"depth":1,"w":{"0":-1.8868213642163851,"1":-0.7591430929514899,"2":-0.746909506106503,"3":0.967029269126581,"4":1.1292830272484768,"5":-0.950646580938403,"6":-0.31006963212519256,"7":-0.24025469891496215,"8":0.6772336900114054,"9":0.32243749291858387,"10":-0.6226599953505844,"11":-0.16631622946206914,"12":0.3870400327888715,"13":0.8756182040574989,"14":0.5548239861698292,"15":0.002315520718021003,"16":0.21030010864285026,"17":0.704842823274395,"18":0.6594514611925849,"19":0.4445378625054806,"20":0.2643168169267999,"21":0.420856714454753,"22":0.8118971844980462,"23":1.3770356690432561,"24":0.9145268179849734}}],"biases":{"sx":1,"sy":1,"depth":8,"w":{"0":-0.9025890848830205,"1":1.118658738243214,"2":0.8771433630957313,"3":1.6684426694606709,"4":-0.2424729005962676,"5":-0.21998237550741337,"6":-0.41304778206777387,"7":-0.3646218261894758}}},{"out_depth":8,"out_sx":16,"out_sy":16,"layer_type":"relu"},{"sx":2,"sy":2,"stride":2,"in_depth":8,"out_depth":8,"out_sx":8,"out_sy":8,"layer_type":"pool","pad":0},{"sx":5,"sy":5,"stride":1,"in_depth":8,"out_depth":16,"out_sx":4,"out_sy":4,"layer_type":"conv","l1_decay_mul":0,"l2_decay_mul":1,"pad":0,"filters":[{"sx":5,"sy":5,"depth":8,"w":{"0":-0.2002402337567796,"1":-0.19163770153254733,"2":-0.1166952681417526,"3":-0.13094840685131087,"4":-0.1363743791472435,"5":-0.17960949585547276,"6":-0.18143884386740944,"7":-0.1518728814306977,"8":0.09940505664672833,"9":-0.15540439323462035,"10":-0.35233016303039344,"11":-0.11501012196337113,"12":0.20800751739267906,"13":0.10809770786355899,"14":-0.18504230980239256,"15":0.020432488340598753,"16":-0.3833775381798892,"17":-0.23854028777786102,"18":0.3094908102221024,"19":-0.2407502305245892,"20":0.008376100669603322,"21":0.15696351829961064,"22":-0.35579213925950814,"23":0.14515148037543135,"24":-0.04596934846156685,"25":-0.10165998579344886,"26":-0.2683870909862003,"27":-0.2527314381344746,"28":-0.6270120801808006,"29":0.0045143610791791924,"30":-0.13135134889104205,"31":0.17908079949964234,"32":0.06862226579607937,"33":-0.09272399843652608,"34":-0.25972468795594544,"35":-0.05890245756972663,"36":0.07625135318363878,"37":0.31636761602017943,"38":0.004077617222870723,"39":0.16641903606088793,"40":-0.1460308958814433,"41":-0.30856902199194314,"42":-0.09841382543148434,"43":-0.08503414339866895,"44":0.006038226084070382,"45":0.013405669752401678,"46":-0.06998651548726083,"47":-0.1520043269369156,"48":0.43962447366039203,"49":0.12005430979310969,"50":-0.17935629494141628,"51":-0.25511786690708155,"52":-0.3509254088408942,"53":0.18001936682246172,"54":-0.46522591136460967,"55":0.18027490367314147,"56":-0.010938050058043384,"57":-0.17891933789483666,"58":0.11284737944324402,"59":-0.26364309107807965,"60":-0.07536945485062496,"61":-0.08211390688239713,"62":-0.2907167577649964,"63":0.28519790942802714,"64":0.31273870743431276,"65":-0.27681685290610114,"66":0.22975785955843128,"67":0.09459526784852741,"68":-0.5731857937810945,"69":0.22163838667637958,"70":0.021557183777548204,"71":0.3800334874579172,"72":0.22763783995296777,"73":0.0796405997093158,"74":-0.25587666944532367,"75":-0.0646561973413342,"76":0.1583108247716158,"77":-0.21002699892559099,"78":-0.32585727137379916,"79":0.25627806380872564,"80":0.0121866253720229,"81":-0.18254831237912514,"82":-0.07626355654878297,"83":-0.20404502061568966,"84":-0.11826236741153455,"85":-0.029596290717550957,"86":0.11087841703310652,"87":-0.1086176024722111,"88":0.12967599007670147,"89":-0.1961259921325245,"90":-0.08904077809566022,"91":-0.051850183238185604,"92":-0.2736580364148264,"93":-0.04283843736308682,"94":-0.39324834406060744,"95":0.031073923347087643,"96":-0.0016776644970651565,"97":-0.2559650633610166,"98":0.014309977791300704,"99":-0.41372125551020994,"100":0.21919311464780342,"101":-0.3003810509916247,"102":-0.10688007401524331,"103":0.12842338774313056,"104":0.13908887552441135,"105":-0.20130174904236325,"106":-0.005006754000938915,"107":-0.2017581136469985,"108":-0.17936260263050724,"109":0.39043800725285877,"110":0.10389951139428817,"111":0.10360815855301606,"112":0.2350947585717984,"113":-0.3876039893985593,"114":0.19992233758972086,"115":-0.17266703834366148,"116":-0.19700685825859987,"117":0.1227781238150265,"118":0.004267967127022131,"119":0.1723434249135018,"120":0.11786341766195153,"121":-0.11861942432317583,"122":0.003241260060919112,"123":-0.017745244920452034,"124":-0.014341868697554494,"125":0.003843090207351074,"126":0.09383975481537797,"127":0.015047114741566513,"128":0.04850230856428681,"129":0.07090405282555973,"130":-0.0883321182210312,"131":-0.1463054222131506,"132":-0.11063789506909612,"133":-0.21223683149246006,"134":0.12693329153191935,"135":-0.05268769885241915,"136":0.1358836899021858,"137":-0.22022614720646325,"138":0.018926472708893475,"139":-0.31331826931478907,"140":0.16238352479852503,"141":-0.28138858523659643,"142":0.029524117150323857,"143":0.19614907606582668,"144":0.20772838353189715,"145":0.11659808465211624,"146":-0.20853338324144938,"147":-0.5954188314387446,"148":-0.016276822273624435,"149":0.28882813044564626,"150":0.11705074094407188,"151":0.13470745441720297,"152":0.24250003212766716,"153":-0.3613687226670689,"154":0.051459298247453676,"155":0.038406400458198396,"156":-0.29214299612700606,"157":-0.17007143196176586,"158":0.19963718795207383,"159":0.06563155210458378,"160":-0.004436883894434187,"161":-0.21607562788653645,"162":-0.14442796697235244,"163":0.00201527981125282,"164":0.008471939087594431,"165":-0.16202598485571662,"166":-0.07583766819757379,"167":-0.1497184109336535,"168":-0.24377233543947846,"169":0.21127268624969434,"170":-0.1555178640669782,"171":-0.13126775231427226,"172":-0.03613094995115279,"173":-0.2154558060975348,"174":-0.007154958555344086,"175":-0.10922929178547597,"176":0.4736082643893572,"177":-0.3724680108169768,"178":-0.6745157426140936,"179":-0.8930920980417519,"180":0.1567413219584066,"181":0.14305496565537312,"182":0.11477790430388399,"183":0.09191009514929113,"184":-0.08735410118380156,"185":-0.7167456964605313,"186":-0.10755052450952346,"187":-0.3275371424776679,"188":0.12949289479664272,"189":0.285674548533156,"190":-0.31934483666147945,"191":0.2308459802865229,"192":-0.3583078836258317,"193":0.2854700283737192,"194":-0.1395910633420591,"195":-0.0357566712331984,"196":-0.8546966629405356,"197":0.16795431139694866,"198":0.1533236757857914,"199":-0.16517209384917358}},{"sx":5,"sy":5,"depth":8,"w":{"0":-0.07720694671999191,"1":-0.07047975125844247,"2":-0.8094934201258162,"3":-0.3850055667571363,"4":-0.4156244906006931,"5":0.2911492038448075,"6":-0.5310272165741509,"7":-0.009798476430041062,"8":0.1739964855742199,"9":-0.465462644773617,"10":-0.5707319951928083,"11":-0.5601850093003408,"12":-0.476972957441374,"13":0.30281026403569794,"14":0.20333538417258037,"15":0.3788377666369164,"16":-0.012069455546980896,"17":0.053152655505658376,"18":-0.9205378364952582,"19":-0.2832171628823579,"20":-0.3128423239230654,"21":0.12662474245532107,"22":0.13933253892403916,"23":0.10439873558526001,"24":0.18003464902368352,"25":0.04616967581120756,"26":-1.0420338481379967,"27":-0.6623482044525658,"28":0.2102555583794445,"29":0.1694434969199698,"30":0.7988224754447645,"31":-0.09515225850720914,"32":0.0701566503431631,"33":0.5483532858311054,"34":-1.7636244200313815,"35":-0.7815004811182801,"36":0.649020711202608,"37":0.32598357981878623,"38":0.41815234340176277,"39":-0.5841140383047346,"40":0.5947883954556664,"41":-0.5322721297954952,"42":-0.5898808707673492,"43":-0.6185685798611591,"44":-0.6046558211141707,"45":-0.16317693164606162,"46":-0.019055942020256574,"47":0.18143547326018308,"48":0.27200943972910846,"49":-0.4076625973122329,"50":-0.6642762246871746,"51":-0.08998330962197627,"52":-0.12260245738665644,"53":0.022564935655734916,"54":0.5281443462811346,"55":0.2053741835764322,"56":-0.058197488683982536,"57":-0.07705163245753091,"58":-0.4521204614547654,"59":-0.20922282063375536,"60":-0.14120460732641038,"61":0.24831737456319228,"62":0.4652855420556693,"63":0.11768419415512577,"64":0.19179796998808452,"65":-0.3710698821770613,"66":-0.7246403697257952,"67":0.41352173691846605,"68":0.47572918355903904,"69":0.1498364762362136,"70":0.34425434558675894,"71":0.05269773355330546,"72":-0.3871234670055089,"73":-0.6312125679209997,"74":-1.2685662481053885,"75":-0.1123506264144008,"76":0.7537565865701567,"77":0.10639937691383056,"78":0.32935526608615256,"79":-0.6235461144778899,"80":0.42272291220822283,"81":-0.5728468378258186,"82":-0.5082401124210734,"83":-0.556650053437225,"84":-0.29023373259980023,"85":0.04319788418833672,"86":-0.3884574498384332,"87":0.17065501797337132,"88":0.4259597630868884,"89":-0.3183005653300935,"90":-0.2789072492122995,"91":0.006501872775348345,"92":-0.2993784650819012,"93":0.10615609607347651,"94":0.36691615629661334,"95":0.17105924197381137,"96":-0.1254191935040535,"97":0.43720665601956055,"98":-0.4751303992783779,"99":-0.04198451429659325,"100":-0.14048424073928517,"101":0.22965460905537946,"102":0.3916626685565654,"103":-0.04484054359810707,"104":0.17142056088713437,"105":-0.11087777077501898,"106":-0.6470274618610674,"107":-0.0033777849934535295,"108":0.4522572755596995,"109":0.18484675625621413,"110":0.5436585336664439,"111":-0.1997474278609657,"112":-0.055151104284964475,"113":-0.3960445825085741,"114":-1.0631971448089648,"115":0.00932316119803954,"116":1.03489072582271,"117":-0.11760560487284775,"118":0.1934109534729007,"119":-0.7863505138300756,"120":0.4567480074236518,"121":-0.455414681965028,"122":0.04032936176344891,"123":-0.389457873311175,"124":0.09866267090509982,"125":-0.014239453257800959,"126":-0.2970179852459588,"127":0.3875964855450419,"128":0.5496322983785348,"129":-0.3376034122213258,"130":0.15236127762074042,"131":-0.20782499075925082,"132":0.13832889538928636,"133":0.15506223037316672,"134":0.16642637393756762,"135":0.4029315335574621,"136":0.2101635422223273,"137":-0.13174910771542897,"138":-0.12382265864881963,"139":-0.3951841315534017,"140":0.39450675777525984,"141":-0.0890522449387236,"142":0.3449785908222319,"143":0.2131723291453584,"144":0.5521573028085954,"145":-0.40083348766861726,"146":0.19870800852641765,"147":-0.37442119031013305,"148":0.6031732896931714,"149":0.37000141194537167,"150":0.4939581896280332,"151":0.11918733935976579,"152":-0.04794558027346148,"153":-0.20191789511786554,"154":-0.6800981686125303,"155":0.1445594400626635,"156":0.6689035242973069,"157":-0.042445851343232276,"158":0.3341965982338873,"159":-0.4409423543007551,"160":0.3350710637251095,"161":-0.11775851056937309,"162":-0.2012000638950206,"163":-0.06957048516446435,"164":-0.22141983129705517,"165":0.21825274730136038,"166":-0.29728697971181417,"167":0.35352267031384327,"168":0.45948654499879926,"169":-0.38661505772416604,"170":0.3832791968735271,"171":-0.05610968157027196,"172":0.187289740794886,"173":0.3870305922594687,"174":-0.22191739404593858,"175":0.41508119014226147,"176":0.26243510950697874,"177":0.04511982920670226,"178":-0.05825893697946639,"179":-0.47897751816623657,"180":0.4339799117749684,"181":0.4309911387075153,"182":0.27425377406715523,"183":0.08522973399096657,"184":0.2812212903221767,"185":0.20411516401303087,"186":-0.09889239800844365,"187":-0.9394157437610774,"188":0.6013870343680151,"189":0.10158491548284726,"190":0.410182755383181,"191":-0.09578345896740102,"192":-0.03600710764589287,"193":0.4418136869927095,"194":-0.7485602342617316,"195":0.02322325128127706,"196":0.5021529896537421,"197":-0.0001814594964122688,"198":0.2523823953136267,"199":-0.6773574734882509}},{"sx":5,"sy":5,"depth":8,"w":{"0":-0.5052645402965684,"1":-0.3269361064553596,"2":0.24491570758278733,"3":0.08305682033649407,"4":-0.4242456242484395,"5":-0.0019080035889523913,"6":-0.4330689383064959,"7":-0.1887951460622042,"8":0.312666059652657,"9":-0.1913567627842972,"10":-0.06717699591200006,"11":-0.21407396981311846,"12":-0.4503138831420971,"13":0.19772015314043895,"14":0.4643363007973991,"15":0.3846360230897587,"16":0.1434110006712738,"17":-0.16874717261529323,"18":-0.014661906765476953,"19":0.18672317871257194,"20":0.68290491140687,"21":-0.08225788709408084,"22":0.3474359670120147,"23":-0.03064598193862609,"24":-0.5094048391328647,"25":-0.11571176244077407,"26":-0.18093078138437524,"27":-0.07850684083277787,"28":0.3072078962647528,"29":0.10753791417935818,"30":-0.4881020250163011,"31":-0.37898267539999053,"32":0.6999487447811857,"33":0.15512850844799406,"34":-0.42704562750155695,"35":-0.3912522696440089,"36":-0.5594255077463935,"37":0.26905756775998413,"38":-0.08380096147880911,"39":0.22234427605235324,"40":-0.52534041426163,"41":-0.5413242762991399,"42":0.3162693020054142,"43":-0.2115258250600884,"44":0.589498368803629,"45":-0.1254950449966927,"46":-0.6927002060001536,"47":-0.16156635246662857,"48":-0.3032065425318609,"49":-0.05176215027161371,"50":-0.17687444197857108,"51":-0.6135426114412363,"52":-1.0864888889418685,"53":0.12026270347764391,"54":-0.24970912438283438,"55":0.16801323812990965,"56":0.5591031732559504,"57":0.24109690531917166,"58":0.19424886022533946,"59":-0.23176522158409799,"60":0.0799359588562778,"61":-0.2917733079341376,"62":0.773264345853413,"63":0.02895416638980438,"64":0.1369166150838512,"65":-0.36229726633456305,"66":-0.1747108507642373,"67":0.2291183094149758,"68":0.8764344136084976,"69":0.15554662332341243,"70":-0.2568295890034568,"71":-0.3296153371672248,"72":-0.31684355535359227,"73":-0.5844294948467571,"74":-0.06432981894242766,"75":-0.5156564017933504,"76":-0.4602749839238791,"77":0.1336847300331075,"78":-0.5484459406399799,"79":0.1186901573824281,"80":0.06611647479513756,"81":-0.17822869245122078,"82":-0.03523526749907399,"83":-0.49754881072911955,"84":0.6813600825888869,"85":-0.13517006627136147,"86":-0.026195816850310638,"87":-0.076377511879132,"88":-0.3434815780622347,"89":-0.38190029542419723,"90":-0.29280975880270566,"91":-0.29682933867725525,"92":-0.5661810214884299,"93":0.03805558526232665,"94":-0.5275271940158477,"95":0.07602439519002217,"96":-0.1553706633796876,"97":0.29366189884485516,"98":0.16576644391660786,"99":0.20353172715898993,"100":-0.27561741926876315,"101":-0.054172584070806,"102":0.0738273100451636,"103":0.16554460234560145,"104":0.2101819453400322,"105":-0.08390424896497929,"106":0.15107096053756247,"107":-0.6060459664739357,"108":0.4282745353898847,"109":0.031834418659364566,"110":-0.06133257749967947,"111":-0.2096422478492141,"112":-0.3821322723049765,"113":-1.1753017043459233,"114":-0.06766060728609323,"115":-0.15129427508195872,"116":0.11802352364000153,"117":0.30705742502353,"118":0.09991207490452857,"119":-0.14047165688575602,"120":0.44629602109824956,"121":-0.3457608587676461,"122":-0.09428209328930594,"123":-0.6810832327980471,"124":0.4139857517535375,"125":-0.1120040774638432,"126":0.47078548591754193,"127":0.10327720773451257,"128":-0.17455352580241343,"129":-0.08925367226250898,"130":0.15582028763944697,"131":-0.2589921756377239,"132":0.30786884243118867,"133":0.21422442058537572,"134":-0.2182015899694824,"135":-0.015294512175066667,"136":0.022464354252416302,"137":-0.3738523428565753,"138":0.3449805803102303,"139":-0.17724761462394456,"140":-0.24880570012508674,"141":-0.3047363388626961,"142":-0.6012203550375977,"143":0.22570278500761276,"144":0.2652812167598053,"145":0.5228851325882573,"146":0.4362057958394633,"147":-0.4501031362168751,"148":0.40198899495786533,"149":-0.5241820664456155,"150":0.32703273551051487,"151":0.0017513132180790607,"152":0.06409578195850636,"153":0.1292936490541203,"154":0.5372610472777597,"155":-0.6326207335134945,"156":0.6048965033756192,"157":0.6340728555402365,"158":-0.3902308711656696,"159":0.21122878462226752,"160":0.5410114122776212,"161":0.27949816871363414,"162":0.06638122997815127,"163":-0.16140623583134983,"164":0.15748935581609136,"165":-0.42459399620182625,"166":0.8466938701551969,"167":0.09190813100020027,"168":0.38773721938567657,"169":-0.01563529069133069,"170":0.13047279094463374,"171":-0.3040515223160517,"172":0.8764217601680343,"173":0.3558582182923357,"174":-0.06982322565624463,"175":0.3495443973022832,"176":-0.5727637455059431,"177":-0.25142544783896753,"178":0.1928415087109781,"179":0.21221291358661662,"180":0.028706711038776055,"181":0.22632872800891504,"182":-0.7182782589654868,"183":0.1698644393726878,"184":-0.25126897002204807,"185":-0.026420681849798674,"186":0.7560134878915336,"187":-0.23681212070744836,"188":-0.06685209861702292,"189":-0.7381411343050381,"190":0.45471802327460886,"191":-0.1862261182133869,"192":0.474419435413374,"193":0.5568909212859255,"194":0.0718878905278176,"195":-0.7657055470287109,"196":0.8243298818963495,"197":0.048742022337749116,"198":0.13161766598841054,"199":0.2090692091385634}},{"sx":5,"sy":5,"depth":8,"w":{"0":-0.08032813941999217,"1":-0.5599077173690696,"2":0.4213697466270723,"3":-0.21466182205088646,"4":0.9049975648772389,"5":-0.007769223728712243,"6":0.15538602214766384,"7":-0.012084165321174532,"8":-0.8712801314305257,"9":-0.3369064704982338,"10":-0.3846708356882968,"11":-0.04690699387566907,"12":-0.08481524853590806,"13":0.0898631204932486,"14":-0.09230007941376747,"15":-0.3055467133521818,"16":-0.029051400986346967,"17":-0.1898328780179854,"18":-0.48834478187885333,"19":-0.3075807970116507,"20":-0.2360401993196988,"21":-0.03757968278247714,"22":0.17763082597681656,"23":0.10712174311887204,"24":-0.3023555708267857,"25":-0.5464093958254943,"26":-0.16307179233288216,"27":-0.13858687280293752,"28":0.4383613700730037,"29":0.16742027148178573,"30":0.1327150048024925,"31":0.16066362044171956,"32":-0.4232401500423854,"33":-0.6573942737293664,"34":-0.07673889676036574,"35":-0.19791821236480414,"36":0.5832882161654066,"37":0.592183582425539,"38":-0.18770336602371931,"39":0.2771786713739146,"40":0.23356937732597513,"41":0.17210660333511038,"42":0.09694265404151979,"43":-0.19873722865944157,"44":0.7972284571986539,"45":-0.16606791004535998,"46":0.29558911931351706,"47":-0.08504500789000333,"48":-0.609834423944581,"49":0.026543555063475725,"50":-0.5347703316291251,"51":-0.11108716223532948,"52":-0.43276065755572823,"53":0.1820506427182174,"54":-0.06584899143255182,"55":0.10517611722193822,"56":0.03070429396636947,"57":-0.2722210070879845,"58":-0.0920774338025595,"59":0.14098057857265092,"60":-0.404748151096365,"61":0.39178826184908255,"62":0.1404765108557885,"63":0.21845930767638264,"64":0.10204524743935935,"65":-0.4719673638974546,"66":-0.596115319177313,"67":0.2840288662270652,"68":0.22364147682708693,"69":0.0369109724202688,"70":0.1451771229154549,"71":0.0034851118167015527,"72":0.13887795395604446,"73":-0.5228907558700756,"74":-0.4378835274926073,"75":-0.4586867528937056,"76":0.19157691471187338,"77":0.02894485044148277,"78":0.3415452893340545,"79":0.0056450551145604405,"80":-0.17236833597884038,"81":0.4586799847186419,"82":-0.20653330974699308,"83":-0.15383105980873232,"84":0.27426062355061526,"85":-0.04163628020994261,"86":0.03567011939226496,"87":-0.050192989942372104,"88":-0.36327517514157603,"89":0.10309260330257683,"90":0.1581712754658106,"91":-0.1612979781691236,"92":-0.18283774595802357,"93":0.3561939021069682,"94":-0.06866821952797308,"95":-0.236085216724059,"96":-0.016350541696462436,"97":-0.21195652532704315,"98":0.11480224617165612,"99":-0.21455438980114816,"100":-0.3155691348174687,"101":0.26842256912031365,"102":0.01500241916702076,"103":0.26099156301741416,"104":-0.11605087098413423,"105":0.2145750251108767,"106":-0.3174855707477423,"107":-0.0011062964910142832,"108":-0.29518067504050766,"109":0.09798366450672055,"110":0.3411108658707211,"111":0.28133783688455183,"112":0.2045759111510854,"113":-0.16261145507141966,"114":-0.0689609584934125,"115":-0.11312264324531046,"116":0.20155063364631742,"117":-0.3097048852161122,"118":0.43745601068949386,"119":0.3353270306143072,"120":0.11901844016143862,"121":0.2803440334394718,"122":-0.10935079650427654,"123":-0.23148559629820012,"124":0.11561182366098896,"125":-0.09010673387464455,"126":-0.3560037539194571,"127":0.22997473256368364,"128":0.28005448544995964,"129":-0.05796929446767193,"130":0.46441988817658686,"131":-0.046767539256179984,"132":-0.019306276564660524,"133":-0.03708005125145887,"134":-0.20322747497736943,"135":-0.01165293408423544,"136":0.03221635160704197,"137":-0.2786726938803111,"138":0.09098662606012645,"139":-0.2758416222216092,"140":-0.557568650249026,"141":0.01965518045161918,"142":-0.03046626968212988,"143":-0.23949763873211544,"144":-0.12299485472724278,"145":0.11399533967748574,"146":0.28442107661918115,"147":0.025310851951869374,"148":0.039486273290642596,"149":-0.44443196397889206,"150":-0.18191401376030406,"151":-0.22321017597253698,"152":0.000004332509238035378,"153":0.37144703076002256,"154":0.2503579308029942,"155":-0.28681892898312017,"156":0.14277632160988343,"157":-0.07288224294809977,"158":0.07858007710941182,"159":0.10217087011519634,"160":0.2721219980514877,"161":0.24530462318303137,"162":-0.36120503319399816,"163":0.04622665419713526,"164":0.15392389615652727,"165":-0.5377692861561525,"166":0.28031413978866326,"167":0.07263663694672758,"168":0.12280699620233237,"169":-0.001015532508119318,"170":0.4490053752001296,"171":-0.2009709990285147,"172":0.7525999691867973,"173":-0.3288747702356261,"174":0.017021132627600823,"175":0.011179467043511195,"176":-0.19146381976593857,"177":-0.02284066546537481,"178":0.2574680135899465,"179":-0.3144955652251244,"180":0.00688794967872594,"181":-0.3229938875839963,"182":-0.1456432909097581,"183":-0.3907047844070591,"184":-0.24976325050380735,"185":-0.031460620637806504,"186":0.31366340322411584,"187":-0.09168415814483907,"188":-0.3183972647449884,"189":-0.08627551943944438,"190":-0.07879064242459805,"191":-0.39879269987865484,"192":0.1863164530421395,"193":0.6162439708825251,"194":0.028948777242686755,"195":0.0022186283550549323,"196":-0.38036315219874967,"197":0.2806687412016429,"198":0.23832497442358774,"199":-0.2892389433034634}},{"sx":5,"sy":5,"depth":8,"w":{"0":0.47352824896692974,"1":0.06192090614576087,"2":-0.13852576745487685,"3":-0.5027651462203012,"4":0.13558827487598357,"5":-0.16431679789609616,"6":-0.06552095047268776,"7":0.3315047576524952,"8":0.29237590579264977,"9":-0.03970484018020164,"10":-0.0579335512449106,"11":-0.6097704556364661,"12":-0.037221279355020884,"13":0.19940148739655666,"14":-0.034752459384998546,"15":0.08229597977811832,"16":0.3930712193789028,"17":0.446219496578142,"18":-0.12509826605742808,"19":-0.29737526912970963,"20":-0.06748061249669017,"21":0.47054768182676504,"22":0.4390571167294411,"23":0.19141294131263964,"24":0.3243396958729091,"25":-0.34113734404970203,"26":-0.2367176044905969,"27":-0.4947589932115694,"28":0.39797459790865397,"29":0.2467408003947881,"30":0.16387438717764266,"31":0.2437968735629885,"32":0.3848267968294898,"33":-0.3642977635866864,"34":0.3774595489709277,"35":-0.4224063337520905,"36":-0.05072960133775771,"37":0.17478495991036377,"38":-0.12538703932073245,"39":0.3548626640755528,"40":0.3676289455035046,"41":-0.011690271241561544,"42":-0.2365846146755676,"43":-0.595981608079326,"44":0.05494911597421714,"45":-0.13633846112440703,"46":-0.4752456901057393,"47":-0.038479622142131555,"48":0.11607305728177432,"49":0.0009400203712965887,"50":-0.11390776078324648,"51":-0.4722132147108872,"52":-0.15241549574941013,"53":0.0768570772089493,"54":-0.048348793946355745,"55":0.09213865525375275,"56":0.09034267499749585,"57":0.20354686067946204,"58":-0.44980163666397505,"59":-0.3992049962140942,"60":0.20348227230062774,"61":0.533289293573678,"62":0.39931578646953636,"63":0.3279232787277056,"64":0.2590139019898445,"65":-0.40613667731925795,"66":-0.4544895761681419,"67":-0.20255493946105027,"68":0.3509247594329394,"69":0.07127292734308496,"70":0.12589004534974413,"71":0.4028029909155422,"72":0.4646319500966532,"73":-0.5285368324471675,"74":0.02249466165973995,"75":-0.5396672989847279,"76":0.20585880772016776,"77":0.3207316273365945,"78":-0.1471028841527719,"79":0.13800738935066267,"80":0.039833270373871174,"81":0.029766331403716026,"82":-0.438064043607549,"83":-0.3841736684370833,"84":-0.005740856226374568,"85":-0.02019409842036843,"86":-0.49476571757958077,"87":-0.10879398831057124,"88":-0.026942603235112328,"89":0.044863496952165974,"90":-0.6415405098840808,"91":-0.30034121397636854,"92":-0.5096989225532772,"93":0.7659251429446486,"94":0.2625046964858854,"95":0.3143380387507429,"96":-0.060395922638252324,"97":-0.03026812461222278,"98":-0.39030591004094173,"99":-0.0035131483716116813,"100":-0.044012929258304474,"101":0.7334107096058387,"102":0.03526008376427879,"103":0.09138703651923341,"104":-0.23208747274347474,"105":-0.6972359926281846,"106":-0.41154842610706227,"107":0.166462947651044,"108":0.4836238022527781,"109":0.501917618867609,"110":0.17674055657235588,"111":0.21340869525713665,"112":0.34859552172871733,"113":-0.6783292264438727,"114":0.06291759831032288,"115":-0.1581217659723978,"116":-0.22015322242482563,"117":0.4710158691468425,"118":-0.18361831673527984,"119":0.15695448045902652,"120":-0.06601946400664584,"121":0.17400311817038747,"122":-0.7436523083363653,"123":-0.04411590100811064,"124":-0.42430879476808386,"125":0.6244761205582642,"126":-0.2876912277349447,"127":0.28308439030117,"128":0.17124399472808868,"129":0.04594171635539742,"130":-0.5087773393596126,"131":-0.5686344352190795,"132":-0.4757228701943643,"133":0.5848952720160353,"134":0.424635696957712,"135":0.07724281659452928,"136":0.022088086879281557,"137":-0.39818113617537554,"138":-0.7246564233729806,"139":-0.2341322725389675,"140":-0.10530218287841725,"141":0.1282533998561356,"142":-0.11698248763209698,"143":0.23405732322219264,"144":-0.12331115385383,"145":-0.6999448568783452,"146":-0.18503171891297948,"147":-0.09870790085266751,"148":-0.11451077399160074,"149":0.5284281079171352,"150":0.004024355060676451,"151":0.10961952033631749,"152":0.3119643837308647,"153":-0.2644061361735751,"154":-0.17711525519113658,"155":-0.4214523260420714,"156":-0.4910756049865208,"157":-0.015373812143672802,"158":-0.06318511379225575,"159":0.23032278880706528,"160":0.07981798839265222,"161":0.17179333501346183,"162":-0.46506106605684466,"163":-0.32293152164964317,"164":-0.36031364562069146,"165":0.30801646351004286,"166":0.08174018313866431,"167":0.29298310419524976,"168":0.0391705652106512,"169":-0.14542833771137653,"170":-0.6032590401529258,"171":-0.1309104688350376,"172":-0.13860814842936092,"173":-0.41591717755810687,"174":-0.13460807990994197,"175":-0.13287480831978796,"176":0.2001381886004875,"177":-0.0260782667653005,"178":-0.6400183051951714,"179":0.04123750998431207,"180":-0.07069924949322101,"181":0.8042240989452242,"182":-0.3335897873002758,"183":0.2651069153656345,"184":0.007675690893009003,"185":-0.6348533804855828,"186":-0.3893740312985719,"187":-0.446635747933573,"188":-0.3500202406266775,"189":0.5075223009137443,"190":0.1006934918038779,"191":0.6492515600630264,"192":0.28554866941178314,"193":-0.24982703186648228,"194":-0.13694229387090498,"195":-0.3400728040247505,"196":-0.21314955661400417,"197":0.25729290276763994,"198":-0.31568440538923614,"199":0.3977192388164518}},{"sx":5,"sy":5,"depth":8,"w":{"0":-0.2543505063820804,"1":-0.3045433642768637,"2":0.3822708436857963,"3":-0.2976473885069455,"4":0.05268550976534501,"5":0.2480400130480542,"6":-0.22136574742055798,"7":-0.36424684828034387,"8":-0.08626853338411472,"9":0.29633455681290616,"10":-0.012854599199704783,"11":-0.5254604193433086,"12":-0.006861345557041255,"13":0.12293980521825013,"14":-0.03582057531933869,"15":0.11450854755964471,"16":0.2620349100972266,"17":-0.3582819718590573,"18":0.18229000193263778,"19":-0.15523309548332384,"20":0.3031142376269363,"21":0.42576125497538164,"22":0.0017549539899705143,"23":0.37202231113499634,"24":0.04080191725618368,"25":-0.45208875318863545,"26":0.41009924992185914,"27":-0.45083428393909925,"28":0.3176383325315379,"29":0.574090465529986,"30":-0.035834947216894425,"31":-0.025574285378652476,"32":-0.3785061243257736,"33":-0.278091207468238,"34":0.2790669017741651,"35":-0.03949297702414577,"36":-0.5034271285043082,"37":0.5240923445819666,"38":0.310562930714537,"39":0.18911680531644035,"40":-0.1491667197059567,"41":-0.14066724403193082,"42":0.4993832085135073,"43":-0.163593358656189,"44":0.09646452433088525,"45":0.2587743952809059,"46":-0.26656539044816663,"47":0.15236002338129478,"48":0.15949859122056656,"49":0.07878802148238406,"50":0.2012859099558566,"51":-0.1904422399609718,"52":0.10346488393182689,"53":0.061652942137296676,"54":0.20956367708309723,"55":0.16105799941534008,"56":0.2369573067802585,"57":0.042381324246430055,"58":0.19210719147004932,"59":-0.6470659103475592,"60":0.4822107049766784,"61":0.04774657445126679,"62":0.40614252372614246,"63":0.19275596007574736,"64":0.2848731367721936,"65":-0.05733616454466644,"66":0.12830240411038002,"67":-0.09765667988862861,"68":0.11795340745018898,"69":0.2536267215092909,"70":-0.09134729282673922,"71":0.17016422815730697,"72":0.0776936842937448,"73":-0.12455498351136882,"74":0.15277853332466604,"75":-0.3007208432305246,"76":-0.41474822582787146,"77":0.7265574714407547,"78":-0.00716925266368998,"79":0.8315212086446979,"80":0.07641143485122326,"81":-0.03819769899977511,"82":0.2562023074638782,"83":-0.31839485763926173,"84":0.23633939836054485,"85":-0.14483320624642404,"86":0.21704305132040358,"87":0.00007057623672708264,"88":-0.07784487082385737,"89":-0.16804092456144168,"90":-0.019367183051691796,"91":-0.1545442739097152,"92":0.36223794382205327,"93":0.08543171050656513,"94":0.34299844597042134,"95":-0.027312246738595707,"96":-0.2128074899555124,"97":-0.6092447833637398,"98":-0.29063906489530894,"99":-0.2027293830964726,"100":0.19746379641103726,"101":0.04318861472966607,"102":-0.015392516371126359,"103":-0.23436789864124355,"104":0.19690300539426078,"105":-0.8124101322400074,"106":-0.430204888813211,"107":-0.3974503792420421,"108":0.2503654312071927,"109":0.010788336050981812,"110":0.038113625607293325,"111":-0.2576756274134256,"112":0.42294122960740294,"113":-0.1517943384519973,"114":-0.19107979933763983,"115":-1.0194243444571296,"116":0.23658533026289663,"117":0.0614333661555113,"118":-0.05638873553744249,"119":0.13050504994074816,"120":0.22084915732813584,"121":-0.05988112040330819,"122":0.39960442801389534,"123":-0.2569850926324727,"124":0.28342824747865875,"125":-0.25622565876017794,"126":0.2737991327914101,"127":0.1582236583477946,"128":0.0900371236634515,"129":-0.0003260225383075713,"130":-0.24389144225740617,"131":-0.3521485385498627,"132":0.35818071661873274,"133":0.017179648945336495,"134":0.18780612349727716,"135":0.049703359617782016,"136":0.10231933804920604,"137":-0.38538521490780864,"138":-0.362948388005783,"139":-0.06546124863919929,"140":0.42746505157551495,"141":0.03413294442059172,"142":0.3233193351217387,"143":0.1862693086703253,"144":0.39564262104715525,"145":-1.3600146228395922,"146":-0.20429351384610753,"147":-0.29706077606141856,"148":0.47810324607572996,"149":0.08171144555495248,"150":-0.10115567729535871,"151":-0.23001067310019932,"152":0.6501815627132658,"153":-0.864722121155977,"154":-0.05433281488198257,"155":-0.8624650028090992,"156":0.13101768564857622,"157":-0.46191724061152206,"158":0.1516457703748164,"159":0.07449697540952292,"160":0.035221825304428966,"161":-0.09381269912995553,"162":0.04834729248341952,"163":-0.07300833505293024,"164":0.37971785637932454,"165":0.10985562929903145,"166":0.1618083653096121,"167":0.12877033427341758,"168":0.13335954491650354,"169":0.035199189104078425,"170":0.05966505953503826,"171":-0.02411261242169399,"172":0.36471381438896777,"173":-0.18841026112513862,"174":-0.1428495497067414,"175":0.3679258319087603,"176":0.024961446021839053,"177":-0.09979276904209122,"178":0.1338155318712454,"179":-0.06675566432093685,"180":0.5805999065707766,"181":-0.2337130808882883,"182":0.39020403020497346,"183":0.1500238416083112,"184":0.12576747467949198,"185":-0.9035833622722206,"186":0.11234073419428477,"187":-0.7984026639086407,"188":0.8172224860799354,"189":-0.005511370859674994,"190":0.27768140268054403,"191":-0.28986993211083945,"192":0.27982983832308417,"193":-0.7242368303994877,"194":0.05661066086411991,"195":-0.8092881220112568,"196":0.6897053875258271,"197":-0.25987095039804486,"198":-0.11117427042732352,"199":-0.2960270540736787}},{"sx":5,"sy":5,"depth":8,"w":{"0":-0.5678409062581639,"1":-0.012260872745647168,"2":-0.2644847053376768,"3":-0.014346891363859823,"4":-0.10033965182318678,"5":0.662833762845959,"6":-0.26856002789181765,"7":-0.022532979841498837,"8":-0.522776670039967,"9":0.25453631014515754,"10":-0.36052291579825246,"11":0.3131479491124796,"12":0.5819017010554365,"13":0.25519124619786826,"14":-0.3598851700967274,"15":-0.2188837385103836,"16":-0.428782241265166,"17":0.08631900334381971,"18":-0.0346866747398948,"19":0.019798674787093358,"20":-0.05062539159811459,"21":0.5484122120290452,"22":-0.32586709698019606,"23":-0.2994672232826946,"24":-0.4968489837100703,"25":-0.572922439078021,"26":-0.12874402256034737,"27":-0.6892240507644362,"28":-0.16266995223857347,"29":0.22541481199211783,"30":-0.15701168477748334,"31":-0.13544420967095946,"32":-0.5701188049187049,"33":-0.4294683418594358,"34":0.3820679598115811,"35":-0.19837645532463288,"36":0.04744790970055502,"37":0.16291265390208678,"38":-0.19400408166591376,"39":-0.11659993250058617,"40":0.3227132737099105,"41":0.4642046313286401,"42":0.20497722989309022,"43":-0.14873455236295582,"44":-0.04598238045531144,"45":-0.11198916084535304,"46":-0.17746351412003958,"47":-0.0824737421368987,"48":0.1736015248427191,"49":0.0468500591453077,"50":-0.08519933858906366,"51":-0.05471013039462394,"52":-0.398041649333297,"53":-0.08113738559976516,"54":0.006652361108007501,"55":-0.0110824468134415,"56":0.18266350699324324,"57":0.10796499587736463,"58":0.3546132500698553,"59":-0.1259159022759399,"60":-0.04979788881745087,"61":0.13057471417102798,"62":0.09086714976233096,"63":-0.04029417514982325,"64":-0.017341133308165634,"65":-0.28122329535731794,"66":0.2212874172060392,"67":0.05261958556761493,"68":-0.45177799396620616,"69":-0.06263408362804035,"70":-0.2445854081642394,"71":-0.3625760226002939,"72":0.21466514899021513,"73":0.03627976458717212,"74":0.30177769338305316,"75":-0.2250779541641964,"76":0.04907477923174324,"77":-0.421566786008464,"78":-0.12012958298337445,"79":-0.06924944756590809,"80":-0.23405516906028037,"81":0.034289173705041504,"82":0.3968411428855342,"83":0.028015287428671803,"84":-0.3587971054091133,"85":-0.1818898793125762,"86":-0.27241142592393053,"87":-0.35304598595804915,"88":-0.23514019610816095,"89":0.3306015493580034,"90":0.2204741583403441,"91":-0.3005321272577447,"92":-0.18404400736967785,"93":-0.14877095379066752,"94":0.04189379883384627,"95":0.005867201133051882,"96":-0.34713258812395337,"97":-0.1028052332351971,"98":0.2315707695140737,"99":-0.5247799916827824,"100":-0.4513200429185809,"101":-0.40447542507694645,"102":0.10512730144247512,"103":-0.0372701340091768,"104":-0.23808406863246206,"105":0.17831041565104563,"106":0.13093680121994367,"107":-0.05826097523167496,"108":-0.3233211600917259,"109":0.11382776624273633,"110":-0.1910286733851229,"111":0.1920115017936589,"112":0.19101884935231273,"113":-0.38600909728801935,"114":0.19268050831998396,"115":-0.6100634016489361,"116":-0.5952354433927561,"117":-0.041354214980684145,"118":-0.34863750401111054,"119":0.35504979044393925,"120":-0.21454159839557393,"121":0.14369084317118486,"122":0.13331287455266416,"123":-0.008451973243132285,"124":0.3333591458654346,"125":0.08502837812408084,"126":-0.005631334040018355,"127":-0.14372632534732832,"128":-0.43161993841610713,"129":-0.0020477693303265895,"130":0.46083111065357,"131":-0.18713123621022285,"132":0.1171773403137121,"133":0.06735652227066673,"134":0.047382132050674264,"135":-0.05246545919047777,"136":-0.5325881837738611,"137":0.33304394053422803,"138":0.15133600297929597,"139":0.20456718955774106,"140":0.34804438800503895,"141":0.23472814979263895,"142":0.23013761229855162,"143":0.007776935490276683,"144":-0.44478857910684827,"145":-0.610927743978679,"146":0.11782106598877008,"147":0.014078698869775919,"148":-0.16029893486472593,"149":0.20205938881636346,"150":-0.06118869075993568,"151":-0.08649258309488851,"152":-0.6010079446427061,"153":-0.72562079711927,"154":0.15754738804758275,"155":-0.059287666733934034,"156":-0.24923982561141936,"157":0.04457238885708349,"158":0.0306391962186795,"159":-0.035532577696024754,"160":0.25569553649901616,"161":0.4113290896621239,"162":-0.28985545678365165,"163":-0.27958608339683083,"164":0.5662353692739983,"165":-0.3776798354505274,"166":0.29701524536568097,"167":-0.33467295469706104,"168":0.08717090865202069,"169":0.5075502107567942,"170":-0.0689343104492799,"171":-0.2070008670884795,"172":0.6393433255856674,"173":-0.11145989420975796,"174":0.23604431740895887,"175":-0.07704366682007983,"176":0.3962864140718573,"177":0.39552631669582694,"178":-0.9770640944587274,"179":0.12374121407401688,"180":0.48006208183037385,"181":0.09648041384705978,"182":0.6402494259569965,"183":0.1456190165022389,"184":0.404709971479502,"185":0.807600599990944,"186":0.009746905099191348,"187":0.42978009256813204,"188":0.796106359027614,"189":0.4092180215229817,"190":0.36175415539167755,"191":0.15273526611533436,"192":0.4629785624988209,"193":0.9569981009476151,"194":-0.36658002574995907,"195":0.4548130719957792,"196":0.04748803135205738,"197":0.22666746603828908,"198":0.11055747647728836,"199":0.1412917011588971}},{"sx":5,"sy":5,"depth":8,"w":{"0":-0.021564218653052664,"1":0.3247707157424513,"2":-0.11425477406122708,"3":0.5390422489111735,"4":0.0511160324300296,"5":0.37601714630148014,"6":-0.41070697585805127,"7":0.4093963704346257,"8":-0.005681816369493463,"9":0.1103889869049141,"10":-0.13971525634341384,"11":0.05263733768299468,"12":0.16165359669570253,"13":0.6694667268067761,"14":-0.01102415236644288,"15":0.3358514010751761,"16":0.004721763798657937,"17":0.07712333496941988,"18":-0.39388742366977597,"19":0.19652902170943698,"20":0.2103221738687061,"21":0.2689707440134662,"22":0.1523829604982225,"23":0.11773638240628412,"24":0.09637612603936621,"25":0.004324543267893794,"26":0.027328414746622117,"27":-0.17094580530160886,"28":-0.13352573432869277,"29":0.02942225004425409,"30":0.3210023543607532,"31":-0.4433888556214181,"32":-0.49171647059357304,"33":0.28308046333430675,"34":0.04061940096233446,"35":0.7133749228034068,"36":-0.2346618469638556,"37":0.05532207581939446,"38":-0.011941453409077672,"39":0.015176892809609136,"40":-0.054593007652928884,"41":0.22572500889901262,"42":0.2642260886581159,"43":0.3748948381146782,"44":0.13610556568128224,"45":0.20537564574733244,"46":-0.5279036909046638,"47":0.4109494934448491,"48":0.18378360859487408,"49":0.08914733780366302,"50":0.29600616846264244,"51":-0.34885680792761203,"52":0.12131047128646637,"53":0.059119437446984974,"54":-0.138912825505619,"55":0.1784659979001653,"56":0.27487322774157713,"57":0.21725973639289756,"58":0.1389183118731932,"59":-0.28140810473599087,"60":-0.1988821205751089,"61":0.0494137467701989,"62":-0.007792645741976598,"63":-0.1306404551158454,"64":0.23088873604943053,"65":0.017559537716452873,"66":0.1041114566630828,"67":-0.13545516310129274,"68":-0.4439768978450706,"69":0.20186284489023404,"70":0.1669838183532415,"71":-0.5566017631020089,"72":-0.08298035305958644,"73":0.11121210743870129,"74":-0.16755983737660074,"75":0.6538325097709904,"76":-0.22226723784845392,"77":-0.15729594392111046,"78":-0.018254345124204718,"79":-0.22218889266370007,"80":-0.2039826393893537,"81":0.24813163307237143,"82":0.14657715069374982,"83":0.20465360613471065,"84":0.10889080524854287,"85":-0.2860343757757161,"86":-0.6822169718758114,"87":0.37307613740749423,"88":-0.08410384363182792,"89":-0.023858438192541232,"90":0.5313509712128449,"91":-0.4640691159911549,"92":-0.02179730099709834,"93":-0.22860302439645674,"94":-0.3370967352851894,"95":0.07349803566014677,"96":-0.08609016499136428,"97":0.07174526077137235,"98":0.14919437417755646,"99":-0.006688111493464277,"100":-0.34032224531197763,"101":-0.16505990560578773,"102":0.018856662948313882,"103":-0.1618681594391934,"104":-0.14503943869947739,"105":-0.032240125701610896,"106":0.19063334336687665,"107":-0.40198296827074,"108":-0.27574769261808874,"109":0.3234341790158111,"110":0.14257837078287347,"111":-0.612000157801657,"112":-0.5724201320860602,"113":-0.4632492030213059,"114":-0.21353875430210675,"115":0.34046329184486707,"116":-0.46239150528630707,"117":-0.3193222916623738,"118":-0.21166555519480088,"119":-0.5224571504584593,"120":0.09009711213700519,"121":0.20391163416731523,"122":-0.23676618272009808,"123":0.22479835161107736,"124":-0.19152772045291527,"125":-0.3448550053700364,"126":-0.67010296772072,"127":0.2619351214920413,"128":-0.2287394210266698,"129":-0.11102443180410466,"130":0.151179912496678,"131":-0.5367711763484886,"132":-0.000963857462201673,"133":-0.07492592100209439,"134":-0.41105186141559436,"135":0.17844471182898408,"136":0.05628326005133188,"137":-0.014664900392261803,"138":0.0008088672919275996,"139":-0.472727485526578,"140":-0.0071302136656544194,"141":0.05464124124020421,"142":0.19369205421928418,"143":0.08394968055908285,"144":0.21978249717888737,"145":-0.358755939836549,"146":0.16538817114877058,"147":-0.22888305283100574,"148":-0.13053044739599168,"149":-0.08622091168926095,"150":0.4081801367441246,"151":-0.3727102198037101,"152":-0.4710527889243828,"153":-0.1300667986320705,"154":-0.3007407867106313,"155":0.2612413940893267,"156":-0.048036884213908115,"157":-0.019463810665591923,"158":0.20421577032443755,"159":-0.3444331054619886,"160":0.08860256753738344,"161":0.10383293813854752,"162":-0.17904416361745565,"163":0.4490044523414246,"164":-0.13271619757696523,"165":0.021616033436158668,"166":-0.8384954199293829,"167":0.3901212556707814,"168":-0.06948012199342643,"169":-0.01502327275195344,"170":0.12282456868467964,"171":-0.5992708779968405,"172":0.13622050006054506,"173":0.1803035235603305,"174":-0.3262921748743508,"175":0.31625464208893467,"176":-0.21413418199452072,"177":0.43288004412095715,"178":0.048435987704630305,"179":-0.43983082477385027,"180":0.000024898150694560296,"181":0.2720536991276612,"182":0.3709672605052313,"183":0.07468081261155153,"184":0.11732801357177801,"185":0.12283539300039832,"186":0.45479311532430067,"187":-0.22697966848013554,"188":-0.16020584964381343,"189":0.021437206592544444,"190":0.25747720632369936,"191":-0.6493928188879974,"192":-0.3960049801901274,"193":0.5138811639814848,"194":-0.024136964245133848,"195":0.6016625672220646,"196":0.09487921901574958,"197":-0.4015513301751848,"198":-0.3720394313973471,"199":-0.671529838109831}},{"sx":5,"sy":5,"depth":8,"w":{"0":-0.43367163762442773,"1":-0.258439357496277,"2":-0.527100995987309,"3":-0.44455318757489287,"4":-0.2477196859822797,"5":0.18260984238061626,"6":-0.2195135415724951,"7":-0.15086682037179552,"8":-0.5879200223013181,"9":-0.33019200829303996,"10":-0.6057287719954257,"11":-0.14679619436396793,"12":-0.5307656162641808,"13":-0.15781624186360094,"14":-0.35400817518438904,"15":-0.2047036310790424,"16":-0.26788913909981726,"17":-0.5633267769236973,"18":-0.35479084150494755,"19":-0.7270301285662031,"20":-0.14563269227454387,"21":0.3355431003557402,"22":-0.2166089389545846,"23":0.02224411758875409,"24":0.37639566913259526,"25":-0.036331750611455556,"26":-0.5238904503655132,"27":-0.2522774854159267,"28":0.5277980082662014,"29":0.05638442407687922,"30":0.2023697591370387,"31":0.8316540560923804,"32":0.9761163427480402,"33":-0.21777393946547677,"34":-0.1348952698893263,"35":-1.3010862917182122,"36":-0.024639091663059328,"37":-0.15626164082366858,"38":0.49634182904051666,"39":0.6366895694797186,"40":-0.046377087161775514,"41":-0.2788676803516661,"42":-0.35252433343721795,"43":-0.1658021088183382,"44":-0.168371108595851,"45":0.0736431950910594,"46":-0.522250530571574,"47":0.0763098690830473,"48":-0.054108064604493834,"49":-0.28871740799436496,"50":-0.02846179180353868,"51":-0.6936635593584953,"52":-0.576612864163844,"53":-0.07192017748353605,"54":0.1368371630632951,"55":0.19891419038997804,"56":0.030246298571876586,"57":-0.5693685953680542,"58":0.15554794454976054,"59":-0.8066450700053951,"60":-0.18264386450068693,"61":-0.021629845046345266,"62":0.14789075202585103,"63":0.370742816068839,"64":0.1720569434845344,"65":-0.2935276942485563,"66":0.04483021189698436,"67":-1.402398040776024,"68":-0.20713677023930624,"69":-0.19344823556721832,"70":0.12495127406815527,"71":0.6015480202215132,"72":0.29369659196839965,"73":0.30053759533363955,"74":-0.15569388732803227,"75":-1.175812065697843,"76":-0.4695393929959852,"77":-0.3270857694388637,"78":0.18913072891750532,"79":0.07654882917255333,"80":0.1480711331054359,"81":-0.2819347076665838,"82":0.04347246743408116,"83":-0.4010811883813079,"84":-0.5032158054615431,"85":-0.04078231271456075,"86":-0.6017834730588819,"87":0.33839362299926407,"88":0.26083290668010833,"89":-0.42375796614344446,"90":0.26585939030594313,"91":-0.6877279674475518,"92":-0.3117651751596665,"93":-0.22157682973083392,"94":-0.22008504983860397,"95":0.16898149367802848,"96":-0.16307291704189655,"97":-0.3311294273751117,"98":0.34841966528670854,"99":-1.318708110693723,"100":0.050079534741264094,"101":0.11865746399291241,"102":-0.19715080907599655,"103":0.10887594204152433,"104":0.029337584767375458,"105":-0.047294146965847016,"106":-0.11592157288726747,"107":-1.662332347863106,"108":-0.1919408595119843,"109":-0.09935971858045806,"110":0.34222189380438384,"111":0.19639613997922503,"112":0.295708581626134,"113":0.4977620272420185,"114":-0.19630594212299543,"115":-1.1719494728016076,"116":-0.10542163538585088,"117":0.19774383587669714,"118":0.1894290629358754,"119":0.2551607418846176,"120":-0.10267217288430534,"121":-0.10121902711770883,"122":0.01799348359749857,"123":-0.5154376940808192,"124":0.07975074844915019,"125":0.5137182908985031,"126":0.07444415604668089,"127":0.48166040080827227,"128":0.0663312899877727,"129":-0.2130890646978978,"130":0.4565124558518092,"131":-0.4312187300581973,"132":0.22806244782585808,"133":0.2788745954751078,"134":0.21820169963653455,"135":0.5996303415804799,"136":0.036284199876521935,"137":-0.22624567144159066,"138":0.4609406282912627,"139":-0.7844594014711499,"140":0.11123998399876475,"141":0.24965089176848865,"142":-0.2445067257005559,"143":0.19263850456326284,"144":0.5387487719738416,"145":-0.3029894487462637,"146":0.2564310628056412,"147":-1.066776745518421,"148":0.13536315844502866,"149":-0.0618743610415475,"150":0.23978723035160426,"151":0.39494020473334995,"152":0.4734674824916421,"153":-0.18889324731306054,"154":-0.24957187002613854,"155":-0.7316360786621944,"156":-0.0043835404473320985,"157":0.2292283297784921,"158":0.3079348354462477,"159":0.12518727822033127,"160":0.026621839155187906,"161":-0.017651932304126813,"162":0.057690998217935725,"163":-0.5195621011033694,"164":0.5314827481981901,"165":0.7161367131923517,"166":0.22957085124060161,"167":0.5824533164161558,"168":0.19864782633963046,"169":-0.07234272923209384,"170":0.33073720406180873,"171":-0.2900001452989445,"172":0.19321143067330138,"173":0.600497105925185,"174":0.35884629533851636,"175":0.5067437681045378,"176":0.19455038642561692,"177":-0.0259674596997369,"178":0.2378119986708193,"179":-0.10045117462462247,"180":0.0417627763220187,"181":0.26638132400278175,"182":-0.01763233982547968,"183":0.3069798104043834,"184":0.3291309171772174,"185":-0.25352086765616505,"186":0.48152921968200446,"187":-0.14293827561593267,"188":-0.08211471964537918,"189":-0.024363292546243028,"190":0.18409907509996085,"191":-0.14473634865603355,"192":0.22486589120051387,"193":-0.11251394881508903,"194":0.11921012924910339,"195":-0.0706112956001243,"196":-0.025548725009858313,"197":0.22338496945296635,"198":-0.16498393051035382,"199":0.18628678095465911}},{"sx":5,"sy":5,"depth":8,"w":{"0":-0.18308019980874196,"1":-0.7958627800767296,"2":-0.2860038426021443,"3":-0.4612625341948427,"4":-0.12093711647253136,"5":0.06280133914907848,"6":0.6396377643330379,"7":-0.15807693200897147,"8":-0.018397479730960696,"9":0.20965489439477025,"10":-0.1404762402161697,"11":0.0057784115363206535,"12":-0.10504363745720102,"13":0.15878021114567226,"14":-0.14412780715363174,"15":0.3122195512530911,"16":-0.6338652265809179,"17":-0.599392942124201,"18":0.16251429398530773,"19":-0.06706260364429001,"20":-0.026824698504304707,"21":-0.12202151625130789,"22":-0.0974026389117213,"23":-0.2849894576132959,"24":-0.01760951570495891,"25":-0.540939844664146,"26":-0.45003942148269904,"27":0.10151247287839264,"28":-0.2776977000374446,"29":0.13607822476912884,"30":0.13219272865480516,"31":-0.4379472862078948,"32":0.47262673813886874,"33":-0.1138310405789465,"34":-0.5496333863879815,"35":0.0900526767469236,"36":0.349719984166332,"37":0.16211315096577236,"38":0.03997548026770033,"39":0.4203704282288867,"40":-0.08535366191778207,"41":-0.7435774321118698,"42":-0.022720833896325354,"43":-0.34346753589537465,"44":0.15245784239930063,"45":0.10274692126638821,"46":0.7959361240518343,"47":-0.15280733980492694,"48":0.2151192034494433,"49":0.19694550378382716,"50":-0.4617697823386196,"51":-0.26710285088305563,"52":0.09655914813416161,"53":0.22601461030158798,"54":0.081075181179992,"55":0.3726857205416883,"56":-0.23965772644262598,"57":-0.26939563561370483,"58":0.5598525497553495,"59":-0.16493949372852504,"60":0.17211195905668236,"61":0.10795168921822464,"62":-0.12885922573780068,"63":0.08930082473682698,"64":0.2966418925725595,"65":-0.11716329020832604,"66":-0.12973736654929796,"67":0.0850194603224583,"68":0.012329671329533975,"69":0.23589155056807928,"70":-0.02271126887534141,"71":-0.005021555677947194,"72":0.6277749830204128,"73":0.14459500399020175,"74":-0.33750657387535477,"75":-0.40550489735784256,"76":0.39414256804854964,"77":0.018005427383693227,"78":0.005263470466301605,"79":0.5613757021697692,"80":0.08537734132419765,"81":-0.7278463454778497,"82":0.05247958877219999,"83":-0.6771457987020185,"84":-0.15164756355077486,"85":0.0028872379372065454,"86":0.9213621449219459,"87":0.02748070991863761,"88":0.01266166678438713,"89":0.04334489269786632,"90":-0.08422420528621734,"91":-0.21853749472843523,"92":-0.11933618330571218,"93":0.27684630450234604,"94":-0.17851270394125476,"95":0.3830869091348887,"96":-0.13843360669163915,"97":-0.3633681903324362,"98":0.6409385150523281,"99":-0.5578420330142227,"100":0.2233931911428867,"101":0.04281138150605793,"102":0.11882131845820267,"103":0.06597435068461069,"104":0.34283628153522777,"105":0.01989301069463803,"106":0.17339435075188897,"107":-0.10456047844585539,"108":-0.3986791705102819,"109":0.2619818525395631,"110":0.1342466909982764,"111":0.07976376290100978,"112":0.08451591125676615,"113":0.10950290438347884,"114":-0.20384589044597198,"115":-0.3745893780999324,"116":0.28669454983598,"117":0.2256522093339027,"118":-0.7132724687019173,"119":0.5251233571641065,"120":0.28786587126898955,"121":-0.5884427942437075,"122":-0.1078345130683966,"123":-0.5165769476922158,"124":-0.15675871778912717,"125":0.12518545590415436,"126":0.8346687557100159,"127":-0.15110969150715542,"128":0.12672536383726948,"129":-0.1733970706058021,"130":-0.17249435362167317,"131":-0.5307093292717177,"132":0.03464709613941191,"133":-0.10702981720222857,"134":-0.06734578353056597,"135":0.24307332902890308,"136":-0.2769091656283108,"137":-0.06680979837679049,"138":0.7210761225319094,"139":-0.15886397107452058,"140":-0.3982384684444098,"141":-0.10359430092401277,"142":-0.04521563144336227,"143":-0.2703640555219611,"144":0.28586125586820416,"145":-0.2050730006073153,"146":0.0708089219587334,"147":-0.17079620388843217,"148":-0.18338692152754135,"149":0.018425193349208873,"150":-0.07729842407524173,"151":-0.08833728283089497,"152":0.2757346134234837,"153":0.24555982077882033,"154":-0.2979058017208672,"155":-0.6992203266763899,"156":0.22426121841625832,"157":-0.11136052230449811,"158":-0.43983190952313733,"159":0.37974166637473744,"160":0.22117722145283453,"161":-0.366118931485744,"162":-0.20044558227887038,"163":-0.4082689126462616,"164":-0.061223646166291106,"165":0.15098562109847213,"166":0.6488362833510444,"167":-0.013752449135904283,"168":0.08569100191426329,"169":-0.31939501256105685,"170":-0.19924209688434633,"171":-0.3977353977436424,"172":-0.07911228754216482,"173":-0.21813177030262365,"174":-0.07916425423051782,"175":0.33797209659969635,"176":-0.3209492760516034,"177":0.3396189273879786,"178":0.49732141049787437,"179":-0.36061392689459004,"180":-0.19229007196314582,"181":-0.9730462638157954,"182":0.04893707574912904,"183":-0.25711966898304295,"184":0.5885730060251098,"185":-0.2913161132043641,"186":-0.4061849261183553,"187":0.08828291856823826,"188":-0.11387035668601722,"189":-0.2593659953482391,"190":-0.08816624435138688,"191":-0.19526223410616372,"192":0.3835723426017606,"193":0.16817995442567624,"194":-0.99771050046617,"195":-0.5194033701088548,"196":0.5797612513500829,"197":-0.31469156556899713,"198":-0.2534087381513579,"199":0.8656570111387948}},{"sx":5,"sy":5,"depth":8,"w":{"0":0.423309801002335,"1":-0.3633911514431509,"2":0.3584653982121721,"3":-0.2839867463978111,"4":0.46311036733520966,"5":-0.5276321621304926,"6":0.2424558397242544,"7":0.2135429054864294,"8":0.47843036093264085,"9":-0.5198760743170543,"10":0.9081025999724555,"11":-0.9579976189841847,"12":0.15975678109265057,"13":-0.18818287619487187,"14":0.6278336828954596,"15":0.5575406087489814,"16":0.41751039146735913,"17":0.005469338925643514,"18":0.5857478011146471,"19":-0.851018442680852,"20":0.03196824683747323,"21":-0.12701063482251437,"22":0.5880511295490428,"23":0.22506408383329488,"24":0.24766883332976816,"25":-0.36153082866217745,"26":0.2464716691515886,"27":-0.8955419096602832,"28":0.11120582268063374,"29":0.07357971919962789,"30":0.5029582216361993,"31":0.2546978775414482,"32":0.8319508960357693,"33":0.5764527439814279,"34":-0.09517226084471003,"35":-0.6080152759702164,"36":-0.20836909957978544,"37":0.02056596735400771,"38":0.3809589836289316,"39":0.3575913288247594,"40":0.2827436256204372,"41":-0.09013271472059667,"42":0.376222020036543,"43":-0.32889734025478634,"44":0.15411983681217034,"45":-0.11153545949637611,"46":-0.12658341967200218,"47":0.18928238249999013,"48":0.27672920898761066,"49":-0.15152186301133683,"50":0.2288292413914099,"51":-0.6924568716732479,"52":0.12653111472598633,"53":-0.24838796683304631,"54":0.26896714566937413,"55":-0.03590824062028892,"56":0.16131402553867596,"57":0.3620979871435621,"58":-0.04906480236069353,"59":-0.8530176729285238,"60":0.2793699014583915,"61":-0.3059531869994897,"62":-0.08258856807951949,"63":-0.1557442614117819,"64":0.25473357508833677,"65":-0.04024163769493184,"66":0.02010741219348945,"67":-0.29722334573329506,"68":0.006809010338553571,"69":-0.10047045244851363,"70":0.3688112754242199,"71":-0.09464917852980101,"72":0.4311483912988789,"73":0.7206699100666608,"74":0.08358332678183707,"75":-0.13038659776080044,"76":-0.10432957508065907,"77":0.03162851371943525,"78":0.16697189297995688,"79":-0.33263736864693205,"80":0.04295125981152349,"81":-0.00313462864528418,"82":0.21113333967977602,"83":-0.2751941577057711,"84":0.042962575112312114,"85":-0.24921610353187656,"86":0.23199453215273794,"87":-0.010377421140289734,"88":0.014195664271827318,"89":0.01405973878583551,"90":0.19084765030377235,"91":-0.5196389058296712,"92":-0.24524341060523885,"93":-0.11062855264811833,"94":0.05764056284899166,"95":0.0565183562899555,"96":-0.2276012757469231,"97":0.02468929937772771,"98":-0.1112600192997925,"99":-0.5186683660584487,"100":-0.09082572587501743,"101":-0.31327195205866726,"102":0.210899498618393,"103":-0.061529490040401306,"104":0.061377115673761105,"105":0.1447515787478028,"106":0.21975313351379705,"107":-0.42215790037597384,"108":0.15220257160526104,"109":0.06458754196840076,"110":0.3328116141344444,"111":0.17978047689683274,"112":-0.2898038054181877,"113":0.9978616127642285,"114":0.3434531904224922,"115":-0.058187576629258705,"116":-0.21816656235944296,"117":0.0423256184087099,"118":0.050157516490732544,"119":-0.10001828665253598,"120":0.07957589646627065,"121":0.07743363398762168,"122":-0.08998974838586632,"123":-0.0643213407567977,"124":0.18846271810710696,"125":-0.11091538391147861,"126":0.010040605245645848,"127":0.09639301538199098,"128":-0.11004174131272418,"129":-0.003582544883434988,"130":0.4147979395395648,"131":-1.1144892677298264,"132":-0.014401615263038311,"133":-0.04084816038808577,"134":0.45314135797748567,"135":0.20577082642968786,"136":-0.14529097104856514,"137":-0.09326492570237456,"138":-0.10825408860708156,"139":-1.0144377872478316,"140":0.17505730723357124,"141":-0.38739566284611443,"142":0.43788837442337925,"143":-0.17518045080381295,"144":-0.09066846617626544,"145":-0.4813831628725165,"146":-0.02521131383191639,"147":-0.6792072328390003,"148":-0.007396538709866977,"149":-0.03661030606028585,"150":0.28710224891198033,"151":-0.04066195071734197,"152":-0.02511797789293281,"153":0.025441604780496202,"154":-0.12669777552810574,"155":-0.3826862028848047,"156":0.09364228830171423,"157":-0.012281763045876616,"158":0.27608006920636213,"159":-0.15189413741392857,"160":0.2751395640592517,"161":-0.06535055364302372,"162":-0.4944565238839972,"163":-0.5970624567453405,"164":0.3539428632878937,"165":-0.1509811042879057,"166":-0.14104565496026567,"167":0.3823287645098875,"168":0.20550117941945376,"169":-0.39631023317491065,"170":-0.30003242055046425,"171":-1.499429985531968,"172":0.09762113499726055,"173":0.5593707440344756,"174":0.11956143644601205,"175":0.561510784282056,"176":0.23480237523421854,"177":-0.5451321785288293,"178":-0.05679092727146822,"179":-1.8974132201424818,"180":0.3061086961711004,"181":0.43830271203520416,"182":0.3472598543991743,"183":0.47847985294776985,"184":0.2682537928104312,"185":-0.3566900170697347,"186":-0.11547974379058583,"187":-1.541439611893413,"188":0.10819606585626972,"189":0.9554669588850384,"190":0.3098020104030113,"191":0.6678741593016726,"192":0.3344180068755396,"193":-0.5132910052043809,"194":-0.43072769675356787,"195":-0.8296666742044624,"196":0.26696075328435304,"197":1.619739429300868,"198":0.18999021832131258,"199":1.2312699101673317}},{"sx":5,"sy":5,"depth":8,"w":{"0":-0.17104230602518003,"1":-0.13840004649077225,"2":0.4452200607904352,"3":-0.053181006298220805,"4":-0.15748600272030075,"5":-0.3964564496867096,"6":-0.1944644320044903,"7":-0.2723104574670933,"8":0.08948784811593381,"9":-0.18974327033350455,"10":-0.21279693547085943,"11":-0.1600314869344707,"12":-0.23050175670883494,"13":0.00721906584647259,"14":0.04910940654696158,"15":-0.054074434927691886,"16":0.1680281266512492,"17":-0.007487912691119291,"18":0.2280985809280847,"19":-0.3431735295893115,"20":-0.028236608344829727,"21":0.34739337865196035,"22":0.17876401061779165,"23":-0.3597369777060821,"24":0.20135211243231524,"25":-0.004661186205611955,"26":-0.4417836014875948,"27":-0.20113291276209283,"28":-0.13689991752003153,"29":0.49959260472934525,"30":0.0205074932165397,"31":0.06839002084427345,"32":0.3158404323857147,"33":-0.40545252822983147,"34":-0.319771135417285,"35":0.12769643597609492,"36":0.06268197906718158,"37":-0.12220126257005047,"38":0.30434173387165847,"39":-0.25417019918306966,"40":-0.23612695237950565,"41":-0.1338030969270952,"42":0.5309253969753377,"43":-0.31567138218976604,"44":0.06999208908178667,"45":0.0830658692528265,"46":-0.4021982035815132,"47":-0.28189265706854677,"48":-0.135433057065468,"49":0.4945531808439494,"50":-0.014063886356669929,"51":-0.20465165976438407,"52":-0.3483057289883259,"53":-0.028527336943702502,"54":-0.09784579877983063,"55":-0.0016278447562429461,"56":0.04434968285135741,"57":0.028764230787057858,"58":0.34646930944235077,"59":-0.018339672257868672,"60":0.07654933731533242,"61":0.41056029816720585,"62":0.25972888256891774,"63":-0.025523798165329733,"64":0.29843468140774226,"65":-0.18582322038497306,"66":-0.2151381558155881,"67":0.1729216196586012,"68":0.24483340878300983,"69":0.32467860883707733,"70":0.12690780097276272,"71":-0.016812553808727718,"72":-0.2708891576982124,"73":-0.5690358975039077,"74":-0.29557527872011546,"75":0.39976377586640327,"76":0.19057160286253205,"77":-0.3989024369614081,"78":-0.10394490533080922,"79":-0.4934872928461075,"80":-0.04231444052492092,"81":-0.27351230315700337,"82":0.48688225271004754,"83":-0.37707162906115727,"84":0.17590640751785144,"85":0.08447763426520127,"86":-0.3767094137854705,"87":0.08843592525089487,"88":-0.12668066750456536,"89":0.08720728617730539,"90":0.15523148138988263,"91":0.10369315947333024,"92":-0.28539121787481325,"93":-0.05362657679519787,"94":-0.14564969876142309,"95":-0.004857325817560865,"96":0.13255358658046015,"97":0.22338721556733782,"98":0.44642329520047686,"99":0.4109728976381702,"100":-0.010812471785079698,"101":0.2861477829319992,"102":0.22219155720505132,"103":0.0766242390019574,"104":0.11127240348438662,"105":-0.06159024080689193,"106":0.1679255247490628,"107":0.2536665025380849,"108":0.17060959218422003,"109":-0.11015079865886168,"110":0.2497041356229773,"111":-0.04179457866127249,"112":-0.525397792442941,"113":-0.4451904425925402,"114":-0.5686116562756651,"115":0.283558855653267,"116":0.09002840617879286,"117":-0.0689111217732942,"118":-0.15672889519922947,"119":-0.22753349334210507,"120":-0.09476197611088905,"121":-0.20408528693311787,"122":0.5539558049393933,"123":-0.23241678703780927,"124":0.04093492387099711,"125":0.2108608989475512,"126":0.09272010125953875,"127":0.02022331840272061,"128":-0.22244999860551204,"129":0.14293285498567956,"130":0.05620122819461487,"131":-0.23029287228679188,"132":-0.13732096442667233,"133":0.07843278111214905,"134":-0.10520725439370947,"135":0.18801621470772284,"136":-0.12066073538050806,"137":0.22917578579656767,"138":0.6700131754996809,"139":-0.03429257560581313,"140":-0.07638433338711739,"141":-0.024255888407585486,"142":-0.07201376802747889,"143":0.07691288755274844,"144":0.18287204853113406,"145":-0.29119664831459985,"146":0.32703588287430513,"147":-0.11610508968646115,"148":-0.0428205957995699,"149":0.1164863383170454,"150":-0.09597289369266215,"151":-0.6067140842218729,"152":-0.2012905492575026,"153":-0.1184240080632908,"154":-0.8011035929223401,"155":-0.3286701075951352,"156":0.4130898990353798,"157":0.2286892565643547,"158":-0.09639237892916883,"159":-0.344495100089196,"160":0.17506262394072986,"161":-0.09972396355833738,"162":0.4475088859945769,"163":0.015277450493257008,"164":0.429417162719695,"165":0.0608936003974248,"166":-0.2336998495098519,"167":0.04310229410997093,"168":-0.04572879410087246,"169":-0.23766431168664828,"170":-0.18225974510480086,"171":-0.028547415618804983,"172":0.022496239108687133,"173":-0.1774498437239927,"174":-0.01900508489810573,"175":0.17297305231757723,"176":-0.05782733148776014,"177":-0.41436334763292165,"178":0.024793317584940806,"179":0.13178923066219358,"180":0.096358092423526,"181":-0.14943490064602405,"182":-0.10133979806090745,"183":0.03409253116499273,"184":-0.2980649226871121,"185":-0.3041738757061396,"186":-0.42730860539765464,"187":-0.42533654207853683,"188":-0.1413192882106014,"189":-0.08001289819691526,"190":-0.059434245450211226,"191":-0.5539974858700295,"192":0.2701997286096361,"193":0.09037310260225831,"194":-0.7414591874683601,"195":-0.8408824159545989,"196":0.2581782393689357,"197":-0.9381109977522835,"198":0.12298778322219242,"199":-0.7187138925139103}},{"sx":5,"sy":5,"depth":8,"w":{"0":-0.2503039976673979,"1":0.1974231721777976,"2":-0.32136239716780346,"3":0.2847095987644812,"4":-0.04045141132215383,"5":0.17628065362152548,"6":-0.6464729485217883,"7":-0.09688206675875898,"8":-0.5001677988179412,"9":0.6271263415350125,"10":-0.838730150996548,"11":0.3269913079965408,"12":-0.5075904364192826,"13":0.9249910072603331,"14":0.2790348254841287,"15":0.1609410334434166,"16":0.048909933908213084,"17":0.4839629095400944,"18":-0.8821032198654941,"19":0.0718047401982142,"20":0.09317809761437672,"21":0.7475135570386089,"22":0.4840734788020672,"23":0.48183720407067354,"24":0.6634015693253127,"25":0.05497917048652203,"26":-1.2643111480487987,"27":-0.14787147852627264,"28":0.060954370229698115,"29":0.4515950645679417,"30":0.29412229138037155,"31":0.2322154732009039,"32":0.2516482563892786,"33":-0.049650405062820036,"34":-1.1326066099824215,"35":-0.39083620693154586,"36":0.2863869495727023,"37":-0.08325585154498655,"38":0.12386545922623032,"39":0.02185347479421494,"40":-0.1146335653183019,"41":0.6323678620088252,"42":-0.737530951884115,"43":0.5752149482802995,"44":-0.32897828505318466,"45":0.31188232492398404,"46":-0.4250495500767554,"47":-0.006729651721941684,"48":-0.027657186111114482,"49":0.9022923454802811,"50":-0.9094861695051304,"51":0.3110212243417629,"52":-0.3012558920294604,"53":0.47064510020993283,"54":0.39151385294055996,"55":-0.04982723291404525,"56":0.05696730935793475,"57":0.06887160480845773,"58":-0.8997132771473543,"59":0.2246687129434062,"60":0.43228517025788715,"61":0.6025759622735987,"62":0.10150337323058534,"63":0.3091205704486123,"64":0.31829121663155907,"65":-0.11115898326772675,"66":-0.6540258147208787,"67":-0.21082954723350172,"68":0.3860181742802041,"69":0.4669131912902242,"70":-0.4238599689633654,"71":-0.1049500448291514,"72":-0.013378004510435335,"73":-0.5430331067114043,"74":-0.24091066488453614,"75":-0.16167748390669476,"76":0.0880082462138564,"77":-0.026533149694400456,"78":0.03752864667172012,"79":-0.20279380694563878,"80":-0.0972124846026411,"81":0.6292325686890831,"82":-0.709677625583478,"83":0.25558180217565607,"84":-0.3899377212999195,"85":0.1898670356986145,"86":-0.3988235555637711,"87":0.06142754661310128,"88":-0.26236487736139685,"89":0.4272002359611847,"90":-0.4832447855461086,"91":-0.11609178096856997,"92":0.14406900538249523,"93":0.40158610032263226,"94":0.06426680321025506,"95":0.13289580395809156,"96":0.05167628540587449,"97":-0.07114730467946936,"98":-0.4983195961235435,"99":-0.06995314688234763,"100":0.37321331967134924,"101":0.2502976027125314,"102":-0.02022945741785408,"103":0.17767897408691907,"104":-0.015945191774475537,"105":-0.17099468805917442,"106":-0.41869047525657194,"107":-0.18261669297862382,"108":0.1882618957548633,"109":0.5607512870073587,"110":-0.034727206486318656,"111":0.2085858952714034,"112":-0.29327921252355443,"113":-0.6161457440182938,"114":-0.3702317769505733,"115":0.46744089196217703,"116":0.07477468634001597,"117":-0.09589193983829349,"118":0.053238659743178256,"119":0.046618148187843364,"120":-0.24172187806341147,"121":0.3284211920403328,"122":-0.7159703975027533,"123":0.3512842820708244,"124":-0.05765451748262859,"125":0.27573232821233695,"126":-0.198873349878106,"127":-0.2531680321803319,"128":0.04045077863624368,"129":0.24458327171404085,"130":-0.475060034973748,"131":0.4067147282000137,"132":-0.04875211722819842,"133":0.4116905323594231,"134":0.34582388431006583,"135":-0.07601461136072508,"136":0.012401668111046529,"137":-0.4590261806223458,"138":-0.4710471961552447,"139":-0.409225212583051,"140":0.2485742413476821,"141":0.38935418194203664,"142":0.2650038705128391,"143":0.09029388355268286,"144":0.11002238061150821,"145":-0.3879312033839972,"146":-0.8871275989962039,"147":-0.17088749764707753,"148":-0.03395759951135028,"149":0.2134777485250746,"150":0.320707718498002,"151":0.14945305896205383,"152":-0.3785335732350573,"153":-0.5928030170377537,"154":-0.1374759061070403,"155":0.006883351055147383,"156":-0.24322351289112368,"157":0.09567991028464047,"158":-0.000647081261257088,"159":0.2607355505329424,"160":-0.1295609297117845,"161":0.0012710833262027516,"162":-0.7144454421965848,"163":0.11382033717725833,"164":0.035013231264396046,"165":-0.1268274417792843,"166":0.050017483558282484,"167":-0.23163946310924155,"168":-0.16532517746363562,"169":0.03629256827935622,"170":-0.6322600669459054,"171":0.35744332396242945,"172":0.21919589523694175,"173":0.5504782710672851,"174":0.25610775747677544,"175":0.2535377098816404,"176":-0.04197331069493961,"177":-0.48776735538439875,"178":-0.8246799369398544,"179":-0.4908716909946841,"180":0.5479285466629528,"181":0.3694298942488845,"182":0.21350543159598992,"183":0.4407862906112543,"184":-0.1007000807280426,"185":-0.27317195740972355,"186":-0.8769396420544666,"187":-0.027304338251082156,"188":-0.07417495388011029,"189":0.7033589579918809,"190":-0.034456386650300826,"191":0.25484686548030966,"192":-0.3028928815808417,"193":0.026546422967406526,"194":-0.1776627922010869,"195":-0.31901625473020273,"196":-0.12009251029657748,"197":0.6947250551986021,"198":-0.40976372679014555,"199":0.4926292288213078}},{"sx":5,"sy":5,"depth":8,"w":{"0":-0.038153800048263485,"1":0.006801228984923445,"2":-0.037201632409821495,"3":-0.009849656175027484,"4":-0.0694329280484922,"5":0.08295483186687616,"6":-0.057105161221138054,"7":-0.020804920271261972,"8":-0.010589659731516387,"9":0.031245372163711867,"10":0.00959258648612372,"11":-0.09053093875340538,"12":0.04078162807877026,"13":-0.007419660638224935,"14":-0.03979639924958598,"15":0.022359290046916263,"16":0.04209269817034058,"17":-0.10901872443893026,"18":0.09617103056217516,"19":-0.02902990425325604,"20":-0.037029029671636446,"21":-0.011371616379701724,"22":0.02581578547794961,"23":0.012239995685705909,"24":-0.10054740161992552,"25":-0.02028499269774247,"26":-0.054905383947550554,"27":-0.006904771706352657,"28":0.06281544549546658,"29":-0.15721656758959138,"30":-0.05630848081159389,"31":-0.03796805605479674,"32":0.03940333627544846,"33":0.03900642572299972,"34":-0.020157429706897573,"35":-0.04277699642338872,"36":0.014725305059687365,"37":-0.0475920659337818,"38":-0.0031287735192645646,"39":0.025660906726753346,"40":0.0287791627626425,"41":0.002696251584504806,"42":-0.017192576674277066,"43":-0.03341576821417315,"44":0.02706457222652178,"45":-0.03406598323914775,"46":0.01562811076451418,"47":0.003863553483242364,"48":0.03650595691481629,"49":-0.0046308994276512,"50":0.016721944120244213,"51":-0.02670734540009398,"52":-0.005352749105898587,"53":0.057782759138053995,"54":0.05092022462030205,"55":-0.08045407357995873,"56":-0.03735074232952887,"57":-0.11499390801201896,"58":-0.0035583968589756017,"59":0.020236117761848155,"60":-0.019858637270715372,"61":-0.07779651061514485,"62":-0.005757642851740908,"63":-0.013772661121100123,"64":-0.03588090478541267,"65":-0.02930672928035096,"66":0.05426326068116216,"67":-0.053581105539221664,"68":0.04663713072868461,"69":0.002106400017794386,"70":-0.0851519911294345,"71":-0.09017348100351276,"72":-0.032214560508223716,"73":0.00011839605882473035,"74":-0.02195190159093551,"75":-0.052420025530133925,"76":0.010645840894814976,"77":-0.06095001760476322,"78":0.05408849491052682,"79":0.022059329800153543,"80":-0.042116647425535156,"81":0.01817868665755196,"82":-0.007113034863370513,"83":0.04389694110095174,"84":0.011430050293308945,"85":-0.13090437519820194,"86":0.050749873939976174,"87":-0.009550649248103603,"88":-0.06030674457108482,"89":0.023994004868705923,"90":-0.02544831628695468,"91":-0.08258131934824335,"92":0.0017149219343638793,"93":0.006089718174443275,"94":0.0840948147554756,"95":0.06869470257058483,"96":-0.016901248765958502,"97":-0.05548663962066506,"98":-0.032256937276480054,"99":0.04958866052573062,"100":-0.03767721819284947,"101":-0.04224163342816646,"102":-0.028393447104519423,"103":0.05168614045409644,"104":-0.018722501394078456,"105":0.013638055697917085,"106":-0.02995673600826313,"107":0.02146070679087095,"108":0.03402701238495764,"109":0.044829810112562145,"110":0.008738938033645376,"111":0.04277723713206439,"112":-0.08242743002851154,"113":-0.05002861382405442,"114":-0.030892239888885658,"115":-0.11945317058102262,"116":0.033621626326269326,"117":-0.002292408516642196,"118":0.012192984497487206,"119":-0.09434245375227891,"120":-0.07838599746048891,"121":0.018705632957756943,"122":0.01437262754398751,"123":-0.006032110678889431,"124":-0.04537396618836943,"125":-0.011813647634878787,"126":-0.07464239312744725,"127":-0.018783504030300092,"128":-0.007981188494058959,"129":-0.07519976893798566,"130":-0.026092539049774117,"131":0.009749008903092242,"132":0.03628223973490946,"133":-0.02682163589536211,"134":-0.01351298596557996,"135":0.055805986820889934,"136":-0.039361790789254836,"137":-0.017915902127453892,"138":-0.020542302589243548,"139":0.027190883851712113,"140":-0.03653838401990935,"141":-0.06914796133772182,"142":0.08987239802716496,"143":0.07354183908149703,"144":0.023736474823549538,"145":-0.020849160286268955,"146":-0.017451440311131786,"147":-0.04363831210705044,"148":0.03557904849337048,"149":-0.03788126521114275,"150":-0.11354538234911196,"151":0.01634226605709985,"152":-0.08505118584165286,"153":-0.07803452480171821,"154":0.004203125566087002,"155":0.05258405075085652,"156":-0.04133413782886483,"157":0.09334222299416843,"158":0.06597853317105788,"159":-0.030381820394187842,"160":0.08558520008179658,"161":-0.12875316224865813,"162":0.1097605765954252,"163":-0.004555256616873589,"164":-0.10168517622109703,"165":-0.09925539589351683,"166":-0.06607236899787135,"167":-0.013227970852050632,"168":0.04021176453976782,"169":-0.04411529696137924,"170":0.03350049699344672,"171":-0.13240352316498208,"172":-0.13194729156715834,"173":0.040363192844161504,"174":-0.008631027900116021,"175":-0.03958627170920598,"176":-0.06509050198745622,"177":0.03622096767719459,"178":0.027110178969618957,"179":-0.06493668007590817,"180":-0.0523565997391961,"181":-0.020661018697457758,"182":-0.03873867526434909,"183":-0.011898262346573952,"184":-0.09351632625829841,"185":0.004706594638799079,"186":0.004919574072977803,"187":0.0006631548377258375,"188":-0.06540296252466941,"189":-0.007651155436750748,"190":-0.014172056999374476,"191":0.057328559142425906,"192":0.0013688444779208304,"193":-0.0057422219220091145,"194":-0.08846175562154004,"195":0.01750190199257961,"196":-0.03950341930189821,"197":-0.08270670276526892,"198":-0.035745916991456836,"199":-0.021845469472013983}},{"sx":5,"sy":5,"depth":8,"w":{"0":-0.25963386402724437,"1":0.0716020265943445,"2":-0.5343708788858369,"3":0.18196844012371158,"4":-0.4143056007626283,"5":0.33123991920405266,"6":-0.32982092209803,"7":0.008230471291769195,"8":-0.01349794300894173,"9":-0.07420554073957801,"10":-0.432058850591277,"11":-0.11767899558831982,"12":-0.4565812010858246,"13":0.43546806156040496,"14":0.18023381786052817,"15":0.48779870469142544,"16":0.2269587627085159,"17":-0.08309612293515857,"18":-0.3407202601044291,"19":-0.13781793804008405,"20":-0.07854466856584642,"21":-0.06810140479736927,"22":0.2984960493234508,"23":0.571787974842578,"24":0.17286107646581717,"25":-0.07371395897846071,"26":-0.17476795130836095,"27":0.6162152402771883,"28":0.05836854275969751,"29":-0.6140649704152535,"30":0.5955521767148528,"31":-0.04174125191086363,"32":0.05023972587322119,"33":-0.18902527182251197,"34":-0.30726950533451347,"35":0.3352018878471481,"36":0.035499864072325575,"37":-0.19654323286746384,"38":0.30622122279052827,"39":-0.27436046357875565,"40":-0.22414033712725878,"41":0.31787955557916336,"42":-0.6925220069582886,"43":-0.1886284647836958,"44":-0.6090058717591444,"45":0.32282959538451017,"46":-0.16127044142903108,"47":0.30741221965218984,"48":0.20130154288283963,"49":-0.09350900635912739,"50":-0.1947709697158673,"51":-0.3019024407439043,"52":-0.6033693531476902,"53":0.16659746021440563,"54":0.5105884486027816,"55":0.33484009798111863,"56":0.272599114450353,"57":-0.34701369280796174,"58":-0.2621472758144028,"59":0.1551561848487429,"60":0.13724341035388196,"61":-0.2620548472528455,"62":0.33995316598715325,"63":0.056732617595463275,"64":0.14616638551164152,"65":-0.5186206349822164,"66":-0.07937332734801598,"67":0.16983998942123144,"68":-0.016506981619350478,"69":-0.29451092114407246,"70":0.2983583500246799,"71":-0.2030214597793493,"72":0.08722607178099365,"73":-0.054779063655074726,"74":-0.2341046632321871,"75":0.15566911347389029,"76":-0.31511594833652673,"77":0.41206049549995644,"78":-0.2900718190610786,"79":0.03826307649822935,"80":-0.17189014386161797,"81":0.021972737229556363,"82":-0.33761150190803196,"83":-0.413003972168336,"84":-0.5801217314055162,"85":0.08301223944179091,"86":0.19088047613891,"87":0.25504748505484964,"88":-0.10500283887476951,"89":-0.20418149502354618,"90":-0.03940662213068153,"91":0.361496339493264,"92":-0.10300786399349122,"93":0.05490014911517287,"94":0.36752124920827506,"95":0.20568432005821133,"96":0.084014833477041,"97":-0.4180923099582057,"98":0.07081362146378414,"99":-0.10480384026463056,"100":0.23550145801185265,"101":-0.524645259742748,"102":-0.21641044885235955,"103":-0.07995801847945039,"104":-0.0394824922811605,"105":-0.2783184581471911,"106":-0.0887446165249611,"107":-0.4195148141991561,"108":-0.27732530828377655,"109":-0.11417567337835904,"110":-0.34871444936338025,"111":-0.07714842123947227,"112":0.0588247182431946,"113":0.14525346631230687,"114":0.4352304065180644,"115":-0.13451747892994392,"116":-0.45578204207499823,"117":0.5500059868231689,"118":-0.251477417961517,"119":0.3761122674091315,"120":0.07558723175453631,"121":-0.12324433817102773,"122":0.40611438162785346,"123":-0.04483449472450632,"124":-0.3491456297090005,"125":-0.31726358154364137,"126":0.3366485068541394,"127":-0.11097534158196581,"128":-0.11133905339716929,"129":-0.13345413235195902,"130":0.23281145256130686,"131":0.08782486546959901,"132":0.1659180588623602,"133":-0.5442879707383578,"134":0.17113574820429914,"135":-0.29168375789830836,"136":0.04873625011395614,"137":-0.39696737679389704,"138":0.016411214684840827,"139":-0.03813227882820562,"140":0.0469549565602849,"141":0.0574601422655805,"142":-0.00647740075224403,"143":-0.04215475087293802,"144":-0.08719250556595123,"145":0.2496891799359358,"146":-0.4003542567460118,"147":-0.4385525650520591,"148":-0.38056962091224683,"149":0.19104017242281157,"150":-0.2266672385844893,"151":0.10719993685170146,"152":-0.2733003579309196,"153":0.1692635318348501,"154":0.3534897837335007,"155":-0.256915255156675,"156":-0.3705266863215066,"157":0.3119021204922418,"158":0.43774004720476317,"159":0.5670193493413839,"160":-0.18551358011159064,"161":-0.1929934096134307,"162":0.15488151855989812,"163":-0.2521622866619134,"164":-0.14810110001294047,"165":-0.2072175755564402,"166":0.26953853575820147,"167":-0.36547066733626443,"168":-0.13180685862913183,"169":0.12018201294421582,"170":0.3571739000029072,"171":0.2072239236479478,"172":0.24977677807023785,"173":0.03673436558564122,"174":-0.09722850098002433,"175":0.09225598243011944,"176":-0.14255232306947102,"177":0.015383203075426843,"178":-0.15739498224516932,"179":0.2901197763123896,"180":0.06293060546826713,"181":0.44924086807176056,"182":-0.0588067138558716,"183":0.12283789856884003,"184":-0.30521097990984564,"185":0.5089410453577139,"186":0.09033288139258275,"187":-0.2798161340400166,"188":-0.06887232390042751,"189":0.24404540565366423,"190":0.20764333594487874,"191":0.26953003292128336,"192":-0.30375141660053784,"193":-0.3734885360286323,"194":0.3734293444081345,"195":0.4846291342685107,"196":-0.12867018888522133,"197":-0.2384485983690867,"198":0.15668288523866208,"199":-0.24631602410785552}},{"sx":5,"sy":5,"depth":8,"w":{"0":-0.22140349997211903,"1":-0.09563537309909934,"2":0.15714783200787938,"3":0.17189281981001336,"4":0.17219428973454634,"5":0.07697726397974912,"6":0.03494433150442853,"7":-0.32565698608258326,"8":-0.0003672026510348565,"9":0.4340116418325742,"10":0.13761653912771354,"11":-0.19063831887455782,"12":0.057700743671393336,"13":0.03146455303190479,"14":-0.04271467784204111,"15":-0.19291216264265615,"16":-0.2643565137182826,"17":-0.047637686093001966,"18":0.0014110604698156204,"19":0.04619879712458161,"20":0.24096190624180908,"21":0.38090951100468406,"22":-0.11524140536285536,"23":0.22335789370838283,"24":-0.0428733244182079,"25":-0.8479458970117806,"26":-0.17623003471899443,"27":0.12619010304210815,"28":0.3872655114980385,"29":0.2948556475192479,"30":-0.14470371668530616,"31":0.09577004128053454,"32":-0.3246565119588276,"33":-0.6738659545063355,"34":-0.20096118832514623,"35":0.03641416785892188,"36":0.011580958663270472,"37":-0.419245656310829,"38":-0.22738780042619158,"39":-0.2520439553943135,"40":0.3322273069734946,"41":0.23131245299405145,"42":0.16771722952680693,"43":0.06260661303824969,"44":0.40278097992876183,"45":-0.17082903297518257,"46":-0.24348071259022797,"47":-0.07182290969331404,"48":0.4385786646026696,"49":0.08898046804857562,"50":0.5076941432325558,"51":-0.20683377299225683,"52":0.2889585851381625,"53":0.2046430423465442,"54":0.027627587184016502,"55":-0.09928803058476161,"56":0.18851893048398743,"57":0.01857290112759903,"58":0.21426340801184815,"59":-0.28720743762985973,"60":0.3440462718500657,"61":0.34057555878584556,"62":0.15576401629445297,"63":0.1694738730136306,"64":0.6265829710442649,"65":-0.3401304538125953,"66":0.0030621494472988036,"67":-0.1297861950980588,"68":0.3334977947640691,"69":0.192425994844767,"70":0.06029679759390581,"71":-0.11452228345037462,"72":0.09560593796719613,"73":-0.6557321813231382,"74":0.5097924834978027,"75":0.006485015533537574,"76":0.057204454945452156,"77":-0.1322364581332815,"78":-0.33338263865903905,"79":0.058980629895145714,"80":-0.1593771370436838,"81":-0.2779426322406741,"82":0.061482667574379236,"83":0.17427168586775327,"84":-0.2827607943055737,"85":-0.18007404121424497,"86":-0.4556821577519593,"87":-0.07451048793922974,"88":-0.028386281165939668,"89":0.25796958562222716,"90":0.48160956987031817,"91":-0.29956328029419294,"92":-0.2927693176301651,"93":0.28167080094350583,"94":-0.43907820040986845,"95":-0.10369303071202783,"96":0.07192065986377986,"97":0.17052074713020815,"98":0.40042926930431705,"99":-0.1882282580917301,"100":0.19050780733483835,"101":0.06681019801094934,"102":0.2799473343794383,"103":0.04976636604564504,"104":0.132359071441267,"105":-0.020787844942296126,"106":0.5701586431459477,"107":-0.06689750282739422,"108":0.0019196852985978044,"109":0.3060451747114311,"110":-0.22908583271210398,"111":-0.04922325119886838,"112":-0.5748396158162686,"113":0.028182116750103264,"114":0.7736599301813919,"115":0.28616381755341264,"116":-0.05934870729024431,"117":-0.44887933393451446,"118":-0.07864574673648658,"119":-0.22663341465749154,"120":0.002714808429389671,"121":-0.042759232777509315,"122":-0.09262804238911158,"123":-0.1189566277189328,"124":-0.3615689713129342,"125":0.02858322399221407,"126":-0.7880079957214774,"127":-0.048274354728877596,"128":0.005728652954959576,"129":0.20010227238674624,"130":0.3944454704881918,"131":-0.21356769423085373,"132":-0.37371774853370826,"133":-0.28630812283282,"134":-0.5412397573924833,"135":0.09808196213184955,"136":-0.008159910506092882,"137":-0.4609048990439385,"138":0.5877741047348921,"139":-0.07010965668376211,"140":-0.2672708929129327,"141":-0.15002388200765884,"142":0.21325567208567983,"143":0.11587925872458239,"144":-0.014248059114693502,"145":-0.219965173644311,"146":0.5965907517468356,"147":-0.40949636827128544,"148":-0.2839097089021779,"149":0.0872633635679201,"150":-0.1484747785123006,"151":0.14655403362830816,"152":-0.6981147161364074,"153":-0.448870441570658,"154":0.5810826465067692,"155":0.008500929412193664,"156":0.21542514178057182,"157":-0.49308088312798815,"158":-0.17807505550708952,"159":0.2865292260607028,"160":0.006105854480236216,"161":0.1356576558679417,"162":-0.11314280165814103,"163":0.04825258307564184,"164":0.05631581693463369,"165":0.09106737518545621,"166":-0.31072015484070914,"167":-0.07021286742366552,"168":-0.02781142352532671,"169":0.24612152094035167,"170":0.8629911610218193,"171":-0.14073128654055586,"172":-0.18114677744594507,"173":-0.10547518047315224,"174":-0.16511996255318004,"175":-0.26886259563659737,"176":-0.1198069443897373,"177":-0.08268254625305135,"178":0.7054600824820125,"179":-0.1975821856527624,"180":-0.15823991004650384,"181":-0.23385639579931924,"182":0.22025916868393774,"183":-0.011531325606183791,"184":0.003381119506317462,"185":-0.32199801472464246,"186":-0.06417137803190222,"187":-0.05306670721180637,"188":-0.02671634725975601,"189":-0.11287900121180561,"190":-0.10830211065897019,"191":-0.10872127648569357,"192":-0.5041316013535551,"193":-0.17071844111245796,"194":0.5949261010659836,"195":0.4319606190640295,"196":-0.030115793111531917,"197":-0.2669300711809525,"198":-0.05063903123498912,"199":-0.12244189721036679}}],"biases":{"sx":1,"sy":1,"depth":16,"w":{"0":-0.026991554053118025,"1":-0.30358701298094887,"2":0.10503406589539892,"3":-0.03439319931495932,"4":-0.15321168646841132,"5":-0.08010696839224825,"6":-0.054049427548403924,"7":0.18125138215615363,"8":-0.14031501870090768,"9":0.06649830102254704,"10":0.037386427744750365,"11":-0.18697594224982478,"12":-0.0324649832181277,"13":0.07126353667803242,"14":-0.20029278481742002,"15":0.027162362496585022}}},{"out_depth":16,"out_sx":4,"out_sy":4,"layer_type":"relu"},{"sx":3,"sy":3,"stride":3,"in_depth":16,"out_depth":16,"out_sx":1,"out_sy":1,"layer_type":"pool","pad":0},{"out_depth":62,"out_sx":1,"out_sy":1,"layer_type":"fc","num_inputs":16,"l1_decay_mul":0,"l2_decay_mul":1,"filters":[{"sx":1,"sy":1,"depth":16,"w":{"0":-0.08193293800073854,"1":0.11445475256898922,"2":-0.009525071069766794,"3":-0.7776854271866953,"4":0.3178649915406114,"5":-0.5127097931251438,"6":0.08919207277171028,"7":-0.6042045639954345,"8":0.17696220924960254,"9":-0.8560628927240819,"10":-1.1535807121515336,"11":-0.41623282862084693,"12":0.2432033598546166,"13":0.4123956296764936,"14":-1.32998914285024,"15":-0.8508272194640988}},{"sx":1,"sy":1,"depth":16,"w":{"0":-0.03954848654843446,"1":-0.06823674841403168,"2":-0.17907852548407624,"3":-1.1241966817728701,"4":-0.02246303876942082,"5":-0.4030461854388487,"6":-0.11516080293221231,"7":-0.7109315218510235,"8":-0.7610657573765812,"9":0.19201241968738128,"10":0.370173632474786,"11":-0.25932460660748025,"12":-1.1966222541180935,"13":0.13357152222330276,"14":-0.33754347161676995,"15":-0.06753050573016028}},{"sx":1,"sy":1,"depth":16,"w":{"0":-0.4281391549484783,"1":0.482903748770115,"2":-0.06609264634116568,"3":0.3086205781945539,"4":-0.8163131124072781,"5":-1.32472043708448,"6":0.36149873423927237,"7":-0.11478627782262947,"8":-0.6971233631222038,"9":-0.5778608643630364,"10":-0.9687841149930472,"11":-0.5018563557550552,"12":0.15074880986520892,"13":-0.09257720363491412,"14":0.11985481263572424,"15":-0.5664374788104879}},{"sx":1,"sy":1,"depth":16,"w":{"0":-0.32201122088087053,"1":-1.0681035975157485,"2":-0.5488212247144403,"3":0.3672096820783438,"4":-0.09304202768574768,"5":-0.20865501281618004,"6":-0.27944344181088865,"7":-0.30517818987526213,"8":0.7349130039490508,"9":0.0781878093673201,"10":-0.7024485199176003,"11":-0.5556652735068732,"12":-0.5527069299955031,"13":0.12324799649989239,"14":0.2648222031053255,"15":-0.046897757284768055}},{"sx":1,"sy":1,"depth":16,"w":{"0":0.3124281869305962,"1":0.6359782412973575,"2":-0.06142667460666689,"3":-0.2599386131924695,"4":-0.28999359135825714,"5":-0.4316195594803993,"6":-0.19506253381684396,"7":-0.40264911830825256,"8":0.31445410018275244,"9":-0.6911665949217265,"10":-0.8584722210613933,"11":-0.4228729470567032,"12":-0.5941784982996693,"13":0.04751610152332172,"14":-0.14961286070261604,"15":-1.822419057419672}},{"sx":1,"sy":1,"depth":16,"w":{"0":0.22692843317249609,"1":0.24026946017053297,"2":-0.799215316773945,"3":-0.49241489983759984,"4":-0.5202099256028208,"5":-1.0293565226143064,"6":-0.7751550261531258,"7":0.4825679816924018,"8":0.13044116628450533,"9":-0.18666972908181353,"10":-1.2302171097657282,"11":-0.32230022248235285,"12":-0.22836760139770695,"13":-0.23187419220000197,"14":0.45060718565894786,"15":-0.11993342607295142}},{"sx":1,"sy":1,"depth":16,"w":{"0":-0.015389390897103913,"1":-0.4675021290083916,"2":0.02334736883288001,"3":-0.41115815923568827,"4":0.15198626887231118,"5":-0.3800894668121896,"6":-0.2614457633632974,"7":-0.4222479444394814,"8":0.07517145206376256,"9":-0.5365465074990748,"10":-0.2693137796368319,"11":-0.7425357856682534,"12":0.11081123848759185,"13":-0.12942539097105396,"14":-0.26144597292678007,"15":-0.6628602600240983}},{"sx":1,"sy":1,"depth":16,"w":{"0":-0.1820233017301592,"1":-0.21215484597107467,"2":0.10572343019733638,"3":-0.7315328858103097,"4":-0.29355330407860125,"5":0.00973828180378554,"6":-0.5430040890784449,"7":-0.4898270115326995,"8":-0.4693965673149059,"9":0.4740717060114483,"10":-0.44961788047104817,"11":-0.04760477661459572,"12":-1.7184602459106744,"13":0.19065603859547967,"14":-0.4887074700867652,"15":0.370592650904441}},{"sx":1,"sy":1,"depth":16,"w":{"0":-0.026765775950851986,"1":-1.130020200432507,"2":-0.4158079992585373,"3":0.4071533468480299,"4":-0.3914463214291828,"5":-0.7973066049651605,"6":0.39938838431467155,"7":0.3449215743675491,"8":-0.3988429040383706,"9":0.3044312001001541,"10":-2.7998067138631666,"11":0.5825342903251423,"12":-0.4880410909797092,"13":0.017449554438590555,"14":-0.6232138019020923,"15":0.4638794757196471}},{"sx":1,"sy":1,"depth":16,"w":{"0":-0.05750207296830912,"1":-0.328593463775889,"2":-0.27930659001160224,"3":-1.1957633167858586,"4":-0.05992822870989346,"5":-1.029067293130879,"6":-0.03978197152155283,"7":1.1168247815491794,"8":-0.8275074284181574,"9":-0.31085012639037224,"10":-0.8162828905305664,"11":-1.2860857130373218,"12":0.006809081568165188,"13":-0.1470848911343286,"14":-1.6741449804201851,"15":-0.2271704022297476}},{"sx":1,"sy":1,"depth":16,"w":{"0":-0.040664345944011485,"1":0.19463070662915005,"2":-0.003039823424561986,"3":-0.21105775201091684,"4":-0.06100744328100013,"5":0.21034530333454773,"6":-0.2722639119319504,"7":0.01929900808117248,"8":-0.7624339588104534,"9":-0.3855937179085694,"10":-0.6413910668218084,"11":0.24919662224295963,"12":-0.9645556640275995,"13":0.04914173923811536,"14":-0.6897193792546207,"15":-0.15076055440604003}},{"sx":1,"sy":1,"depth":16,"w":{"0":-0.21037887125597046,"1":-1.4796815418998006,"2":-0.5533647875231051,"3":-0.11123097494942953,"4":-0.07699451189049607,"5":-0.23351245690101202,"6":-0.13223220426354354,"7":0.354544005922019,"8":-0.6689185925395048,"9":0.29475048951078764,"10":-0.43623416047938546,"11":0.46284351046352284,"12":-0.5797994323982526,"13":-0.5092759264594683,"14":-0.32312922289113855,"15":0.16287953020922114}},{"sx":1,"sy":1,"depth":16,"w":{"0":-0.1931534176905724,"1":-0.5071943767799634,"2":0.11033892300123557,"3":0.1287729896741629,"4":-1.298756261823454,"5":0.18178990652658258,"6":-0.26043139930146453,"7":-1.2691589294434937,"8":0.593235709910078,"9":0.1688054938485698,"10":-0.6662061544612196,"11":-1.179985625866825,"12":-1.3248331441175152,"13":0.419706921864996,"14":-0.08083145098047291,"15":0.16361280999303168}},{"sx":1,"sy":1,"depth":16,"w":{"0":0.22296535566007908,"1":-0.08161905522367185,"2":-0.03706947177081199,"3":0.009639907398858507,"4":-0.8124244411445624,"5":-0.5381450987575482,"6":0.0838023097930066,"7":-0.6974046532164917,"8":-0.06940346652886302,"9":0.29071207397193544,"10":-1.380611307800257,"11":0.08273922336913185,"12":-0.9092521898883008,"13":0.35175572709218833,"14":-0.04304653856108012,"15":0.7557914330021459}},{"sx":1,"sy":1,"depth":16,"w":{"0":0.11500152576013,"1":0.061703365293099326,"2":0.4123551951116762,"3":0.14860316040536695,"4":-0.3453533855901602,"5":-0.9433025716720523,"6":0.10567276521839071,"7":-0.6533439241978961,"8":-0.07776011974684943,"9":-0.12752869144642662,"10":-0.9918373155706928,"11":-0.8377371958130577,"12":-0.2860415338911874,"13":0.18413540451950106,"14":0.2061568768216311,"15":-0.25385669961076757}},{"sx":1,"sy":1,"depth":16,"w":{"0":0.23072371600771288,"1":0.061425091809998375,"2":-0.5586330662647099,"3":-0.8912338828355443,"4":-0.763884140687042,"5":-0.8795850203695733,"6":0.09985221281835834,"7":-0.4991736534654932,"8":0.24938203597995573,"9":-0.12888259419621426,"10":-0.152544411917581,"11":-0.06057277953377479,"12":-0.5203537862862805,"13":0.18457944349170208,"14":-0.13542217632629885,"15":0.38408307948464104}},{"sx":1,"sy":1,"depth":16,"w":{"0":-1.051128298604355,"1":-1.149171635192516,"2":0.36510965937515055,"3":-0.2546875921372256,"4":-0.0969463390088281,"5":-0.3543151822489326,"6":0.14095076761618455,"7":-0.7966349704944002,"8":-0.1958026617309788,"9":0.2449569299750803,"10":-0.2616560537395411,"11":0.29608309819253353,"12":-0.09784236203430571,"13":-0.18194158945802916,"14":-0.5705884039734572,"15":0.03490185045127833}},{"sx":1,"sy":1,"depth":16,"w":{"0":0.2084597067397286,"1":0.10181136176961796,"2":-0.46271867041038767,"3":0.32293586015376446,"4":-0.6445347611079258,"5":-0.9372649767120362,"6":0.45377418775799466,"7":-0.03448515438381911,"8":-0.6374011606936093,"9":-0.18944804656549344,"10":-1.968477362999822,"11":-0.0014238232555853325,"12":-0.955435986406715,"13":0.1004035135256005,"14":0.39402396606263557,"15":0.4861516962732302}},{"sx":1,"sy":1,"depth":16,"w":{"0":-0.0037751038222353763,"1":0.5526317172055035,"2":-0.8635676229444894,"3":-0.3783399086221606,"4":-0.6077242823846235,"5":0.08838726105381052,"6":-0.3339359858624547,"7":-0.011573417669978136,"8":-0.4420152660364951,"9":-1.1805639256135587,"10":-0.7750553831238154,"11":-0.3150734677690075,"12":0.048479187213472844,"13":0.0808037543891633,"14":-0.5611616404381286,"15":-1.1410169833333068}},{"sx":1,"sy":1,"depth":16,"w":{"0":-0.06549440858705168,"1":-0.18209425621491723,"2":-1.1537486133776809,"3":0.16618919495669535,"4":-0.1488597930826316,"5":-0.5998240396581093,"6":0.5572896276777399,"7":0.3998836780109872,"8":-0.9464920820019173,"9":0.07504364584910393,"10":-0.4673656025268132,"11":-0.14468385743526485,"12":-0.5067153782832856,"13":0.1446877168444513,"14":-0.16501441910702483,"15":-0.24776839402316966}},{"sx":1,"sy":1,"depth":16,"w":{"0":0.526059433087106,"1":-1.3634291685656392,"2":0.04507266001721475,"3":-0.5460319569397439,"4":-0.855198733221585,"5":-0.30517203290429434,"6":0.3971341266394667,"7":-0.6490826265698159,"8":0.027138068450614235,"9":0.3597437464405653,"10":-0.28057235005731024,"11":0.005637777584170116,"12":-0.7137964884326219,"13":-0.24195827441019996,"14":-0.5970351192625332,"15":0.5084665582775989}},{"sx":1,"sy":1,"depth":16,"w":{"0":-0.7384385942563376,"1":-1.7406266452580252,"2":0.4063511760214514,"3":0.09066743498271165,"4":-0.4668977305810475,"5":0.228786260359215,"6":0.14023798852809574,"7":0.13279209796522118,"8":-1.199058090490763,"9":-1.1004555587608986,"10":-2.0279460407712513,"11":0.3341916754338689,"12":0.08506155447941578,"13":-0.074483923928436,"14":0.18586006811395678,"15":-0.13601666302782542}},{"sx":1,"sy":1,"depth":16,"w":{"0":0.404675003681967,"1":-0.17020506509608946,"2":0.36415113193732906,"3":-0.2577992958910566,"4":0.03913058789696464,"5":0.44761319655244397,"6":-0.2205672106696588,"7":-0.8489400321544174,"8":-0.2770736392407429,"9":-1.0290277083086818,"10":-0.5045916241100656,"11":-0.3225120611522215,"12":-0.8044617648643397,"13":0.15522017692318418,"14":-0.8175945686435654,"15":-0.5373170439539873}},{"sx":1,"sy":1,"depth":16,"w":{"0":-0.29640890873489084,"1":0.1629669889439441,"2":0.05785566833274949,"3":-0.09157128266372631,"4":0.025278740124944563,"5":0.26024920977107424,"6":0.09315538548920713,"7":-0.03693393629333381,"8":-1.1953919834028093,"9":-1.1998064877661982,"10":-1.7361523165831199,"11":0.012846115240173131,"12":-0.04425651771169854,"13":-0.16132741243453705,"14":-0.3974965369628965,"15":-0.4902546089357216}},{"sx":1,"sy":1,"depth":16,"w":{"0":0.47268354433281284,"1":-0.7477632978917406,"2":0.4929836851441565,"3":-0.12026486725646102,"4":0.07719936213509446,"5":-0.13868599892355846,"6":-0.11803257867579532,"7":0.18618321056731882,"8":-1.057739673779269,"9":-0.5937871584878467,"10":-0.23583101052222136,"11":0.2304517651976667,"12":-0.2819856195049679,"13":0.02080843647591692,"14":-0.2026662518113494,"15":-0.5824291227469468}},{"sx":1,"sy":1,"depth":16,"w":{"0":0.007983628001875165,"1":0.38914410825395496,"2":-1.1777638074882744,